svm_type c_svc
kernel_type rbf
gamma 0.03125
nr_class 3
total_sv 17948
rho 0.9763286588036926 0.07172114645841154 -0.7421270519142757
label 3 2 1
nr_sv 6256 5645 6047
SV
6.817242037028513 6.434507084151507 584:1.0 4259:1.0 9109:2.0 12684:1.0 17490:1.0 
8.0 5.766667914957333 584:1.0 731:1.0 1230:1.0 3224:1.0 9109:1.0 9613:1.0 11851:1.0 17373:1.0 
1.9452972980897594 0.0 581:1.0 584:2.0 585:1.0 812:1.0 5447:1.0 7702:1.0 8195:1.0 10718:1.0 12002:1.0 14121:1.0 16255:1.0 17292:1.0 19258:1.0 
8.0 1.759579035359223 581:1.0 584:2.0 5546:1.0 9109:1.0 10923:1.0 15778:1.0 17475:1.0 
8.0 8.0 584:1.0 9095:1.0 14668:1.0 14687:1.0 17857:1.0 18689:1.0 
8.0 8.0 581:1.0 584:4.0 2349:1.0 4458:1.0 5055:1.0 10532:1.0 11924:1.0 19056:1.0 
4.630612985482223 2.1796140755494906 581:1.0 582:1.0 584:2.0 585:1.0 6252:1.0 7111:1.0 7294:1.0 8507:1.0 15833:1.0 16255:2.0 16637:1.0 17126:1.0 17993:1.0 19233:1.0 
1.0869562015260352 0.0 581:1.0 584:1.0 1136:1.0 3764:1.0 5984:1.0 7572:1.0 13594:1.0 14796:1.0 17091:1.0 17099:1.0 17874:1.0 18282:1.0 
1.2897127815122158 1.4815434758287311 583:1.0 584:1.0 1326:1.0 1504:1.0 2202:1.0 3949:1.0 4470:1.0 6089:1.0 15875:1.0 
8.0 3.2184759859004477 1326:1.0 1343:1.0 3071:1.0 8367:1.0 9472:1.0 10181:1.0 10706:1.0 13128:1.0 
1.0052905881213663 0.5420967345173664 581:4.0 584:1.0 1523:1.0 2535:1.0 5510:1.0 6475:1.0 7788:1.0 8171:1.0 9307:1.0 10181:1.0 10628:1.0 10706:1.0 10947:1.0 12853:1.0 13003:1.0 13128:1.0 15426:1.0 16255:1.0 16604:1.0 17281:1.0 18009:1.0 19820:1.0 
0.7777199368985849 3.0439917813600954 581:4.0 584:1.0 1523:1.0 2535:1.0 5510:1.0 6475:1.0 7788:1.0 8171:1.0 10181:1.0 10628:1.0 10706:1.0 10947:1.0 12853:1.0 13003:1.0 13128:1.0 15426:1.0 16255:1.0 16604:1.0 17281:1.0 18009:1.0 19820:1.0 
4.7126434095925545 4.049954806292169 581:1.0 584:1.0 1136:1.0 1317:1.0 4458:1.0 6560:1.0 7479:1.0 7850:1.0 8340:1.0 9109:1.0 9954:1.0 10264:1.0 11044:1.0 13178:1.0 18478:1.0 19000:1.0 19045:1.0 
5.794046343313905 2.731197727020205 581:3.0 584:3.0 1237:1.0 7796:1.0 9109:1.0 9836:1.0 13128:1.0 14471:1.0 14828:1.0 19509:1.0 19553:1.0 
4.807072845315666 0.7410477905998752 1326:1.0 2384:1.0 2953:1.0 3350:1.0 3909:1.0 4594:1.0 6803:1.0 7613:1.0 8082:1.0 9109:1.0 14294:1.0 15825:1.0 16161:1.0 
8.0 8.0 584:2.0 7050:1.0 
2.58927003304853 0.11855109797399503 1207:1.0 1326:1.0 2384:1.0 2953:1.0 3350:1.0 6803:1.0 8082:1.0 9109:1.0 14294:1.0 15825:1.0 19208:1.0 
3.201280732181186 3.288506201700056 584:1.0 910:1.0 6475:1.0 10601:1.0 10872:1.0 16409:1.0 17081:1.0 17857:1.0 17989:1.0 19936:1.0 
0.5239297952481463 8.0 584:2.0 1237:1.0 2355:1.0 5487:1.0 6517:1.0 9109:1.0 12959:1.0 16653:1.0 
8.0 0.0 584:2.0 585:1.0 2664:1.0 9103:1.0 13836:1.0 14882:1.0 17680:1.0 
8.0 0.0 1326:1.0 7409:1.0 9103:1.0 
8.0 0.0 582:1.0 584:1.0 585:1.0 1092:1.0 6342:1.0 9088:1.0 12369:1.0 
2.5791606385844106 1.9591289912758802 584:2.0 1135:1.0 1692:1.0 8908:1.0 9111:1.0 12662:1.0 18911:1.0 20064:1.0 20334:1.0 
8.0 8.0 582:1.0 1326:1.0 9095:1.0 
5.232364013421763 7.948681214811137 580:1.0 583:1.0 584:1.0 907:1.0 2802:1.0 6017:1.0 9109:1.0 14439:1.0 17981:1.0 
1.007315462799804 0.5362520173199866 581:1.0 1326:1.0 2350:1.0 7884:2.0 8763:1.0 9111:1.0 9186:1.0 9237:1.0 13178:1.0 13537:1.0 13663:1.0 16419:1.0 18009:1.0 19192:1.0 19451:1.0 
0.34441267251091173 1.6593263650088088 581:1.0 1326:1.0 2350:1.0 7884:2.0 9111:1.0 9186:1.0 9237:1.0 13178:1.0 13537:1.0 13663:1.0 16419:1.0 18009:1.0 19192:1.0 19451:1.0 
8.0 2.190418287830983 584:3.0 585:1.0 3348:1.0 4170:1.0 11420:1.0 13904:1.0 16182:1.0 18480:1.0 
8.0 3.808490920935992 584:3.0 1317:1.0 1359:1.0 4892:1.0 4924:1.0 5222:1.0 9228:1.0 11718:1.0 17576:1.0 19680:1.0 
3.0920078528901205 0.11076598688526648 582:2.0 584:2.0 585:1.0 2786:1.0 3811:1.0 8548:2.0 9103:3.0 12771:1.0 14732:2.0 15778:1.0 15880:1.0 19946:1.0 20377:1.0 
5.291624766848623 1.0071867530056908 581:1.0 582:1.0 584:2.0 1326:1.0 2782:1.0 4576:1.0 5987:1.0 6517:1.0 9109:2.0 9472:1.0 10536:1.0 11583:1.0 15370:1.0 15811:1.0 17032:1.0 18938:1.0 19647:1.0 
4.3971630789188625 3.931686537031349 580:1.0 581:1.0 584:2.0 5807:1.0 6002:2.0 9109:1.0 10425:1.0 14526:1.0 15344:1.0 15786:1.0 18188:1.0 
2.617447293221222 8.0 584:1.0 1316:1.0 2376:1.0 
8.0 3.21756398766213 582:1.0 584:1.0 585:1.0 5294:1.0 9088:1.0 13970:1.0 14254:1.0 19056:1.0 
8.0 5.872271341374708 584:2.0 4509:1.0 8468:1.0 
5.839189026012864 0.5977421746508017 94:1.0 432:1.0 582:3.0 584:1.0 585:1.0 2228:1.0 4525:1.0 8849:1.0 9109:2.0 9111:1.0 11583:1.0 
4.285401124763232 1.0063000837501876 581:3.0 584:1.0 585:1.0 1770:1.0 2902:1.0 8111:1.0 8445:1.0 9109:1.0 10439:1.0 10628:1.0 15575:1.0 15789:1.0 18990:1.0 
0.30687055105012806 7.6615557927017255 582:1.0 584:1.0 1979:1.0 3380:1.0 5320:1.0 6538:1.0 9095:1.0 9109:1.0 9186:1.0 12684:1.0 14179:1.0 14882:1.0 19680:1.0 20048:1.0 
2.376485697505427 3.503999421513313 581:3.0 582:1.0 584:1.0 1825:1.0 2719:1.0 4458:1.0 8724:1.0 9186:1.0 10880:2.0 11653:1.0 12369:1.0 12920:1.0 13065:1.0 14171:1.0 18146:1.0 20294:1.0 
4.004134767948642 8.0 584:1.0 2832:1.0 4517:1.0 7270:1.0 9932:1.0 11772:1.0 12684:1.0 16255:1.0 17857:1.0 
4.054893324027512 4.513137954047274 580:1.0 581:1.0 582:1.0 584:2.0 585:1.0 1795:1.0 2483:1.0 4724:1.0 9109:1.0 11583:1.0 13178:1.0 15811:1.0 16423:1.0 19647:1.0 
3.3918060662598215 1.797301599214597 584:1.0 910:1.0 8635:1.0 9109:1.0 10718:1.0 10872:1.0 12369:1.0 17739:2.0 18963:1.0 
5.7451106552132485 3.5063661115101956 584:2.0 585:1.0 848:1.0 1237:1.0 1326:1.0 4470:1.0 7200:1.0 7572:1.0 11418:1.0 12961:1.0 15875:1.0 17099:2.0 
8.0 7.501436990583712 580:1.0 583:1.0 584:1.0 585:1.0 2072:1.0 9186:1.0 12684:1.0 13672:1.0 17874:1.0 18591:1.0 
2.81817592647717 4.584895015253155 580:1.0 1326:1.0 6741:1.0 9109:1.0 10651:1.0 10659:1.0 11033:1.0 13255:1.0 17046:1.0 17838:1.0 17857:1.0 18146:1.0 
0.0 5.597627529236408 584:1.0 3982:1.0 6803:1.0 7950:1.0 8082:1.0 10901:1.0 12284:1.0 12959:1.0 15825:1.0 19511:1.0 
4.70860630962152 4.80456112318734 581:1.0 584:1.0 3380:1.0 3771:1.0 6574:1.0 8635:1.0 15880:1.0 20048:1.0 
3.7608193809121957 0.0 581:1.0 584:3.0 1072:1.0 3949:1.0 5714:1.0 7572:1.0 15875:1.0 17099:1.0 18337:1.0 
0.0 8.0 584:1.0 6538:1.0 7702:1.0 9212:1.0 12443:1.0 17373:1.0 17722:1.0 
0.0 1.3070600633702891 584:1.0 848:1.0 4470:1.0 7200:1.0 7572:1.0 11021:1.0 11579:1.0 12961:1.0 15875:1.0 17099:1.0 
8.0 8.0 583:1.0 584:1.0 6280:1.0 9095:1.0 9103:1.0 
0.0 1.1907313121350953 580:1.0 581:1.0 582:1.0 584:1.0 4525:1.0 5982:1.0 7139:1.0 8542:1.0 8747:1.0 10718:1.0 12684:1.0 15789:1.0 18054:1.0 
8.0 2.481813363513488 584:2.0 585:1.0 1326:1.0 9109:1.0 9111:1.0 10993:1.0 16423:1.0 17036:1.0 17099:1.0 17475:1.0 
0.0 8.0 584:1.0 10880:1.0 12369:1.0 16154:1.0 
1.3139560109915815 0.0 584:1.0 585:1.0 3097:1.0 5222:1.0 9111:1.0 10718:1.0 11033:1.0 13806:1.0 19680:1.0 
3.175011872003808 1.4792846835057323 582:1.0 584:1.0 731:1.0 910:1.0 2234:1.0 3139:1.0 3874:1.0 4736:1.0 6362:1.0 9103:1.0 9109:1.0 9328:1.0 10880:2.0 14171:1.0 14179:1.0 17099:1.0 
5.495697967563666 7.218329763954292 584:1.0 3395:1.0 9095:1.0 10425:1.0 14653:1.0 20288:1.0 
5.644164587418941 2.9951655161808315 584:1.0 13220:1.0 14650:1.0 15415:1.0 19608:1.0 20072:1.0 
8.0 0.0 584:8.0 
4.68747686480873 2.5951661201764957 580:1.0 581:1.0 582:3.0 585:1.0 1326:1.0 9109:1.0 9111:1.0 9112:1.0 9472:1.0 10069:1.0 10151:1.0 10947:1.0 12415:1.0 13128:1.0 20294:1.0 
3.03688673714136 1.9726994731910683 584:1.0 2902:1.0 3713:1.0 6057:1.0 7359:1.0 7884:1.0 9852:1.0 10151:1.0 10345:1.0 10497:1.0 10909:1.0 12684:1.0 15065:1.0 16515:1.0 17099:1.0 19451:1.0 
2.508067267562794 6.2193012129709295 480:1.0 582:1.0 584:2.0 5105:1.0 7249:1.0 8987:1.0 9109:1.0 10696:1.0 11449:1.0 11924:1.0 13178:1.0 15875:1.0 17857:1.0 19045:1.0 20377:1.0 
4.807127192433401 2.710316444575679 581:1.0 582:2.0 584:1.0 585:1.0 1326:1.0 4525:1.0 5171:3.0 9109:1.0 9747:1.0 11583:1.0 15811:1.0 19680:1.0 
2.724868499640967 0.28298758107924954 1326:2.0 7779:1.0 9079:1.0 9228:1.0 16972:1.0 17857:2.0 
0.43980284445669604 0.6078242273745701 581:4.0 582:2.0 583:1.0 584:1.0 9111:1.0 10915:1.0 11583:1.0 13547:1.0 15763:1.0 19647:1.0 
7.999327823059611 7.620205764437698 581:1.0 582:2.0 583:1.0 584:1.0 9111:1.0 10915:1.0 11583:1.0 13547:1.0 15763:1.0 19647:1.0 
7.87511269075799 0.0 1182:1.0 1326:1.0 7131:1.0 9078:1.0 10880:1.0 11851:1.0 12415:1.0 12684:1.0 14197:1.0 15811:1.0 18146:1.0 20294:1.0 
8.0 8.0 581:1.0 584:2.0 17947:1.0 
8.0 8.0 1326:1.0 2384:1.0 11924:1.0 16653:1.0 
0.4278611443456402 2.4730893663086926 583:1.0 584:1.0 1006:1.0 2432:1.0 5871:1.0 7294:1.0 8031:1.0 9186:1.0 9852:1.0 9965:1.0 14358:1.0 14471:2.0 17055:1.0 19539:1.0 19880:1.0 
0.8187773745008236 1.595053675451127 580:1.0 581:11.0 582:1.0 584:1.0 1416:1.0 1811:1.0 2618:1.0 4525:1.0 5412:1.0 6479:1.0 7884:1.0 9109:1.0 10191:1.0 11773:1.0 13073:1.0 15039:1.0 
8.0 1.7965405180568685 581:1.0 585:1.0 1326:1.0 2729:1.0 
0.4942688421181557 1.6888149048978787 584:3.0 1136:2.0 1342:1.0 1523:1.0 1769:1.0 1795:1.0 2434:1.0 7368:1.0 10718:1.0 14156:1.0 17516:1.0 20404:1.0 
2.2952663768978985 3.291116738814531 575:1.0 581:1.0 584:1.0 1347:1.0 1769:1.0 2272:1.0 7317:1.0 8307:1.0 9109:1.0 10162:1.0 11624:1.0 13663:1.0 14882:1.0 17099:1.0 17857:1.0 18649:1.0 20037:1.0 
3.0147401379844343 0.0 584:1.0 4525:1.0 6404:1.0 7111:1.0 7884:1.0 9109:1.0 12369:1.0 12443:1.0 12959:1.0 16426:1.0 18689:1.0 19192:1.0 
4.234938740006303 7.298512690387808 582:1.0 584:1.0 5714:1.0 9088:1.0 10602:1.0 13030:1.0 13960:1.0 15708:1.0 17857:1.0 18949:1.0 
8.0 0.0 584:1.0 585:1.0 1326:1.0 6517:1.0 6755:1.0 9109:1.0 11583:1.0 12959:1.0 15442:1.0 18308:1.0 19233:1.0 19647:1.0 20039:1.0 20097:1.0 
0.0 2.9441233900302217 581:4.0 584:1.0 1092:1.0 2228:2.0 7200:1.0 8635:1.0 9747:1.0 
5.878985010952462 7.527693519895579 582:1.0 584:1.0 1326:1.0 3284:1.0 7493:1.0 9088:1.0 13051:1.0 15065:1.0 19006:1.0 
0.23064713742682783 0.543926450492802 581:1.0 584:1.0 1692:1.0 2655:1.0 5290:2.0 5552:1.0 5629:1.0 6342:1.0 9095:2.0 10532:1.0 10718:1.0 11524:1.0 11712:1.0 14313:2.0 15778:1.0 18308:1.0 
0.0 0.602194395828392 581:1.0 584:1.0 1692:1.0 2655:1.0 5290:2.0 5552:1.0 5629:1.0 6342:1.0 9095:2.0 10532:1.0 10718:1.0 11524:1.0 14313:2.0 15778:1.0 18308:1.0 
1.241061634207683 7.2326723042494026 365:1.0 584:1.0 1523:1.0 1795:1.0 3380:1.0 3771:1.0 9088:1.0 9109:1.0 14121:1.0 15875:1.0 16972:1.0 17055:1.0 19003:1.0 19045:1.0 
1.653399661849406 6.012922281572431 582:1.0 1326:1.0 2072:1.0 7402:1.0 9088:1.0 9109:1.0 10718:1.0 11033:1.0 11860:1.0 15344:1.0 
3.6267901230458097 0.0 584:1.0 2202:1.0 16214:1.0 
2.469064978301254 0.0 581:3.0 585:1.0 1326:1.0 6172:1.0 7823:1.0 17857:1.0 18555:1.0 
1.5640909404972643 0.11608955809296607 581:4.0 584:1.0 768:1.0 3112:1.0 5322:1.0 7884:1.0 10628:1.0 10923:1.0 10995:1.0 12454:1.0 12684:1.0 15083:1.0 17838:2.0 18277:3.0 19184:1.0 19192:1.0 
0.0 2.28253907608008 344:1.0 584:1.0 4470:1.0 4646:1.0 7572:1.0 12369:1.0 13663:2.0 14701:1.0 15875:1.0 17857:1.0 18219:1.0 19233:1.0 19451:1.0 
0.0 8.0 584:1.0 6803:1.0 13663:1.0 14882:1.0 
0.0 4.948514545615047 584:1.0 9119:1.0 10718:1.0 12369:1.0 19003:1.0 
4.5112238199707235 3.2446612408366327 584:2.0 1048:1.0 4096:1.0 5795:1.0 6741:1.0 9109:1.0 10659:1.0 16255:2.0 18009:1.0 19006:2.0 19852:1.0 20084:1.0 
3.5059291721290204 1.116200243432751 582:1.0 584:3.0 585:1.0 8574:1.0 17857:2.0 18458:1.0 20377:2.0 
3.2222640874726767 5.028759096525857 584:1.0 1326:1.0 2042:1.0 7572:1.0 8344:1.0 10694:1.0 11653:1.0 18283:1.0 18521:1.0 20067:1.0 
4.969026865509705 7.289197859900143 584:1.0 7164:1.0 7572:1.0 9109:1.0 
1.5215591290576758 1.702077732296933 584:1.0 1345:1.0 1444:1.0 3177:2.0 4805:1.0 10599:1.0 10947:1.0 12659:1.0 12858:1.0 14002:1.0 15840:1.0 17317:1.0 18219:1.0 18521:1.0 
0.8107871549106859 1.8381670285411587 580:1.0 584:1.0 1326:1.0 2228:1.0 8581:1.0 9186:1.0 10425:1.0 10718:1.0 11851:1.0 12369:1.0 15065:1.0 16216:1.0 16601:1.0 17874:1.0 18009:1.0 19003:1.0 
0.9410955972805141 0.0 581:1.0 584:1.0 585:1.0 919:1.0 14671:1.0 17857:1.0 18146:1.0 19072:1.0 19680:1.0 
1.8599003676144128 8.0 584:1.0 1092:1.0 16255:1.0 
8.0 8.0 581:1.0 584:2.0 9111:1.0 12284:1.0 16255:1.0 
4.5723302462389634 0.0 584:1.0 585:1.0 1092:1.0 2985:1.0 3745:1.0 9109:1.0 10486:1.0 11367:1.0 12369:1.0 16255:1.0 
4.228188458624306 5.127396688979538 581:4.0 584:1.0 11033:1.0 15636:1.0 17099:1.0 19813:1.0 
0.0 4.6494508575801845 581:4.0 584:1.0 5987:2.0 6362:1.0 8754:1.0 12357:1.0 16742:1.0 16813:1.0 19045:1.0 20048:1.0 20079:1.0 
8.0 8.0 584:1.0 585:1.0 
8.0 0.0 584:2.0 7409:1.0 8761:1.0 9095:1.0 10786:1.0 12369:1.0 12684:1.0 17397:1.0 19006:1.0 
1.770596441728176 0.0 584:2.0 744:1.0 3781:1.0 7964:1.0 9109:1.0 11223:1.0 15065:1.0 19670:1.0 
1.7706271268978147 0.0 584:1.0 585:1.0 1904:1.0 6072:1.0 6172:1.0 7048:1.0 7702:1.0 8956:1.0 8990:1.0 13806:1.0 16833:1.0 17857:1.0 19553:1.0 
0.47144223936522445 1.6171825311202621 581:9.0 583:2.0 584:1.0 726:1.0 1326:1.0 2197:1.0 2582:1.0 8224:1.0 14033:1.0 17739:1.0 20048:1.0 20160:1.0 
8.0 3.6140775403419183 478:1.0 584:1.0 585:1.0 17032:1.0 17099:1.0 17857:1.0 
8.0 8.0 582:1.0 583:1.0 1326:1.0 7454:1.0 10239:1.0 10696:1.0 12415:1.0 16255:1.0 19726:1.0 19954:1.0 20294:1.0 
5.353608222874633 3.7073539829953104 581:1.0 582:1.0 584:1.0 1788:1.0 4230:1.0 5222:1.0 8635:1.0 9003:1.0 9088:1.0 10969:1.0 12658:1.0 12684:1.0 13663:1.0 15746:1.0 17454:1.0 17505:1.0 18689:1.0 19680:1.0 19856:1.0 
1.0049126652927884 0.0 584:1.0 585:1.0 1237:1.0 1390:1.0 7572:1.0 8790:1.0 9308:1.0 9708:1.0 14959:1.0 17043:1.0 17101:1.0 17253:1.0 18146:1.0 18219:1.0 
8.0 2.357565360264864 584:2.0 585:1.0 1326:1.0 7562:1.0 7702:1.0 11418:1.0 12443:1.0 13663:1.0 14882:1.0 17099:2.0 18689:1.0 
0.8195096189520972 0.0 584:1.0 585:1.0 1237:1.0 1390:1.0 7572:1.0 8790:1.0 9308:1.0 14959:1.0 17043:1.0 17101:1.0 17253:1.0 18146:1.0 18219:1.0 
8.0 8.0 582:1.0 584:1.0 8468:1.0 12965:1.0 
7.020090518929694 0.0 584:1.0 5445:1.0 7702:1.0 9095:1.0 11141:1.0 17857:1.0 18689:1.0 19670:1.0 20067:1.0 
8.0 0.0 581:1.0 584:1.0 585:1.0 4525:1.0 6002:1.0 7884:1.0 9472:1.0 17032:1.0 
1.9300608142056606 0.008664195385515022 584:1.0 1169:1.0 1904:1.0 2589:1.0 3030:1.0 3343:1.0 6803:2.0 7164:1.0 8794:1.0 11469:1.0 14033:1.0 14882:2.0 15708:1.0 15875:1.0 
4.88269243833955 8.0 580:1.0 1326:1.0 1979:1.0 4525:1.0 5595:1.0 7882:1.0 9109:2.0 9472:1.0 10151:1.0 10651:1.0 12443:1.0 
1.0024227503317245 0.5436208623972059 581:1.0 584:2.0 1783:1.0 6134:1.0 8128:1.0 8794:1.0 12369:1.0 13663:1.0 
0.5861598806676998 6.470012739835836 581:1.0 584:2.0 1783:1.0 6134:1.0 8794:1.0 12369:1.0 13663:1.0 
1.7523733668750163 0.0 584:1.0 585:1.0 1092:1.0 4308:1.0 8980:1.0 9109:1.0 13537:1.0 14193:1.0 16709:1.0 17993:1.0 18843:1.0 
8.0 5.871933115419159 584:2.0 8468:1.0 15375:1.0 
0.0 8.0 584:1.0 775:1.0 16214:1.0 
8.0 8.0 584:1.0 4664:1.0 8468:1.0 14104:1.0 
2.182917199927475 0.4573417809231895 582:1.0 584:1.0 2228:1.0 5222:1.0 6342:2.0 6404:1.0 9088:1.0 11851:1.0 12002:1.0 14904:1.0 19006:1.0 
0.16993953579402585 0.0 582:1.0 584:1.0 2202:1.0 8735:1.0 9088:1.0 12369:1.0 19003:1.0 
3.882764593195242 8.0 1326:1.0 1583:1.0 6467:1.0 9109:1.0 10264:1.0 10354:1.0 17209:1.0 17857:1.0 
8.0 8.0 584:1.0 
0.0 2.1134570918545212 584:1.0 726:1.0 1092:1.0 2832:1.0 3071:1.0 7200:2.0 7359:1.0 8004:1.0 9075:1.0 9120:1.0 13342:1.0 14193:1.0 16255:1.0 
7.885101045966767 8.0 1326:1.0 4549:1.0 10515:1.0 10993:1.0 13806:1.0 16255:1.0 19006:1.0 19511:1.0 19680:1.0 
2.7740020619463293 6.931584502910886 584:1.0 1326:1.0 3177:1.0 4952:1.0 8102:1.0 10649:1.0 11827:1.0 16272:1.0 19258:1.0 20066:1.0 
6.10539567952517 5.308076823740569 581:2.0 584:4.0 1136:1.0 1372:1.0 2384:1.0 9109:1.0 9180:1.0 10993:1.0 14671:1.0 18079:1.0 18424:1.0 19009:1.0 20377:1.0 
6.894060327250208 5.133453288107771 581:2.0 1326:1.0 9095:1.0 17229:1.0 17373:1.0 17857:1.0 19003:1.0 
0.0 2.002870816742912 580:1.0 1092:1.0 1326:1.0 2214:1.0 3395:1.0 7409:2.0 8646:1.0 9186:1.0 9472:1.0 13663:1.0 16255:1.0 17055:1.0 19045:1.0 19451:1.0 20097:1.0 
5.441938959458968 0.5456208638929391 585:1.0 1326:1.0 6538:1.0 17857:1.0 17981:1.0 18207:1.0 
3.1442481811550897 3.1972942567828007 581:1.0 584:1.0 2202:1.0 4296:1.0 4366:1.0 9095:1.0 13672:1.0 
8.0 7.110786908117584 585:1.0 1326:1.0 6538:1.0 17857:1.0 17981:1.0 
0.6129030392344583 7.3686703138203296 581:5.0 584:1.0 1769:1.0 4082:1.0 8096:1.0 17857:1.0 20283:1.0 
0.0 8.0 584:1.0 3395:1.0 10425:1.0 
0.0 5.770852434767827 580:1.0 581:2.0 584:1.0 1769:1.0 3419:1.0 4525:1.0 5751:1.0 9109:1.0 10915:1.0 10923:1.0 13824:1.0 14232:1.0 14882:1.0 
0.0 2.8615474895539657 584:2.0 726:1.0 11033:1.0 11919:1.0 14121:1.0 17454:1.0 
1.9650944049756562 2.723868560827206 584:1.0 647:1.0 654:1.0 1092:1.0 1587:1.0 2729:1.0 9111:1.0 14130:1.0 14718:1.0 16255:1.0 17019:1.0 19359:1.0 
3.8886592486691463 2.1211846865444786 256:1.0 581:1.0 1326:1.0 2902:1.0 5987:1.0 8724:1.0 8747:1.0 10718:1.0 13853:1.0 16603:1.0 
2.4263311308755706 0.0 584:2.0 6467:1.0 7200:1.0 9109:1.0 17857:1.0 18146:1.0 
0.0 4.467595983561419 581:1.0 582:1.0 584:1.0 2154:1.0 2968:1.0 4470:1.0 6904:1.0 7409:1.0 9791:1.0 17099:1.0 17373:1.0 
8.0 8.0 584:1.0 8034:1.0 
4.22344690147303 1.1519776293987825 581:1.0 584:1.0 2228:1.0 5294:1.0 6085:1.0 9088:1.0 9186:1.0 17867:1.0 
2.07517798768901 0.0 581:4.0 1092:1.0 1326:1.0 10718:1.0 16255:1.0 
7.085323135766987 2.8178878353444077 1097:1.0 3594:1.0 4736:1.0 7440:1.0 8749:1.0 11827:1.0 13178:1.0 16589:1.0 17098:1.0 18282:1.0 18292:1.0 
8.0 0.0 582:1.0 584:1.0 1182:1.0 4525:1.0 7440:1.0 8609:1.0 15477:1.0 18219:1.0 
3.286337824294382 0.0 585:1.0 2228:1.0 7048:1.0 7440:1.0 8111:1.0 12443:1.0 15746:1.0 18490:1.0 19045:1.0 19192:1.0 
7.762286033065313 0.0 581:1.0 585:1.0 2903:1.0 3139:1.0 6803:1.0 7440:1.0 19631:2.0 
0.0 2.0098032388062372 580:1.0 582:2.0 1182:1.0 7409:1.0 7440:1.0 8609:1.0 10262:1.0 10659:1.0 12726:1.0 14121:1.0 14463:1.0 17381:1.0 20084:1.0 
8.0 0.0 584:1.0 7440:1.0 7884:1.0 
0.04474451551861085 0.0 581:1.0 582:2.0 584:1.0 585:1.0 1182:2.0 1676:1.0 2287:1.0 4303:1.0 7440:2.0 8133:1.0 8609:1.0 12369:1.0 12419:2.0 15504:1.0 
1.1290770255876639 0.0 2783:1.0 4614:1.0 4884:1.0 7440:1.0 7792:1.0 9003:1.0 10181:1.0 10706:1.0 11035:1.0 13128:1.0 16345:1.0 17257:1.0 17339:1.0 19049:1.0 19258:1.0 19451:1.0 19553:1.0 
8.0 1.4174585043210308 583:1.0 1182:1.0 3329:1.0 4303:1.0 4888:1.0 6239:1.0 7440:1.0 8230:1.0 8609:1.0 15504:1.0 17893:1.0 20005:1.0 20048:1.0 
8.0 0.0 1182:1.0 4303:1.0 7440:1.0 8609:1.0 15504:1.0 
0.0 3.573917941669852 581:8.0 7440:1.0 
3.5985345094738364 0.0 581:1.0 582:2.0 585:1.0 1182:2.0 1676:1.0 2287:1.0 4303:1.0 7440:2.0 8133:1.0 8609:1.0 12369:1.0 12419:2.0 15504:1.0 
4.437247680692006 3.219922425980868 1092:1.0 1136:1.0 1182:1.0 2381:1.0 7440:1.0 8468:1.0 8619:1.0 10659:1.0 11653:1.0 13040:1.0 14637:1.0 14771:1.0 
5.123395526383941 0.0 585:1.0 1182:1.0 6342:1.0 6712:1.0 7440:1.0 10458:1.0 12419:1.0 12443:1.0 13663:1.0 15717:1.0 
4.189763189971489 0.0 581:1.0 585:1.0 1092:1.0 1183:1.0 7033:1.0 7440:1.0 8619:1.0 12419:1.0 14148:1.0 15477:1.0 16214:1.0 
2.2085426131298305 0.0 581:1.0 1136:1.0 1182:1.0 1681:1.0 4303:1.0 6467:1.0 7409:1.0 7440:1.0 8468:1.0 8609:1.0 10659:1.0 12002:1.0 13036:1.0 15504:1.0 16507:1.0 17381:1.0 17516:1.0 18988:1.0 
8.0 0.0 581:3.0 585:1.0 6467:1.0 7440:1.0 8468:1.0 10614:1.0 15746:1.0 19056:1.0 
4.616489734591821 3.9724118928298 582:1.0 4721:1.0 7440:1.0 8418:1.0 8609:1.0 8619:1.0 10659:1.0 12260:1.0 14671:1.0 14828:2.0 15078:1.0 17131:1.0 17561:1.0 
8.0 1.4279440920099002 581:3.0 5276:1.0 7440:1.0 
4.558510535475437 0.0 585:1.0 6537:1.0 6745:1.0 7440:2.0 7568:1.0 13679:1.0 13682:1.0 14687:1.0 15957:1.0 19515:1.0 19898:1.0 
1.0057238573830158 0.5493799530909049 1536:1.0 5714:1.0 7033:1.0 7440:1.0 9932:1.0 12419:1.0 12684:1.0 13853:1.0 15825:1.0 16604:1.0 17739:1.0 19511:1.0 
1.4908449395886834 0.35056236360218945 585:1.0 2283:1.0 6164:1.0 7440:1.0 14033:1.0 14888:1.0 15924:1.0 16025:1.0 17762:1.0 18061:1.0 18689:1.0 19056:1.0 
8.0 8.0 1182:1.0 1326:1.0 1795:1.0 7440:1.0 9868:1.0 10659:1.0 10923:1.0 15477:1.0 16653:1.0 
8.0 0.0 585:1.0 2283:1.0 6164:1.0 7440:1.0 14033:1.0 14888:1.0 16025:1.0 17762:1.0 18061:1.0 18689:1.0 19056:1.0 
8.0 4.126761617246845 583:1.0 585:1.0 6164:1.0 7402:1.0 7440:1.0 7964:1.0 14033:1.0 16541:1.0 17762:1.0 17917:1.0 18689:1.0 19056:1.0 
3.4045667582246764 4.339756002868075 580:1.0 1182:1.0 4884:1.0 5747:1.0 6673:1.0 7409:1.0 7440:1.0 8794:1.0 10352:1.0 12002:1.0 12328:1.0 12369:1.0 14648:1.0 16177:1.0 19003:1.0 
8.0 3.4877351781901864 585:1.0 5621:1.0 7440:1.0 15778:1.0 19258:1.0 19489:1.0 20097:1.0 
8.0 1.7715031014214548 3139:1.0 7440:1.0 14849:1.0 16604:1.0 16765:1.0 17117:1.0 18620:1.0 
4.680324124540525 3.9017262832072372 5714:1.0 7033:1.0 7440:1.0 9932:1.0 12419:1.0 12684:1.0 13853:1.0 15825:1.0 16604:1.0 17739:1.0 19511:1.0 
7.1671148394842294 0.0 585:1.0 7048:1.0 7409:1.0 7440:2.0 8956:1.0 9036:1.0 9932:1.0 10188:1.0 14165:2.0 17019:1.0 17739:1.0 19608:1.0 
8.0 0.6860032259357564 581:1.0 582:2.0 1182:1.0 1660:1.0 7440:1.0 12419:1.0 13128:1.0 15477:1.0 19923:1.0 
8.0 5.8530411523321595 2202:1.0 6853:1.0 7440:1.0 12097:1.0 15864:1.0 
6.656067342387636 3.266941328402165 580:1.0 584:1.0 585:1.0 2590:1.0 2840:1.0 5005:1.0 5623:1.0 6945:1.0 7440:1.0 8900:1.0 11238:1.0 14828:1.0 19451:1.0 
4.996847219031058 3.2750229433900806 584:1.0 2175:1.0 4061:1.0 4997:1.0 5788:1.0 6164:1.0 7440:2.0 9186:1.0 13050:1.0 13389:1.0 15746:1.0 16537:1.0 
8.0 0.0 585:1.0 1182:1.0 2917:1.0 3224:1.0 4303:1.0 7440:1.0 8609:1.0 15504:1.0 16423:1.0 17091:1.0 19056:1.0 
8.0 0.0 585:2.0 1182:1.0 2917:1.0 3224:1.0 4303:1.0 7440:1.0 8609:1.0 15504:1.0 16423:1.0 17091:1.0 19056:1.0 
6.4858185588450565 0.0 7034:1.0 7440:1.0 7572:1.0 8617:1.0 
8.0 4.200559237051293 581:2.0 585:1.0 7440:1.0 8133:1.0 12415:1.0 12419:1.0 13663:1.0 
8.0 1.8312405722378917 585:1.0 5543:1.0 7440:2.0 8111:1.0 8409:1.0 10601:1.0 15452:1.0 
8.0 8.0 580:1.0 719:1.0 2350:1.0 6904:1.0 7440:1.0 9932:1.0 13594:1.0 17993:1.0 18005:1.0 
7.925423589765902 0.0 1326:1.0 7033:1.0 7440:1.0 9109:1.0 10146:1.0 12419:1.0 13060:1.0 15477:1.0 17046:1.0 20017:1.0 
8.0 2.6934821999258 585:1.0 7033:1.0 7440:1.0 12419:1.0 15477:1.0 19511:1.0 
2.0274488282375667 0.0 1063:1.0 1183:1.0 1372:1.0 4303:1.0 4801:1.0 5126:1.0 7440:1.0 7884:1.0 8609:1.0 8619:1.0 9109:1.0 9935:1.0 10188:1.0 14671:1.0 15504:1.0 17381:1.0 17874:1.0 20377:2.0 
8.0 0.0 7440:1.0 10738:1.0 
8.0 1.1997048808406203 585:1.0 3764:1.0 3868:1.0 6089:1.0 6741:1.0 7440:2.0 11718:1.0 13853:1.0 14353:1.0 14471:1.0 15477:1.0 
0.45580146221619167 1.330295311259475 580:1.0 581:2.0 6467:1.0 7034:1.0 7440:1.0 8609:1.0 11851:1.0 14033:1.0 14904:1.0 15240:1.0 15286:1.0 15711:1.0 19378:1.0 
8.0 8.0 582:2.0 1182:1.0 6904:1.0 7034:1.0 7359:1.0 7440:1.0 12369:1.0 19511:1.0 
8.0 0.15825844992148694 585:1.0 4020:1.0 7440:1.0 12419:1.0 14110:1.0 16361:1.0 
6.284229882207325 2.405260344028942 582:1.0 585:1.0 801:2.0 7440:2.0 14687:1.0 15816:1.0 15842:1.0 19045:1.0 
8.0 4.261156900725796 1349:1.0 3878:1.0 7200:1.0 7440:1.0 8176:1.0 15652:1.0 18076:1.0 20377:1.0 
4.32025067764675 0.49490009250058176 1182:1.0 3397:1.0 5222:1.0 7048:1.0 7440:1.0 8619:1.0 9159:1.0 9472:1.0 10985:1.0 11718:1.0 15705:2.0 16709:1.0 19680:1.0 20377:1.0 
8.0 0.0 584:1.0 884:1.0 1072:1.0 7440:1.0 18009:1.0 
2.0206688193510534 0.0 584:1.0 2590:1.0 7440:1.0 15957:1.0 17857:1.0 19310:1.0 
5.064509228479199 5.444993752873894 1182:1.0 7200:1.0 7440:1.0 8619:1.0 9109:1.0 9747:1.0 12369:1.0 12684:1.0 13663:1.0 14987:1.0 19754:1.0 
6.275833491040982 1.1536713716964966 585:1.0 1182:1.0 3766:1.0 4303:1.0 4950:1.0 6163:1.0 6342:1.0 7440:1.0 8609:1.0 10659:1.0 13860:1.0 14471:1.0 14647:1.0 15160:1.0 15504:1.0 18750:1.0 
1.1037354696250357 0.2392151141964424 1182:1.0 6250:1.0 7034:1.0 7440:1.0 8609:1.0 8794:1.0 12369:1.0 15477:1.0 17360:1.0 19192:1.0 20048:1.0 
0.46703309678915034 0.0 581:1.0 584:1.0 585:1.0 742:2.0 7321:1.0 7440:1.0 14201:1.0 14213:1.0 19619:1.0 20393:1.0 
7.033101719309627 8.0 2202:1.0 3949:1.0 7440:1.0 14175:1.0 18009:1.0 20048:2.0 
8.0 0.0 7440:1.0 10718:1.0 
8.0 0.0 580:1.0 585:1.0 1182:1.0 4303:1.0 7440:1.0 8609:1.0 15504:1.0 19457:1.0 
8.0 4.905450236884894 585:1.0 7440:1.0 8356:1.0 12284:1.0 12369:1.0 12419:1.0 17091:1.0 17714:1.0 19511:1.0 
0.0 2.0004707814238567 681:1.0 1372:1.0 2737:1.0 7440:1.0 7642:1.0 8619:1.0 12269:1.0 12369:1.0 12652:1.0 13663:1.0 19069:1.0 19680:1.0 
8.0 0.0 585:1.0 1182:1.0 4924:1.0 4950:1.0 6774:1.0 7033:1.0 7157:1.0 7440:1.0 12419:1.0 14122:1.0 15711:1.0 19003:1.0 
5.442080508553611 0.0 585:1.0 1182:2.0 4303:1.0 4801:1.0 7440:1.0 8609:2.0 9066:1.0 11705:1.0 12369:1.0 15504:1.0 16418:1.0 19208:1.0 
1.8518553668220163 0.0 584:1.0 585:1.0 1182:1.0 2072:1.0 2242:1.0 3459:1.0 7033:1.0 7440:1.0 9066:1.0 12419:2.0 13128:1.0 16211:1.0 16412:1.0 19258:1.0 
5.803839029968979 3.9550891452964243 3726:1.0 4303:2.0 7440:1.0 8609:1.0 8970:1.0 9472:1.0 13160:1.0 13663:1.0 
8.0 4.892496971078211 583:2.0 585:1.0 2173:1.0 2968:1.0 6342:1.0 7440:1.0 7572:1.0 13826:1.0 14671:1.0 16405:1.0 18009:1.0 18055:1.0 
2.640855493419815 0.7092127993141056 731:1.0 2029:1.0 3313:1.0 5175:1.0 5591:1.0 5602:1.0 7440:2.0 10518:1.0 10718:1.0 12369:1.0 13372:1.0 14104:1.0 15728:1.0 17928:1.0 18293:1.0 19041:1.0 19233:1.0 19258:1.0 
8.0 0.0 585:1.0 2590:1.0 2783:1.0 7440:1.0 19619:1.0 
8.0 7.251886377382438 3966:1.0 7440:1.0 15746:1.0 15841:1.0 17993:1.0 19852:1.0 
2.8300053420813223 0.0 582:2.0 585:1.0 1182:1.0 2072:1.0 2242:1.0 4303:1.0 7033:1.0 7440:1.0 8609:1.0 9066:1.0 12419:1.0 16211:1.0 16412:1.0 
8.0 5.073846994985133 582:1.0 1182:1.0 7440:1.0 8468:1.0 9258:1.0 12419:1.0 14148:1.0 
8.0 0.0 584:1.0 585:1.0 2590:2.0 5005:1.0 7440:1.0 8900:1.0 9021:1.0 14828:1.0 19182:1.0 
0.0 1.1749258323413143 581:1.0 2202:1.0 6710:1.0 6853:1.0 7440:1.0 12684:1.0 15065:1.0 
0.9162105682500793 0.0 581:4.0 6280:1.0 6488:1.0 7440:2.0 19451:1.0 
5.196919124849055 0.0 585:1.0 1182:1.0 6089:1.0 6467:1.0 6644:1.0 7409:1.0 7440:1.0 8619:1.0 15778:1.0 18591:1.0 19056:1.0 
4.674585206609669 0.0 581:1.0 1182:1.0 1692:1.0 7440:1.0 8609:1.0 10659:1.0 11906:1.0 13663:1.0 13853:1.0 
1.2550075985798392 0.0 581:5.0 585:1.0 1182:1.0 4303:1.0 6691:1.0 7440:1.0 8609:1.0 9109:1.0 15504:1.0 17893:1.0 19898:1.0 
8.0 0.5436221320633883 583:1.0 584:1.0 6164:1.0 7440:1.0 12284:1.0 15530:1.0 16320:1.0 18689:1.0 20288:1.0 
8.0 0.0 583:1.0 585:1.0 683:1.0 2908:1.0 7440:1.0 7884:1.0 10481:1.0 11924:1.0 12419:1.0 16412:1.0 
0.025009074153237793 0.0 581:2.0 1061:1.0 1182:2.0 2053:1.0 4739:1.0 7440:1.0 10923:1.0 12684:1.0 15065:1.0 17680:2.0 20283:1.0 
8.0 0.5169675271466734 581:1.0 584:1.0 585:1.0 742:2.0 7321:1.0 7440:1.0 14201:1.0 14213:1.0 19233:1.0 19619:1.0 20393:1.0 
0.5883965292317094 0.0 581:1.0 768:1.0 1182:1.0 6673:1.0 7409:1.0 7440:1.0 8609:1.0 12369:1.0 16972:1.0 17857:1.0 18797:1.0 20393:1.0 
7.884652855355602 0.0 581:1.0 585:1.0 4303:1.0 6163:1.0 7034:1.0 7440:1.0 8609:1.0 8619:1.0 14671:1.0 15504:1.0 18949:1.0 20048:1.0 
6.718409416093723 0.0 581:1.0 583:1.0 584:1.0 585:1.0 1182:2.0 4303:1.0 7440:1.0 8609:2.0 12419:1.0 14651:1.0 15504:1.0 16257:1.0 
8.0 0.0 1182:1.0 4303:1.0 7440:1.0 8609:1.0 11705:1.0 15504:1.0 
5.814248574978129 8.0 2355:1.0 4303:1.0 7440:1.0 8609:1.0 12684:1.0 15504:1.0 15789:1.0 17634:1.0 19511:1.0 
5.051145573141791 2.2352404384767532 580:1.0 581:2.0 583:1.0 848:1.0 1182:1.0 2202:1.0 5786:1.0 5984:1.0 7440:1.0 8619:1.0 10536:1.0 10614:1.0 14175:1.0 15477:1.0 17475:1.0 19608:1.0 20336:1.0 
0.8040905199924454 0.04741612898121536 581:2.0 582:2.0 1182:1.0 1186:1.0 4303:1.0 7440:1.0 8609:1.0 10659:1.0 10993:1.0 12684:1.0 13036:1.0 13137:1.0 15504:1.0 16423:1.0 17516:1.0 20102:1.0 20269:1.0 
6.355161038748011 0.0 1345:1.0 2202:1.0 4303:1.0 7440:1.0 8609:2.0 8776:1.0 8987:1.0 13537:1.0 13672:1.0 15504:1.0 15957:1.0 19726:1.0 
2.465768023659667 0.40637366928809765 581:1.0 584:1.0 1182:2.0 3450:1.0 5207:1.0 7440:1.0 9109:1.0 10659:1.0 10993:1.0 12369:1.0 12419:1.0 13663:1.0 14661:1.0 17099:1.0 17667:1.0 18235:1.0 
7.734023694372913 0.0 582:2.0 584:1.0 585:1.0 1182:1.0 4303:2.0 4908:1.0 7440:2.0 8609:3.0 12863:1.0 15504:2.0 17454:1.0 
0.0 0.4651344546424399 581:2.0 1183:1.0 7034:1.0 7440:1.0 7850:1.0 8619:1.0 12684:1.0 13663:1.0 14033:1.0 14471:1.0 14550:1.0 15480:1.0 15482:1.0 19511:1.0 
8.0 8.0 583:1.0 1182:1.0 1326:1.0 4924:1.0 7440:1.0 9109:1.0 14882:1.0 16255:1.0 19955:1.0 
7.926254839880622 0.0 581:1.0 585:1.0 1182:1.0 7440:2.0 8619:1.0 10536:1.0 12369:1.0 12419:2.0 13252:1.0 
4.282718140761563 0.8026082307126666 1136:1.0 1182:2.0 1186:1.0 2053:1.0 4909:1.0 6057:1.0 6163:1.0 7440:1.0 8609:1.0 8619:1.0 18949:1.0 
8.0 2.794310892488284 583:1.0 1169:1.0 3949:1.0 4082:1.0 5930:1.0 6517:1.0 7440:2.0 10488:1.0 13252:1.0 18293:1.0 19045:1.0 20336:1.0 
8.0 4.482600367391441 583:1.0 584:1.0 6164:1.0 7440:1.0 12284:1.0 16320:1.0 18689:1.0 20288:1.0 
1.007133344622891 0.0 581:1.0 4289:1.0 4303:1.0 7440:2.0 8609:1.0 8619:1.0 12684:1.0 15477:2.0 15504:1.0 15756:1.0 17857:1.0 
7.9778278311201865 0.0 585:1.0 1182:1.0 2072:1.0 2242:1.0 7033:1.0 7440:1.0 8609:1.0 9066:1.0 12419:1.0 15477:1.0 16211:1.0 16412:1.0 
0.7131301913547482 0.0 581:1.0 704:1.0 7440:2.0 8609:1.0 8619:1.0 8794:1.0 10659:1.0 14463:1.0 19451:1.0 
3.8648716245297883 0.0 582:2.0 583:1.0 1182:2.0 6057:1.0 6342:1.0 7440:1.0 8609:1.0 12369:1.0 13806:1.0 18055:1.0 
8.0 0.0 585:1.0 1182:1.0 7033:1.0 7440:1.0 7884:1.0 12419:1.0 12684:1.0 14801:1.0 
8.0 0.0 581:1.0 585:1.0 2590:1.0 4539:1.0 7440:1.0 8900:1.0 9024:1.0 19056:1.0 19619:1.0 20097:1.0 
8.0 0.0 7034:1.0 7440:1.0 8617:1.0 13559:1.0 15477:1.0 15504:1.0 
2.812827351842208 0.0 581:1.0 4289:1.0 4303:1.0 7440:2.0 8609:1.0 8619:1.0 12684:1.0 15477:2.0 15504:1.0 17857:1.0 
0.0 6.968174342731262 7409:1.0 7440:1.0 8609:1.0 16154:1.0 17680:1.0 20048:1.0 
6.492600427349285 2.7681911907907004 791:1.0 1182:2.0 3266:1.0 3610:1.0 7440:2.0 7479:1.0 14121:1.0 15426:1.0 
7.001196585499037 1.6195424824554843 584:1.0 3223:1.0 5041:1.0 7440:1.0 12680:1.0 12684:1.0 14337:1.0 15477:1.0 18288:1.0 19511:1.0 20005:1.0 
0.0 8.0 1692:1.0 7440:1.0 12419:1.0 12684:1.0 14671:1.0 19511:1.0 
8.0 2.9927317342166364 1182:1.0 3395:1.0 5984:1.0 7440:1.0 9456:1.0 12684:1.0 13178:1.0 13305:1.0 15477:1.0 18146:1.0 19680:1.0 
5.731528574901836 1.8321595378990596 5339:1.0 7034:1.0 7440:1.0 7702:1.0 15169:1.0 15477:1.0 17730:1.0 
1.003519240408123 0.548659033603817 581:5.0 1680:1.0 2489:1.0 7440:1.0 10524:1.0 11593:1.0 12684:1.0 15477:1.0 17890:1.0 
5.310952995509079 0.0 584:2.0 1692:1.0 7440:1.0 7572:1.0 8609:1.0 9088:1.0 9472:1.0 19056:1.0 
8.0 2.8001844985471975 581:1.0 3905:1.0 7440:1.0 11906:1.0 13559:1.0 19194:1.0 
0.03306485770152255 0.0 1136:1.0 1182:1.0 4303:1.0 6741:1.0 7033:1.0 7440:2.0 8609:2.0 9067:1.0 10659:1.0 10718:1.0 12369:1.0 12419:2.0 13663:1.0 14671:1.0 15504:1.0 
4.419311782478337 0.0 581:2.0 1182:1.0 4303:1.0 4922:2.0 7440:1.0 8468:1.0 8609:1.0 9889:1.0 10536:1.0 12847:1.0 14484:1.0 15504:1.0 16566:1.0 
4.963129112161467 0.0 581:1.0 585:1.0 1182:1.0 5339:1.0 7033:1.0 7440:1.0 7884:1.0 12419:1.0 15477:1.0 17680:1.0 
8.0 3.246373778364339 1182:1.0 4303:1.0 7440:1.0 8609:1.0 15504:1.0 19511:1.0 20433:1.0 
8.0 0.0 585:1.0 1182:1.0 7200:1.0 7440:1.0 8619:1.0 13366:1.0 14651:1.0 16634:1.0 
5.345511878108555 0.452654220919938 7409:1.0 7440:1.0 8521:1.0 8619:1.0 10659:1.0 10993:1.0 12954:1.0 17576:1.0 
8.0 0.0 581:1.0 7440:1.0 8609:1.0 12369:1.0 12740:1.0 13663:1.0 
2.70281425665066 0.2857927399209712 581:1.0 1182:1.0 1326:1.0 4172:1.0 4924:1.0 6475:1.0 7440:1.0 9109:2.0 9186:1.0 12267:1.0 13802:1.0 18424:1.0 19056:1.0 
1.6662481954464252 0.0 581:1.0 1769:1.0 5222:1.0 7033:1.0 7440:1.0 7884:1.0 8609:1.0 8724:1.0 9047:1.0 12419:1.0 12684:2.0 14110:1.0 14807:1.0 14828:1.0 15477:1.0 18620:1.0 19511:1.0 
8.0 0.0 581:1.0 1183:1.0 7034:1.0 7440:1.0 7850:1.0 8619:1.0 12684:1.0 13663:1.0 14033:1.0 14550:1.0 15477:1.0 19511:1.0 
8.0 0.0 581:1.0 1182:1.0 4303:1.0 7440:1.0 8609:1.0 14651:1.0 15504:1.0 
2.415467147890661 0.0 1061:1.0 1326:1.0 1523:1.0 2783:1.0 6163:1.0 7440:2.0 7899:1.0 9817:1.0 12369:1.0 12419:1.0 13663:1.0 19680:1.0 
1.337232263907407 0.3969314826047413 581:5.0 1680:1.0 2489:1.0 7440:1.0 10524:1.0 11593:1.0 12684:1.0 15477:1.0 
3.2934005994034403 1.990706135546125 581:1.0 583:1.0 1190:1.0 4801:1.0 5987:1.0 6276:1.0 7440:1.0 13720:1.0 14658:1.0 15504:1.0 17874:1.0 18009:1.0 
2.5261321784667445 1.038010543435772 1182:2.0 1326:1.0 4303:1.0 6362:1.0 7440:1.0 8609:1.0 9109:2.0 14641:1.0 15504:1.0 15579:1.0 16653:1.0 18219:1.0 19056:1.0 
8.0 0.02056294184393432 580:1.0 2272:1.0 4689:1.0 4778:1.0 7034:1.0 7440:1.0 7850:1.0 8609:1.0 14121:1.0 15477:1.0 19457:1.0 
0.0 4.178093580669683 580:1.0 581:3.0 1182:1.0 7440:1.0 8609:1.0 12369:1.0 13663:1.0 19457:1.0 
1.0031669246390105 0.5461148112498657 4922:1.0 5270:1.0 5571:1.0 7440:1.0 8619:1.0 9889:1.0 16566:1.0 20097:1.0 
6.3060619490758745 2.8722570481616154 4922:1.0 5270:1.0 7440:1.0 8619:1.0 9889:1.0 16566:1.0 20097:1.0 
4.261164699003075 3.0546307560086845 581:2.0 582:2.0 1182:1.0 1660:1.0 4922:1.0 7368:1.0 7440:1.0 8468:1.0 9889:1.0 12684:1.0 12847:1.0 16566:1.0 
5.336259994644626 2.991733096905895 582:2.0 1811:1.0 7440:1.0 9111:1.0 9472:1.0 10659:1.0 10993:1.0 12369:1.0 12443:1.0 12920:1.0 13036:1.0 13663:1.0 15477:1.0 15481:1.0 17516:1.0 
8.0 6.370563661383791 580:1.0 585:1.0 3071:1.0 6068:1.0 7440:1.0 8428:1.0 11136:1.0 16177:1.0 18396:1.0 19457:1.0 19645:1.0 
2.732002626007149 0.0 1182:1.0 1462:1.0 2053:1.0 4082:1.0 4126:1.0 6455:1.0 7048:1.0 7440:1.0 8609:1.0 14121:1.0 15957:1.0 
2.82742718843779 0.03847632854633719 582:3.0 1182:2.0 2053:1.0 2054:1.0 3152:1.0 4089:1.0 4924:1.0 7440:1.0 8609:1.0 8836:1.0 14471:1.0 15804:1.0 16361:1.0 18232:1.0 18344:1.0 18407:1.0 
4.066476396051078 0.19872527862671363 1182:1.0 3071:1.0 4745:1.0 5000:1.0 7440:1.0 7572:1.0 10628:1.0 13928:1.0 14447:1.0 14471:1.0 14671:1.0 14939:1.0 
8.0 8.0 2927:1.0 7412:1.0 7440:1.0 8609:1.0 
4.474383430999485 6.755793288873989 581:2.0 7440:1.0 8618:1.0 12684:1.0 15065:1.0 19511:1.0 
2.4121712249699043 1.6308966238148388 581:1.0 584:3.0 1182:1.0 4734:1.0 4884:1.0 7409:1.0 7440:1.0 7702:2.0 9472:1.0 11469:1.0 12002:1.0 13663:1.0 17645:1.0 
2.55899279103528 0.0 581:2.0 1317:1.0 1345:1.0 4995:1.0 6089:1.0 7409:1.0 7440:1.0 8609:1.0 9003:1.0 10659:1.0 10993:1.0 12369:1.0 13537:1.0 14219:1.0 18337:1.0 19056:1.0 19069:1.0 
0.8358028778140313 0.0 783:1.0 4105:1.0 4614:1.0 7440:1.0 7572:1.0 8646:1.0 12419:1.0 12646:1.0 13995:1.0 14671:1.0 19049:1.0 19923:1.0 
8.0 0.7439074701566769 686:1.0 3807:1.0 7440:1.0 9036:1.0 14647:1.0 17773:1.0 18689:1.0 19553:1.0 
8.0 6.157857019982293 1326:1.0 1680:1.0 2487:1.0 7440:1.0 8619:1.0 9164:1.0 18337:1.0 
8.0 8.0 8468:1.0 15121:1.0 
3.5887123238603023 1.4122778311354596 582:1.0 742:1.0 1183:1.0 3177:1.0 4082:2.0 5042:1.0 7440:1.0 7572:1.0 8307:1.0 10536:1.0 11035:1.0 13537:1.0 14447:1.0 15708:1.0 20393:1.0 
8.0 1.571991623828034 848:1.0 5222:1.0 7440:1.0 8617:1.0 15504:1.0 
2.7428647941870055 1.0905243863749636 859:1.0 1182:1.0 1345:1.0 2903:1.0 4082:2.0 7440:1.0 8609:1.0 8908:1.0 10223:1.0 10941:1.0 12040:1.0 12369:1.0 16361:1.0 16686:1.0 17215:1.0 19192:1.0 
1.8004693670353895 0.0 1182:1.0 7440:1.0 10659:1.0 12419:1.0 12443:1.0 14148:1.0 
2.816208203387248 0.0 585:1.0 1092:1.0 2589:1.0 2590:1.0 7440:1.0 8005:1.0 8900:1.0 9021:1.0 10659:1.0 15778:1.0 16794:1.0 
7.778085451057463 0.0 1182:1.0 1345:1.0 2349:1.0 7033:1.0 7440:1.0 8797:1.0 8821:1.0 12309:1.0 12369:1.0 12419:2.0 13303:1.0 13717:1.0 15477:1.0 
0.7372876999573734 0.0 581:1.0 582:2.0 1182:1.0 2678:1.0 4303:1.0 7440:1.0 8609:1.0 12369:1.0 13128:1.0 13304:1.0 13717:1.0 15065:1.0 15504:1.0 17454:1.0 17561:1.0 17893:1.0 
8.0 5.940132734724892 7440:1.0 14933:1.0 18006:1.0 
8.0 1.605843143313256 581:1.0 1182:1.0 1345:1.0 3097:1.0 3152:1.0 7440:1.0 8609:1.0 12684:1.0 13304:1.0 
8.0 0.0 585:1.0 1182:1.0 4303:1.0 7440:1.0 8609:1.0 10188:1.0 11415:1.0 13829:1.0 15504:1.0 16678:1.0 17635:1.0 
8.0 8.0 7440:1.0 18235:1.0 19511:1.0 
7.15593746964813 2.8024890331731904 582:2.0 1182:2.0 1345:1.0 2228:1.0 7039:1.0 7440:1.0 8609:1.0 8836:1.0 19680:1.0 
6.023389413916365 1.822749623494618 582:2.0 1182:2.0 5597:1.0 6467:1.0 7440:1.0 8609:1.0 8836:1.0 13672:1.0 18293:1.0 
5.31879747835996 0.0 1182:1.0 2349:1.0 3097:1.0 7033:1.0 7440:1.0 7912:1.0 8797:1.0 10058:1.0 12309:1.0 12369:1.0 12419:2.0 13036:1.0 15477:1.0 16143:1.0 17516:1.0 20488:1.0 
2.735326495152036 1.246855439068681 3097:1.0 6276:1.0 6280:1.0 7033:1.0 7440:1.0 12419:1.0 18009:1.0 19192:1.0 20097:1.0 
2.885866645920721 0.0 584:1.0 3771:1.0 7440:1.0 8468:1.0 11943:1.0 12443:1.0 12446:1.0 13806:2.0 14471:2.0 14888:1.0 15444:1.0 15676:1.0 18063:1.0 18308:1.0 19046:1.0 19765:1.0 20200:1.0 
8.0 0.4103126533242268 1182:1.0 7440:1.0 7441:1.0 8609:1.0 8619:1.0 
1.5433619214258538 3.3448793397114485 580:1.0 581:1.0 1182:1.0 1279:1.0 4614:1.0 7440:1.0 7787:1.0 8609:2.0 10659:1.0 12284:1.0 14197:1.0 19049:1.0 19555:1.0 
3.648364817020229 0.0 1092:1.0 1182:1.0 4614:1.0 6342:1.0 7034:1.0 7440:1.0 8609:1.0 10659:1.0 15477:1.0 19049:1.0 
8.0 4.40644678129162 584:1.0 6305:1.0 7440:1.0 7703:1.0 17189:1.0 
8.0 0.0 581:1.0 585:1.0 1182:1.0 2464:1.0 7440:1.0 8617:1.0 10536:1.0 12419:1.0 13036:1.0 14148:1.0 14828:1.0 15504:1.0 17516:1.0 17739:1.0 
2.499169430334667 1.6219124447362514 580:2.0 4303:1.0 5075:1.0 5100:1.0 5714:1.0 5984:1.0 7440:1.0 8609:1.0 10718:1.0 11449:1.0 12740:1.0 13475:1.0 13483:1.0 14471:1.0 15477:1.0 15504:1.0 
3.0606994547012474 2.865815885941788 580:1.0 1072:1.0 7440:1.0 10718:1.0 13594:1.0 13813:1.0 14962:1.0 15746:1.0 16111:1.0 17209:1.0 17993:1.0 
8.0 2.642991985701545 581:1.0 1444:1.0 7034:1.0 7440:1.0 15477:1.0 15480:1.0 
0.7269600636967216 0.0 581:1.0 1182:1.0 1345:1.0 3063:1.0 3152:1.0 4458:1.0 6252:1.0 7440:1.0 8609:1.0 12369:1.0 12959:1.0 13751:1.0 17351:1.0 20512:1.0 
3.917118831195593 0.7307902975290699 582:7.0 585:1.0 1182:1.0 3097:1.0 5380:1.0 7033:1.0 7237:1.0 7440:1.0 8831:1.0 10056:1.0 12419:1.0 15477:1.0 18988:1.0 
3.6286617763422875 0.0 582:1.0 1182:1.0 1345:1.0 2349:1.0 4525:1.0 7033:1.0 7341:1.0 7440:1.0 8797:1.0 10151:1.0 12309:1.0 12369:1.0 12419:2.0 12867:1.0 15477:1.0 15746:1.0 
1.8587046174683821 0.0 582:1.0 1182:1.0 1187:1.0 1705:1.0 2228:1.0 4041:1.0 7440:1.0 9088:1.0 11238:1.0 12369:1.0 15477:1.0 20097:1.0 
3.8462836975617036 1.0153615992086116 582:2.0 1182:2.0 1345:1.0 1649:1.0 4111:1.0 6084:1.0 7341:1.0 7368:1.0 7440:1.0 8609:1.0 14741:1.0 17857:1.0 18867:1.0 
5.242260602420004 7.604848701224663 581:1.0 583:2.0 2589:1.0 4525:1.0 5251:1.0 6475:1.0 7440:1.0 9109:1.0 13252:1.0 15864:1.0 17055:1.0 20315:1.0 
0.0 0.8089149574111884 581:4.0 1692:1.0 1795:1.0 5339:1.0 7034:1.0 7440:1.0 12959:1.0 15477:1.0 17730:1.0 18988:1.0 19511:1.0 19553:1.0 
8.0 0.0 47:1.0 584:1.0 585:1.0 1204:1.0 3610:1.0 3932:1.0 6049:1.0 7440:1.0 19233:1.0 
5.850838591413381 0.14704936814573233 585:1.0 1182:2.0 1230:1.0 7440:2.0 8617:1.0 9021:1.0 10659:1.0 14671:1.0 15477:1.0 15504:1.0 19553:1.0 
4.044204163213902 0.0 585:1.0 4303:1.0 6250:1.0 7033:1.0 7440:1.0 7572:1.0 8609:1.0 9109:1.0 10659:2.0 12419:1.0 15477:1.0 15504:1.0 18009:1.0 19056:1.0 
0.33242868219334243 0.5990051577774479 581:10.0 583:2.0 1182:1.0 2593:1.0 3610:1.0 4924:1.0 7440:1.0 12443:1.0 17505:1.0 19726:1.0 
8.0 0.0 581:1.0 1182:1.0 4303:1.0 7033:1.0 7440:1.0 8609:1.0 8619:1.0 12419:1.0 15477:1.0 15504:1.0 16154:1.0 
0.6448208401955455 0.0 1182:1.0 3459:1.0 4976:1.0 7440:1.0 8609:1.0 8947:1.0 9794:1.0 12225:1.0 12443:1.0 16765:1.0 19359:1.0 
7.671627044478103 0.0 580:1.0 584:1.0 585:1.0 2202:1.0 7033:1.0 7440:1.0 8619:1.0 12369:1.0 12419:1.0 17373:1.0 19233:1.0 19457:1.0 19489:1.0 
1.643158207341032 0.0 1182:1.0 7033:1.0 7440:1.0 8609:2.0 12240:1.0 12419:1.0 14938:1.0 15708:1.0 16462:1.0 19192:1.0 19844:1.0 
3.206967698114261 0.0 1182:2.0 2349:1.0 2906:1.0 4303:1.0 7033:1.0 7440:1.0 8609:1.0 8797:1.0 12309:1.0 12369:1.0 12419:2.0 13036:1.0 15477:1.0 15504:1.0 17516:1.0 19208:1.0 
2.058389225754845 0.0 1136:1.0 1182:1.0 2349:1.0 4089:1.0 7033:1.0 7440:1.0 8797:1.0 9066:1.0 12309:1.0 12369:1.0 12419:1.0 13036:1.0 15043:1.0 15477:1.0 15717:1.0 16924:1.0 17516:1.0 19844:1.0 
2.363831374453321 1.0604680071795842 1182:1.0 1692:1.0 2995:1.0 5054:1.0 6935:1.0 7440:1.0 10536:1.0 11732:1.0 11851:1.0 15708:1.0 19003:1.0 19310:1.0 19491:1.0 19844:1.0 
4.481691722773169 2.141092763349254 1237:1.0 3356:1.0 3576:1.0 4126:1.0 8990:1.0 11518:1.0 12040:1.0 13368:1.0 14671:1.0 16881:1.0 17828:1.0 18550:1.0 18750:1.0 
8.0 2.9265354945605844 581:1.0 585:1.0 5249:1.0 5829:1.0 11347:1.0 11518:1.0 13030:1.0 14213:1.0 16725:1.0 18730:1.0 
5.78443445112475 3.9870929931985533 2202:1.0 2892:1.0 8605:1.0 9005:1.0 11518:1.0 13441:1.0 16428:1.0 
4.717776368377503 0.0 582:2.0 585:1.0 884:1.0 11056:2.0 11518:1.0 13663:1.0 14184:1.0 15637:1.0 19003:1.0 19907:1.0 19914:1.0 
3.946555381816336 0.0 584:1.0 585:1.0 1769:1.0 2483:1.0 3723:1.0 7200:1.0 9334:1.0 11518:1.0 14831:1.0 15040:1.0 16423:1.0 17947:1.0 19233:1.0 20105:1.0 
8.0 6.381365919942846 6049:1.0 6948:1.0 9186:1.0 9472:1.0 10993:1.0 11518:1.0 14193:1.0 
0.45910475230543407 0.0 585:1.0 1756:1.0 3185:1.0 5763:1.0 8399:1.0 9819:1.0 10619:1.0 10718:1.0 11518:2.0 17722:1.0 17726:1.0 17727:1.0 19233:1.0 
1.16351349450243 8.0 581:1.0 848:1.0 3982:1.0 11518:1.0 20039:1.0 20048:1.0 20332:1.0 
7.5601659899093505 5.371761024021775 3942:1.0 7241:1.0 11518:1.0 14671:1.0 15778:1.0 17390:1.0 17809:1.0 18883:1.0 18932:1.0 
8.0 1.6447493704548046 582:1.0 585:1.0 2301:1.0 2303:1.0 7099:1.0 11518:1.0 15575:1.0 19451:1.0 20067:2.0 
8.0 0.0 585:1.0 5085:1.0 6517:1.0 6803:1.0 7153:1.0 7859:1.0 11518:1.0 13128:1.0 17099:1.0 20105:1.0 
4.243407044637268 0.6825162117239608 581:1.0 585:1.0 3839:1.0 3909:1.0 4414:1.0 4614:1.0 6102:1.0 9021:1.0 11518:1.0 12959:1.0 14471:1.0 15254:1.0 15692:1.0 19233:1.0 19553:1.0 19880:1.0 
7.01748939088714 2.455231860480902 582:2.0 583:1.0 1588:1.0 5557:1.0 10816:1.0 11518:1.0 14135:1.0 18219:1.0 19406:1.0 
1.1822899321496898 1.009301390430851 581:1.0 3839:1.0 3909:1.0 4414:1.0 4614:1.0 6102:1.0 8468:1.0 9021:1.0 11518:1.0 11827:1.0 12415:1.0 12959:1.0 14471:1.0 15254:1.0 19402:1.0 19553:1.0 19880:1.0 
6.215098562702061 0.0 582:1.0 874:1.0 4908:1.0 8468:1.0 8797:1.0 11518:1.0 14471:1.0 15710:1.0 15746:1.0 16972:1.0 19907:1.0 
0.07278350376385104 0.0 581:1.0 584:2.0 1692:1.0 4919:1.0 5977:1.0 6467:1.0 10599:1.0 11518:1.0 11924:1.0 19119:1.0 
0.0 0.7446444941379189 582:1.0 585:1.0 4924:1.0 6803:1.0 11518:3.0 11519:1.0 12856:1.0 13663:1.0 17099:1.0 19907:1.0 
2.502016661305472 0.0 582:1.0 585:1.0 4924:1.0 6803:1.0 11518:2.0 11519:1.0 12856:1.0 13663:1.0 17099:1.0 19907:1.0 
8.0 0.0 582:1.0 585:1.0 4924:1.0 6803:1.0 11518:2.0 11519:1.0 12856:1.0 13663:1.0 17099:1.0 19907:1.0 
8.0 0.5448702105190624 582:1.0 585:1.0 4924:1.0 6803:1.0 11518:2.0 11519:1.0 12323:1.0 12856:1.0 13663:1.0 17099:1.0 19907:1.0 
8.0 3.183625293654206 582:1.0 585:1.0 4924:1.0 6803:1.0 11518:2.0 11519:1.0 12856:1.0 13663:1.0 17099:1.0 19907:1.0 
7.661707348237693 1.3749165418211766 3243:1.0 3909:1.0 5541:1.0 7899:1.0 8133:1.0 11518:1.0 16769:1.0 17099:1.0 19406:1.0 
7.14172759528656 4.134653400211828 580:1.0 584:1.0 585:1.0 3459:1.0 3818:1.0 6803:1.0 8466:1.0 9932:1.0 11518:1.0 11917:1.0 13128:1.0 13988:1.0 14751:1.0 19703:1.0 
6.1492110417945645 1.1714677308234227 585:1.0 674:1.0 3771:1.0 5432:1.0 5750:1.0 6803:1.0 8797:1.0 11518:2.0 12856:1.0 17187:1.0 17666:1.0 17739:1.0 
0.7458832177305041 0.0 581:1.0 1692:1.0 2349:1.0 8302:1.0 11518:1.0 14403:1.0 
7.997855880140167 2.48535112110702 582:1.0 584:1.0 4908:1.0 8468:1.0 8798:1.0 9359:1.0 11518:1.0 14471:1.0 15746:1.0 19233:1.0 19907:1.0 
1.4922013292591905 0.0 580:1.0 581:2.0 584:1.0 585:1.0 2053:1.0 7763:1.0 8302:1.0 11518:2.0 15957:1.0 17857:1.0 18983:1.0 19319:1.0 19457:1.0 
0.9400183888340637 0.27982503068762943 582:2.0 584:2.0 1182:1.0 5222:1.0 7409:1.0 9024:1.0 10659:1.0 11469:1.0 11518:1.0 15579:1.0 15864:1.0 17561:1.0 19056:1.0 20288:2.0 
4.966128742952325 1.1164225471138303 585:1.0 1756:1.0 3185:1.0 5763:1.0 8399:1.0 9819:1.0 10718:1.0 11518:2.0 17722:1.0 17726:1.0 17727:1.0 19233:1.0 19830:1.0 
7.427343223100859 0.7309803768591805 582:1.0 584:1.0 585:1.0 2905:1.0 6095:1.0 8797:1.0 11518:2.0 12369:1.0 15708:1.0 15746:1.0 16972:1.0 17722:1.0 19907:1.0 
2.5206824052704313 0.0 585:1.0 5796:1.0 7572:1.0 8646:1.0 11518:1.0 11565:1.0 15746:2.0 
8.0 0.0 585:1.0 2313:1.0 7440:1.0 9868:1.0 11518:1.0 12369:1.0 15746:2.0 18179:1.0 
7.040941487525832 1.4604483722336563 3956:1.0 4306:1.0 7284:1.0 8902:1.0 11518:1.0 14033:1.0 14039:1.0 15808:1.0 15875:1.0 16589:1.0 19056:1.0 
8.0 0.0 582:2.0 585:1.0 1136:2.0 6982:1.0 7440:1.0 8908:1.0 8915:1.0 8956:1.0 11518:1.0 12674:1.0 14802:1.0 17893:1.0 18689:1.0 18822:1.0 
8.0 3.5080706438071543 1237:1.0 1660:1.0 4448:1.0 7150:1.0 7602:1.0 8228:1.0 8468:1.0 9805:1.0 10162:1.0 11518:1.0 11827:1.0 13594:1.0 14213:1.0 14471:1.0 
8.0 6.11800534650271 581:1.0 585:1.0 2053:1.0 8303:1.0 11518:2.0 14213:1.0 14908:1.0 
0.8166338573596786 0.0 5966:1.0 7572:1.0 9972:1.0 11518:1.0 15873:1.0 15879:1.0 16875:1.0 17013:1.0 17857:1.0 
6.846105686331965 7.981348693820759 585:1.0 2303:1.0 3423:1.0 4525:1.0 11518:1.0 13645:1.0 20048:1.0 
8.0 7.297503861919643 585:1.0 867:1.0 1182:1.0 1857:1.0 3982:1.0 6116:1.0 11518:1.0 15663:1.0 17722:1.0 18009:1.0 19045:1.0 
2.744228288061626 0.48077187920443104 4796:1.0 7572:1.0 11518:1.0 11588:1.0 16825:1.0 17725:1.0 17857:1.0 18146:1.0 
5.316958890495518 4.185788492994053 580:1.0 582:1.0 585:1.0 5900:1.0 5941:1.0 6478:1.0 9160:1.0 11518:1.0 11851:1.0 15873:1.0 17623:1.0 19109:1.0 19345:1.0 19408:1.0 19898:1.0 20048:1.0 
8.0 4.503564466985833 584:1.0 585:1.0 2535:1.0 11518:1.0 17722:1.0 18350:1.0 18591:1.0 19233:1.0 20097:1.0 
1.0613810860343702 0.0 581:4.0 584:1.0 1692:1.0 2349:1.0 3766:1.0 8302:1.0 8303:1.0 9863:1.0 11518:1.0 12959:1.0 13469:1.0 14908:1.0 16111:1.0 17019:1.0 19233:1.0 
0.0 2.3818638390924276 580:1.0 585:1.0 4126:1.0 6178:1.0 6424:1.0 8303:1.0 10659:1.0 11518:1.0 14558:1.0 14908:1.0 15662:2.0 16111:1.0 16678:1.0 
8.0 1.6719845038728374 585:1.0 6178:1.0 6424:1.0 8303:1.0 10659:1.0 11518:1.0 14908:1.0 15662:2.0 16111:1.0 
8.0 1.1160979130163133 581:1.0 585:1.0 1444:1.0 3117:1.0 11518:1.0 12072:2.0 12369:1.0 20524:1.0 
3.9955020010158333 0.0 585:1.0 5605:1.0 8111:1.0 9863:1.0 10264:1.0 10993:1.0 11518:1.0 12222:1.0 13829:1.0 15877:1.0 
8.0 2.6857411113786505 585:1.0 5605:1.0 8111:1.0 9863:1.0 10264:1.0 10993:1.0 11518:1.0 12222:1.0 13829:1.0 15877:1.0 
5.7298545458267895 3.4263421668824536 7581:1.0 8448:1.0 10059:1.0 11056:1.0 11518:1.0 14829:1.0 
5.574437367870509 0.0 581:1.0 583:1.0 585:1.0 6222:1.0 6803:1.0 8082:1.0 8111:1.0 9747:1.0 9819:1.0 9932:1.0 10536:1.0 11518:1.0 12985:1.0 13342:1.0 15416:1.0 15418:1.0 18293:1.0 
0.7215631915806748 0.0 581:2.0 584:1.0 585:1.0 3395:1.0 3459:1.0 6185:1.0 6376:1.0 8133:1.0 11518:1.0 12369:1.0 13128:1.0 13908:1.0 16225:1.0 20067:1.0 
6.531152569687434 0.8846680344169464 583:1.0 1326:1.0 2305:1.0 5190:1.0 7409:1.0 9186:1.0 11238:1.0 11518:1.0 17874:1.0 19045:1.0 19457:1.0 20067:1.0 
2.170002528461572 0.0 581:1.0 582:1.0 721:1.0 1981:1.0 4088:1.0 6467:1.0 8794:1.0 9021:1.0 9158:1.0 10872:1.0 11518:1.0 12369:1.0 14121:1.0 17099:1.0 19553:1.0 19907:1.0 
7.251638003005472 4.665476259872707 585:1.0 3905:1.0 9024:1.0 10659:1.0 11518:1.0 12269:1.0 15469:1.0 15957:1.0 18458:1.0 19914:1.0 20191:1.0 
8.0 0.0 581:1.0 585:1.0 3395:1.0 3459:1.0 6185:1.0 6376:1.0 8133:1.0 11518:1.0 12369:1.0 13128:1.0 13908:1.0 20067:1.0 
2.6152523541488732 0.0 584:1.0 2081:1.0 3680:1.0 7368:1.0 7884:1.0 11398:1.0 11518:1.0 11975:1.0 17857:1.0 
7.466569305168556 2.6113393970866676 585:1.0 2628:1.0 4126:1.0 10614:1.0 11518:2.0 11919:1.0 14002:1.0 18293:2.0 19072:1.0 19608:1.0 19960:1.0 
8.0 3.4487207640477338 580:1.0 585:1.0 2064:1.0 3925:1.0 6712:1.0 11056:1.0 11518:1.0 16255:2.0 16761:1.0 17055:1.0 17779:1.0 19914:1.0 20105:1.0 
8.0 0.0 528:1.0 581:1.0 585:1.0 1356:1.0 4615:1.0 5820:2.0 11518:1.0 12959:1.0 13594:1.0 14254:1.0 15599:1.0 17828:1.0 19056:1.0 
2.7062523724743017 1.7924224996131541 580:1.0 1530:1.0 4807:1.0 5517:1.0 5894:1.0 7409:1.0 11518:1.0 13904:1.0 14471:1.0 14513:1.0 15423:1.0 15426:1.0 15520:1.0 16566:1.0 18913:1.0 20283:1.0 
5.124193452229496 0.0 585:1.0 4919:1.0 6492:1.0 7409:1.0 8116:1.0 11518:1.0 13043:1.0 18357:1.0 
7.336419064131661 3.255274217406773 584:1.0 1252:1.0 2414:1.0 2618:1.0 3821:1.0 6896:1.0 11518:1.0 14233:1.0 14646:1.0 15770:1.0 17277:1.0 
4.5147531196897575 0.0 581:1.0 584:1.0 585:1.0 3976:1.0 4306:1.0 5598:1.0 8749:2.0 8794:1.0 8870:1.0 11518:1.0 13304:1.0 17857:1.0 19955:1.0 
6.386240155544205 0.2741409411867523 581:2.0 1680:1.0 2489:1.0 8956:1.0 11136:1.0 11518:1.0 11851:1.0 17739:1.0 
0.9965087797025394 0.5476804971352907 581:2.0 582:1.0 848:1.0 1136:1.0 1491:1.0 1769:1.0 2658:1.0 4689:1.0 4982:1.0 5269:1.0 7294:1.0 7882:1.0 11518:1.0 12684:1.0 15442:1.0 20243:1.0 20294:2.0 
1.841812044473574 2.4449602548849314 581:2.0 582:1.0 848:1.0 1136:1.0 1769:1.0 2658:1.0 4689:1.0 4982:1.0 5269:1.0 7294:1.0 7882:1.0 11518:1.0 12684:1.0 15442:1.0 20243:1.0 20294:2.0 
6.452195470960572 0.8412231991916285 581:1.0 585:1.0 6984:1.0 8794:1.0 11518:1.0 12953:1.0 14104:1.0 17739:1.0 19192:1.0 
8.0 6.933211423136644 583:1.0 584:1.0 585:1.0 2313:1.0 5290:1.0 7409:1.0 7440:1.0 9078:1.0 11518:1.0 13255:1.0 19233:1.0 
8.0 5.761439808199838 585:1.0 1326:1.0 2212:1.0 4888:1.0 9103:1.0 10352:1.0 11518:1.0 17189:1.0 17529:1.0 19907:1.0 
3.33764551308369 1.0824952982470033 172:1.0 581:1.0 584:2.0 4525:1.0 4593:1.0 7572:1.0 8307:1.0 11518:1.0 11991:1.0 12104:1.0 13110:1.0 14844:1.0 18146:1.0 18288:1.0 19451:1.0 
6.286214494015892 0.0 585:1.0 11056:1.0 11518:1.0 16111:1.0 16423:1.0 17055:1.0 17253:1.0 17634:1.0 
8.0 0.0 582:1.0 585:1.0 4908:1.0 8797:1.0 11518:1.0 15708:1.0 15746:1.0 16972:1.0 19907:1.0 
8.0 1.5077947517281496 585:1.0 3771:1.0 10718:1.0 11518:1.0 11851:1.0 12959:1.0 13717:1.0 14258:1.0 15875:1.0 
6.9355463163426245 3.391393840005961 585:1.0 2228:1.0 4919:1.0 5273:1.0 11518:1.0 12337:1.0 15356:1.0 18232:1.0 19907:1.0 19929:1.0 
6.664258260689373 5.023210173634293 584:1.0 3942:1.0 9778:1.0 11518:1.0 12443:1.0 17576:1.0 
8.0 8.0 583:1.0 584:1.0 585:1.0 8622:1.0 8764:1.0 8956:1.0 11518:1.0 14671:1.0 15406:2.0 19914:1.0 20105:1.0 
6.092453725440842 3.0776679357485817 582:1.0 6212:1.0 7164:1.0 8335:1.0 10718:1.0 11518:1.0 11851:2.0 12858:1.0 19045:1.0 19955:1.0 
2.342571535290104 2.7496523607156007 1169:1.0 1326:2.0 3546:1.0 6750:1.0 6949:2.0 7099:1.0 7684:1.0 10659:1.0 10718:1.0 11518:1.0 12684:1.0 14471:2.0 17444:1.0 
8.0 8.0 7409:1.0 11518:1.0 12967:1.0 
5.538148240859138 0.0 585:1.0 1092:1.0 6222:1.0 11518:1.0 16320:1.0 17993:1.0 18232:1.0 19670:1.0 19672:1.0 
8.0 8.0 581:3.0 582:1.0 11518:1.0 20377:1.0 
0.947897441824781 1.4217618541688863 654:1.0 1381:1.0 4224:1.0 7609:1.0 8980:1.0 10718:1.0 11518:1.0 11919:1.0 12959:1.0 
8.0 3.029331302078667 580:1.0 585:1.0 4126:1.0 6234:1.0 11518:1.0 17383:1.0 18350:1.0 18591:1.0 19258:1.0 
4.635891945253502 4.006390111434497 580:1.0 1182:1.0 6733:1.0 7359:1.0 8609:1.0 10188:1.0 10699:1.0 11056:1.0 11518:1.0 13537:1.0 14291:1.0 16295:1.0 16741:1.0 17576:1.0 20097:1.0 
8.0 8.0 582:1.0 3982:1.0 9613:1.0 11518:1.0 17857:1.0 19003:1.0 19907:1.0 
8.0 0.0 581:2.0 1775:1.0 10718:1.0 18689:1.0 
8.0 8.0 583:1.0 13810:1.0 
7.286615486826064 8.0 580:1.0 2384:1.0 2981:1.0 4045:1.0 6164:1.0 6362:1.0 8111:1.0 9186:1.0 11851:1.0 12900:1.0 14358:1.0 15469:1.0 16367:1.0 18689:1.0 20067:1.0 
8.0 8.0 584:1.0 2582:1.0 11653:1.0 18689:1.0 
3.4483587744110076 1.2691672066589252 581:1.0 1136:1.0 1769:2.0 6008:1.0 9747:1.0 10181:1.0 10271:1.0 10706:1.0 12284:1.0 13128:1.0 14313:1.0 16230:1.0 16604:1.0 17775:1.0 17874:1.0 18532:1.0 18689:1.0 
8.0 8.0 580:1.0 581:1.0 3949:1.0 9747:1.0 16346:1.0 18689:1.0 
8.0 0.0 581:1.0 1345:1.0 1523:1.0 6478:1.0 6833:1.0 12369:1.0 17928:1.0 18689:1.0 19955:1.0 
7.5625277803037845 2.293671566479083 583:2.0 584:1.0 1125:1.0 5126:1.0 16346:2.0 18689:1.0 18702:1.0 19664:1.0 
8.0 4.121295080756652 3994:1.0 5714:1.0 7940:1.0 10536:1.0 13178:1.0 13829:1.0 14671:1.0 15825:1.0 16972:1.0 17561:1.0 18689:1.0 
8.0 8.0 744:1.0 18009:1.0 18689:1.0 
8.0 8.0 580:2.0 8096:1.0 10181:1.0 10706:1.0 13128:1.0 13178:1.0 16037:1.0 18689:1.0 
3.9766434472447125 0.0 581:2.0 2280:1.0 9066:1.0 10392:1.0 10718:1.0 11340:1.0 16537:1.0 17750:1.0 18219:1.0 18689:1.0 20377:1.0 
8.0 8.0 6164:1.0 18689:1.0 
5.732000444979083 0.0 584:1.0 7294:1.0 7884:1.0 16111:1.0 18689:1.0 20288:1.0 
7.472709845702213 1.786409781700598 628:1.0 6164:1.0 9237:1.0 12002:1.0 14121:1.0 18689:1.0 18717:1.0 
1.793765093771725 6.655948850687582 7381:1.0 7479:1.0 10446:1.0 10718:1.0 15266:1.0 16037:1.0 16763:1.0 18689:1.0 20067:1.0 
8.0 8.0 584:1.0 18689:1.0 
8.0 0.0 581:1.0 8102:1.0 18689:1.0 
8.0 2.9512501553868886 581:1.0 11835:1.0 18689:1.0 
5.104521477016741 0.8533833548704406 581:1.0 582:1.0 2090:2.0 7359:2.0 11319:1.0 11624:1.0 14671:1.0 16262:1.0 18689:1.0 18710:1.0 19752:1.0 
8.0 0.0 581:1.0 10718:1.0 17424:1.0 18689:1.0 
8.0 8.0 4701:1.0 5290:1.0 6904:1.0 9036:1.0 11653:1.0 18219:1.0 18689:1.0 
7.543784743233057 5.421395418714373 581:1.0 582:1.0 1237:1.0 2968:1.0 5484:1.0 7381:1.0 9747:1.0 14258:1.0 15652:1.0 17857:1.0 18620:1.0 18689:1.0 19451:1.0 
8.0 4.428181151739973 581:1.0 3404:1.0 17703:1.0 18689:1.0 
8.0 8.0 582:1.0 12369:1.0 18710:1.0 
8.0 0.0 10718:1.0 18009:1.0 18689:1.0 
8.0 8.0 18689:1.0 
1.0033840008161292 0.5456799397100228 584:1.0 1322:1.0 5989:1.0 7409:1.0 7499:1.0 10292:1.0 12959:1.0 13537:1.0 14210:1.0 14671:1.0 15614:1.0 16161:1.0 16537:1.0 17993:1.0 18689:1.0 
0.0 0.11324623230320635 584:1.0 6164:1.0 11219:1.0 18702:1.0 
8.0 1.6639931926950522 7479:1.0 10718:1.0 18689:1.0 
8.0 8.0 580:1.0 583:1.0 11340:1.0 16537:1.0 18689:1.0 18709:1.0 19960:1.0 
5.263029937396365 5.924178199253661 981:1.0 6164:1.0 18702:1.0 
4.404517066366879 2.6603619089819555 581:2.0 582:2.0 744:1.0 1243:1.0 3413:1.0 6040:1.0 7696:1.0 10352:1.0 11134:1.0 13829:1.0 14439:1.0 18689:1.0 18941:1.0 20135:1.0 
2.156803238348401 2.643751271650924 584:1.0 1322:1.0 7409:1.0 7499:1.0 10292:1.0 12959:1.0 13537:1.0 14210:1.0 14671:1.0 15614:1.0 16161:1.0 16537:1.0 17993:1.0 18689:1.0 
8.0 2.839587207928171 1326:1.0 4089:1.0 5787:1.0 11238:1.0 11851:1.0 13057:1.0 16945:1.0 18689:1.0 19451:1.0 
8.0 7.643842828247274 1317:1.0 2090:1.0 5290:1.0 6164:1.0 6305:1.0 10068:1.0 18689:1.0 18712:1.0 
4.552805368360596 4.310997394355076 583:1.0 584:1.0 3395:1.0 5943:1.0 6057:1.0 6164:1.0 10993:1.0 11851:1.0 12002:1.0 12333:1.0 14082:1.0 14165:1.0 18689:1.0 19805:1.0 
8.0 0.0 7884:1.0 18689:2.0 
8.0 8.0 335:1.0 18689:1.0 
8.0 1.545300504382999 585:1.0 8794:1.0 12726:1.0 15313:1.0 16454:1.0 16541:1.0 18689:2.0 
8.0 8.0 2350:1.0 2920:1.0 6164:1.0 6904:1.0 18689:1.0 
6.451872533087501 0.0 4118:1.0 6264:1.0 10718:1.0 18689:2.0 19192:1.0 
8.0 5.511012680560583 2228:1.0 6164:1.0 6667:1.0 6904:1.0 17690:1.0 18689:1.0 19451:1.0 
5.689484006076479 4.239274533765177 580:1.0 646:1.0 6945:1.0 7965:1.0 8133:1.0 10659:1.0 11033:1.0 16037:1.0 18689:2.0 19192:1.0 
8.0 0.6469227190314192 5766:1.0 6475:1.0 8111:1.0 16111:1.0 16618:1.0 17773:1.0 18689:2.0 19553:1.0 
8.0 0.0 744:1.0 7884:1.0 18689:1.0 
1.6925483802894927 0.0 1769:1.0 2234:1.0 5354:1.0 5714:1.0 6164:1.0 6735:1.0 7409:1.0 10524:1.0 17739:1.0 17838:1.0 18689:1.0 
1.0017136765497698 0.5462740027089814 234:1.0 272:1.0 4525:2.0 6164:1.0 9020:1.0 9021:1.0 17959:1.0 18689:1.0 
8.0 8.0 8724:1.0 9747:1.0 11653:1.0 11851:1.0 14219:1.0 18344:1.0 18689:1.0 20377:1.0 
3.1745410328088766 2.3736919778676886 234:1.0 272:1.0 4525:2.0 6164:1.0 9020:1.0 9021:1.0 18689:1.0 
7.394869499956778 5.157395109602648 581:1.0 2042:1.0 2630:1.0 6853:1.0 7884:1.0 8133:1.0 10915:1.0 11835:1.0 12684:1.0 15406:1.0 17857:1.0 18515:1.0 18689:2.0 
8.0 8.0 4876:1.0 18689:1.0 
8.0 8.0 581:1.0 1136:1.0 1275:1.0 2064:1.0 2981:1.0 17055:1.0 17259:1.0 18689:1.0 
8.0 0.0 10718:1.0 18689:1.0 18719:1.0 
8.0 8.0 18689:1.0 
8.0 8.0 580:1.0 4525:1.0 5821:1.0 6481:1.0 6960:1.0 8539:1.0 16037:2.0 18689:2.0 
6.75186863235332 0.29431312110339825 2149:1.0 6002:1.0 7284:1.0 8032:1.0 10181:1.0 10425:1.0 10706:1.0 13128:1.0 13537:1.0 14658:1.0 18456:1.0 18689:1.0 18947:1.0 19359:1.0 
8.0 0.0 581:1.0 10718:1.0 18689:1.0 20377:1.0 
4.727831629285196 0.0 581:2.0 584:1.0 2896:1.0 3279:1.0 4979:1.0 8353:1.0 12684:1.0 18146:1.0 18689:1.0 20289:1.0 
3.9585103961763 0.0 973:1.0 6164:1.0 7940:1.0 8133:1.0 15662:1.0 18702:1.0 19045:1.0 
8.0 5.201226295432667 6713:1.0 9747:1.0 10181:1.0 10706:1.0 12002:1.0 13128:1.0 14671:1.0 18689:1.0 
8.0 0.0 7884:1.0 18689:1.0 
8.0 0.0 6164:1.0 7572:1.0 12480:1.0 12528:1.0 16769:1.0 16822:1.0 18689:1.0 19451:1.0 
5.7525105057708155 4.587080594581201 889:1.0 3139:1.0 6362:1.0 10356:1.0 13128:1.0 14658:1.0 18689:1.0 19045:1.0 20067:1.0 
8.0 6.532638679674182 582:1.0 2283:1.0 4566:1.0 4894:1.0 12805:1.0 18689:1.0 
8.0 0.0 7884:1.0 9595:1.0 18689:1.0 19069:1.0 
5.97107349373769 0.0 581:1.0 742:1.0 6164:1.0 7788:1.0 10993:1.0 11448:1.0 12369:1.0 12959:1.0 14833:1.0 18689:1.0 
3.885107302715399 5.48281140917324 581:1.0 582:1.0 583:1.0 848:1.0 1951:1.0 6904:1.0 7368:1.0 10439:1.0 10940:1.0 12369:1.0 12497:1.0 16556:1.0 17973:1.0 18052:1.0 
0.18184407184437965 1.2077568319117358 580:1.0 585:1.0 3909:1.0 5339:1.0 6712:1.0 6945:1.0 8724:1.0 10923:1.0 13537:1.0 17857:1.0 17947:1.0 18146:1.0 18515:1.0 19511:1.0 20005:1.0 20377:1.0 
2.1651523730118147 1.322420904226476 580:2.0 581:3.0 2149:1.0 6749:1.0 6960:1.0 10181:1.0 10706:1.0 13128:1.0 19056:1.0 20377:1.0 
6.952681398150273 0.05912437123203305 3605:1.0 5537:1.0 11776:1.0 11777:1.0 12497:1.0 17099:1.0 17857:1.0 
3.4519241874326276 6.581243015200982 4525:1.0 13366:1.0 18146:1.0 20031:1.0 
1.0237293716008011 0.0 28:1.0 581:4.0 584:1.0 910:1.0 2078:1.0 7884:1.0 8100:1.0 8205:1.0 10718:1.0 11230:1.0 12369:1.0 12497:1.0 16771:1.0 
5.68716840473289 0.0 585:1.0 5796:1.0 8208:1.0 10181:1.0 10706:1.0 13128:1.0 
7.707075120907866 2.9786560140518734 9863:1.0 10730:1.0 11316:1.0 11518:1.0 13350:1.0 13806:1.0 13810:1.0 17099:1.0 18219:1.0 
0.39087422719843107 0.0 580:1.0 581:3.0 582:1.0 584:1.0 1136:1.0 2072:1.0 4306:1.0 7685:1.0 10778:2.0 10998:1.0 11248:1.0 11253:1.0 14609:1.0 16111:1.0 19256:1.0 19457:1.0 
8.0 8.0 580:1.0 10425:1.0 10536:1.0 14804:1.0 
0.3759824838728828 0.0 581:2.0 2434:1.0 3254:1.0 3343:1.0 3629:1.0 7268:1.0 7572:1.0 7575:1.0 9503:1.0 13806:1.0 14340:1.0 14810:1.0 16624:1.0 19359:1.0 
8.0 8.0 580:1.0 3645:1.0 11827:1.0 13178:1.0 17169:1.0 
8.0 7.515509303104311 2675:1.0 7685:1.0 14318:1.0 
0.0 2.507571033410675 581:2.0 582:1.0 3260:1.0 4126:1.0 4525:1.0 5290:1.0 6212:1.0 10718:1.0 11860:1.0 13160:1.0 16124:1.0 16262:1.0 19477:1.0 19693:1.0 
5.888007047907056 8.0 580:1.0 581:1.0 14804:1.0 
6.39316689692774 7.2207274485659605 581:3.0 582:2.0 9918:1.0 16714:1.0 19898:1.0 
0.344132237461988 1.8041266516881944 581:4.0 1692:1.0 9036:1.0 9389:1.0 9932:1.0 12519:1.0 19863:1.0 
4.100346534862232 0.6652739415015818 581:5.0 2228:1.0 6068:1.0 6803:1.0 8204:1.0 10713:1.0 10993:1.0 
0.37461724479192343 0.0 580:1.0 584:1.0 585:1.0 7685:1.0 10458:1.0 10718:1.0 11050:1.0 12863:1.0 15183:1.0 19258:1.0 19612:1.0 
0.0 0.7649939310890709 581:3.0 1048:1.0 4525:1.0 5796:1.0 6002:1.0 6222:2.0 7884:2.0 8987:1.0 11449:1.0 
6.898963128576534 0.0 581:1.0 6853:1.0 7884:1.0 
3.0690127883400473 0.6391810386079722 581:3.0 585:1.0 4525:1.0 7685:2.0 9830:1.0 9932:1.0 10151:1.0 10181:1.0 10706:1.0 12480:1.0 13128:1.0 13366:1.0 14892:1.0 15919:1.0 19784:1.0 
7.5206789488252035 1.303936015245773 584:1.0 585:1.0 3114:1.0 4315:1.0 5623:1.0 7699:1.0 11518:1.0 14184:1.0 14701:1.0 14706:1.0 19192:1.0 
3.1821718426813423 0.0 867:1.0 1072:1.0 2202:1.0 2933:1.0 3928:1.0 7048:1.0 7169:1.0 8835:1.0 9101:1.0 12148:1.0 15778:1.0 16624:1.0 17576:1.0 19923:1.0 
0.02470531444171825 3.623220394970726 580:1.0 581:1.0 1818:1.0 2968:1.0 3139:1.0 7268:1.0 8525:1.0 8987:1.0 11449:1.0 12997:1.0 14213:1.0 16346:1.0 16765:1.0 17144:1.0 19457:1.0 20048:1.0 
7.844766449205327 2.2844228569146074 910:1.0 10940:1.0 12497:1.0 15863:1.0 16062:1.0 16604:1.0 18052:1.0 20097:1.0 
1.8003502577587678 0.0 582:1.0 1493:1.0 2618:1.0 3109:1.0 3909:1.0 5339:1.0 6467:1.0 7359:1.0 7360:1.0 7884:1.0 9806:1.0 11518:1.0 11973:1.0 13377:1.0 13719:1.0 17187:1.0 18515:1.0 20014:1.0 
0.46802256499459477 2.473419287222792 582:1.0 3055:1.0 3071:1.0 3574:1.0 5557:1.0 6734:1.0 6827:1.0 8418:1.0 10923:1.0 12316:1.0 12684:1.0 18219:1.0 20048:2.0 20084:1.0 
1.7033728617643844 0.0 581:2.0 583:2.0 584:2.0 2902:1.0 4126:1.0 4303:1.0 8204:1.0 8609:1.0 9932:1.0 10515:1.0 10599:1.0 13346:1.0 17874:1.0 19680:1.0 19758:1.0 20283:1.0 20377:1.0 
3.4314682945955037 5.053629834589005 2228:1.0 8005:1.0 8204:1.0 9166:1.0 12652:1.0 12684:1.0 12880:1.0 15065:1.0 16678:1.0 
6.555873511445565 6.147733618852104 2957:1.0 3555:1.0 7970:1.0 11158:1.0 20283:1.0 
0.1992732470021804 2.4084204368513076 581:5.0 2493:1.0 6177:1.0 8285:1.0 15230:1.0 
7.895877986639201 8.0 581:4.0 7048:1.0 15429:1.0 
3.212173346368361 3.416011542713102 580:1.0 581:2.0 846:1.0 2777:1.0 6362:1.0 6741:1.0 9237:1.0 10151:1.0 10544:1.0 10659:1.0 15683:1.0 16624:1.0 17981:1.0 19451:1.0 19645:1.0 
8.0 4.464109646327583 585:1.0 3909:1.0 6252:1.0 7048:1.0 9021:1.0 12519:1.0 13128:1.0 13999:1.0 18937:1.0 19868:1.0 
8.0 2.861841411735597 582:1.0 890:1.0 4470:1.0 12497:1.0 13065:1.0 15896:1.0 16065:1.0 18398:1.0 
0.0 1.9139840676111095 1692:1.0 2338:1.0 3459:1.0 6749:1.0 
0.15813028716732966 2.2397508677457822 580:1.0 5529:1.0 8612:1.0 8948:1.0 13559:2.0 
0.0 8.0 6848:1.0 14671:2.0 15778:1.0 19511:1.0 20288:1.0 
8.0 8.0 581:1.0 4543:1.0 15065:1.0 15204:1.0 
8.0 4.552211007966216 2090:1.0 3916:1.0 8050:1.0 11518:1.0 12072:1.0 18009:1.0 20039:1.0 
8.0 0.0 584:2.0 585:1.0 4202:1.0 16624:1.0 18009:1.0 19233:1.0 19387:1.0 19898:1.0 
8.0 6.442120065291607 790:1.0 6781:1.0 7368:1.0 7685:1.0 8402:1.0 9308:1.0 
8.0 2.2158989717650384 581:1.0 585:1.0 8217:1.0 10431:1.0 
3.0399208911887037 0.0 13030:1.0 17253:1.0 19647:1.0 
3.9701962811596703 8.0 581:1.0 2228:1.0 9496:1.0 
0.976132105246717 0.5321057629157473 581:9.0 3714:1.0 10049:1.0 12959:2.0 14931:1.0 15344:1.0 17987:1.0 20067:1.0 
0.05443563145970154 0.0 581:1.0 967:1.0 3000:1.0 5402:1.0 7200:1.0 10122:1.0 10181:1.0 10706:1.0 10718:1.0 13128:1.0 15987:1.0 16261:1.0 19863:1.0 
0.0 0.9629132704449185 120:1.0 580:1.0 581:8.0 582:1.0 585:1.0 2277:1.0 4556:1.0 6904:1.0 7520:1.0 7702:1.0 10718:1.0 11061:1.0 17775:1.0 20245:1.0 
4.717395882609554 2.276819511086681 581:3.0 582:3.0 7359:1.0 9932:1.0 10181:1.0 12853:1.0 18113:1.0 18282:1.0 20393:1.0 
8.0 8.0 1243:1.0 1372:1.0 3071:1.0 3093:1.0 14907:1.0 19511:1.0 20393:1.0 
7.186216225111291 0.0743243755991576 584:1.0 585:1.0 755:1.0 1169:1.0 3003:1.0 4518:1.0 5252:1.0 10181:1.0 10453:1.0 10532:1.0 10706:1.0 11033:1.0 11776:1.0 13128:1.0 
0.0 0.7338381187056271 91:1.0 580:1.0 581:1.0 1752:1.0 2338:2.0 2828:1.0 5458:1.0 6517:1.0 7268:1.0 7884:1.0 8183:1.0 11773:1.0 17947:1.0 20377:1.0 
2.3750562170970833 8.0 581:2.0 1227:1.0 4393:1.0 7884:1.0 10699:1.0 12684:1.0 15864:1.0 17573:1.0 18265:1.0 19511:1.0 
0.49709348107554496 8.0 581:1.0 4525:1.0 6071:1.0 15559:1.0 
2.8044322687412206 0.25694162282144034 583:1.0 1280:1.0 1301:1.0 3514:1.0 3675:1.0 4306:1.0 6057:1.0 14908:1.0 17215:2.0 20064:1.0 
0.0 1.146240965216507 580:1.0 581:2.0 4475:1.0 4564:1.0 5508:1.0 10170:1.0 12415:1.0 19457:1.0 
0.7210100894653172 4.490716817227395 583:1.0 584:2.0 2082:1.0 4984:1.0 6904:1.0 7632:1.0 10718:2.0 12684:1.0 14658:1.0 15065:1.0 16892:1.0 17755:1.0 17874:1.0 18139:1.0 19511:1.0 20377:1.0 
5.336949358352524 0.0 582:1.0 584:1.0 1769:1.0 2147:1.0 6656:3.0 7884:1.0 8538:1.0 18515:1.0 
8.0 6.103441224678967 581:1.0 5557:1.0 8204:1.0 11772:1.0 20423:1.0 
0.9849570647653808 0.0 2698:1.0 6159:1.0 6467:1.0 6749:1.0 7685:1.0 7716:1.0 7884:1.0 12369:1.0 12618:1.0 13802:1.0 13872:1.0 14510:1.0 15065:1.0 15895:1.0 16434:1.0 17857:1.0 20048:1.0 20377:1.0 20428:1.0 
1.220361585755154 0.0 10718:1.0 12230:1.0 18315:1.0 
4.056317658173925 2.153998457351659 583:2.0 6848:1.0 8102:1.0 11518:1.0 13366:1.0 15933:1.0 17215:1.0 17874:1.0 19647:1.0 20283:1.0 
1.8856239658247407 0.0 581:2.0 585:1.0 3904:1.0 6613:1.0 12369:1.0 12497:1.0 14197:1.0 17454:1.0 20294:1.0 
1.3896884704060493 8.0 581:2.0 2547:1.0 18748:1.0 20288:1.0 
0.6369470332839225 0.0 581:2.0 961:1.0 2313:1.0 5999:1.0 7572:1.0 9085:1.0 9874:1.0 10713:1.0 12480:1.0 13806:1.0 14516:1.0 17895:1.0 18146:1.0 18219:1.0 18265:1.0 20005:1.0 
2.3806012863649766 0.0 582:2.0 5275:1.0 6057:1.0 7561:1.0 7884:1.0 8204:1.0 11534:1.0 12415:1.0 13178:1.0 13678:1.0 14236:1.0 19645:1.0 
3.0335711757541084 0.7133067595300713 581:2.0 1431:1.0 9407:1.0 11176:1.0 12208:1.0 12497:1.0 18867:1.0 19192:1.0 
2.5542882466815353 0.0 581:2.0 585:1.0 1092:1.0 3459:1.0 6342:1.0 10514:1.0 12684:1.0 13128:1.0 14236:1.0 15065:1.0 15442:1.0 
8.0 4.827594232532906 4525:1.0 10266:1.0 12519:1.0 15469:1.0 18689:1.0 19045:1.0 19863:1.0 
4.020110094685524 0.4890358022447297 582:2.0 583:1.0 584:1.0 2298:1.0 5233:1.0 9613:1.0 10718:1.0 12488:1.0 12497:1.0 12959:1.0 15950:1.0 16062:1.0 16275:1.0 18561:1.0 19784:1.0 20377:1.0 
8.0 0.0 585:1.0 10718:1.0 17981:1.0 
5.320506290403545 0.3024390932799119 581:4.0 2658:1.0 6222:1.0 6945:1.0 7048:1.0 12519:1.0 18282:1.0 19696:1.0 19863:1.0 
0.7423874184986152 0.0 581:3.0 6945:1.0 8204:1.0 10023:1.0 10699:1.0 13366:1.0 13953:1.0 18282:1.0 19162:1.0 
8.0 0.0 584:1.0 585:1.0 10458:1.0 10940:1.0 12497:1.0 19258:1.0 
1.2055386397518404 1.4862631934184305 581:3.0 3818:1.0 4544:1.0 5171:1.0 7884:1.0 10718:1.0 10923:1.0 16688:1.0 16984:1.0 17055:1.0 19056:1.0 19703:1.0 20377:1.0 
0.0 4.55564883460241 4525:1.0 6276:1.0 10718:1.0 13389:1.0 14055:1.0 17336:1.0 18146:1.0 
0.0 1.6745478328075343 580:1.0 581:1.0 584:1.0 1237:1.0 6212:1.0 6803:1.0 7564:1.0 10271:1.0 10718:1.0 11773:1.0 15880:1.0 16618:1.0 19511:1.0 20393:1.0 
0.0 1.4600815254875408 581:2.0 1609:1.0 1692:1.0 2719:1.0 3139:1.0 4570:1.0 5365:1.0 7200:1.0 7788:1.0 10659:1.0 12369:1.0 14598:1.0 19457:1.0 19946:1.0 
7.972187440579768 2.0547756762193785 3139:1.0 7685:1.0 10181:1.0 10515:1.0 10706:1.0 10915:1.0 12471:1.0 13128:1.0 17981:1.0 19752:1.0 20377:2.0 
0.0 3.2742675521152935 1824:1.0 2752:1.0 7409:1.0 12684:1.0 13014:1.0 15065:1.0 16678:1.0 
6.769419364929729 0.2633753919886707 2217:1.0 2740:1.0 7766:1.0 11282:1.0 
4.567307518064838 2.3856397981792408 210:1.0 581:1.0 582:1.0 585:1.0 2064:1.0 2458:1.0 6946:1.0 13180:1.0 13806:1.0 14577:1.0 15175:1.0 15676:1.0 
4.967489375300251 8.0 580:1.0 1904:1.0 7368:1.0 8050:1.0 11576:1.0 12959:1.0 
8.0 0.0 585:1.0 10181:1.0 10923:1.0 13672:1.0 
3.663561031458125 0.0 581:3.0 3326:1.0 6219:1.0 7884:1.0 8005:2.0 8204:1.0 9472:1.0 11860:1.0 12369:1.0 19645:1.0 
8.0 0.0 7884:1.0 
5.344347943883539 0.0 581:2.0 585:1.0 1941:1.0 5984:1.0 6960:1.0 7031:1.0 7702:1.0 8204:1.0 10536:1.0 10628:1.0 19553:1.0 
4.452772882203118 5.3722508231478345 172:1.0 581:2.0 3766:1.0 4525:1.0 6212:1.0 12942:1.0 15850:1.0 18029:1.0 18265:1.0 
8.0 0.0 585:1.0 848:1.0 2902:1.0 6467:1.0 7409:1.0 14687:1.0 16624:1.0 
6.048467192910335 8.0 580:1.0 726:1.0 2350:1.0 3223:1.0 6001:1.0 8263:1.0 14235:1.0 14931:1.0 17931:2.0 
8.0 8.0 7052:1.0 12519:1.0 16037:1.0 17336:1.0 
1.1717995178940213 0.0 2202:1.0 3116:1.0 3119:1.0 3315:1.0 4212:1.0 6478:1.0 6803:1.0 8005:1.0 8281:1.0 13362:1.0 14251:1.0 19696:1.0 20067:1.0 
2.4146323396033877 0.0 580:1.0 581:1.0 582:1.0 585:1.0 4525:1.0 8005:1.0 8102:1.0 8204:1.0 12415:1.0 16769:1.0 19457:1.0 20377:1.0 
2.7659853692903598 0.0 581:4.0 582:1.0 584:1.0 585:1.0 910:1.0 1795:1.0 2489:1.0 6517:1.0 10659:1.0 10940:1.0 11165:1.0 11286:1.0 11593:1.0 12497:1.0 20097:1.0 
0.5341235916303934 0.0 581:1.0 848:1.0 3093:1.0 3397:1.0 6461:1.0 6467:1.0 6848:1.0 11789:1.0 13128:1.0 15339:1.0 15778:1.0 16094:1.0 17857:1.0 18052:1.0 18282:1.0 19118:1.0 19258:1.0 
8.0 0.0 9613:1.0 10181:1.0 10706:1.0 10923:1.0 13128:1.0 18689:1.0 
6.300846718937391 4.249527834532742 3260:1.0 3265:1.0 4525:1.0 7530:1.0 10192:1.0 12002:1.0 12284:1.0 12853:1.0 14416:1.0 16111:1.0 18146:2.0 
2.689972242621167 1.3630263543076064 1444:1.0 4525:1.0 7033:1.0 7865:1.0 8005:1.0 11397:1.0 12369:1.0 14179:1.0 14940:1.0 15477:1.0 16030:1.0 16769:1.0 18532:1.0 19045:1.0 
8.0 1.9466927828510117 581:1.0 585:1.0 1230:1.0 3459:1.0 3771:1.0 10188:1.0 11518:1.0 12369:2.0 13128:1.0 13826:1.0 13853:1.0 15873:1.0 19631:1.0 19696:1.0 
3.2521617634447515 0.0 5222:1.0 7268:1.0 8260:1.0 19680:1.0 
0.0 2.5156839583220836 581:1.0 584:1.0 2981:1.0 3715:1.0 6945:1.0 8987:1.0 11449:1.0 18031:1.0 19680:1.0 19726:1.0 
4.491344217300725 0.0 581:1.0 864:1.0 963:1.0 1838:1.0 2202:1.0 6404:1.0 8204:1.0 8949:1.0 10162:1.0 10923:1.0 12480:1.0 14732:1.0 15228:1.0 16936:2.0 19006:1.0 19696:1.0 19705:1.0 
6.16165269982477 8.0 766:1.0 10384:1.0 10802:1.0 12002:1.0 
1.01955727381343 4.598345562647997 581:1.0 7188:1.0 8098:1.0 9472:1.0 12443:1.0 12497:1.0 16154:1.0 18933:1.0 
8.0 8.0 582:1.0 585:1.0 12934:1.0 
8.0 0.0 2658:1.0 7033:1.0 14197:1.0 15477:1.0 
4.357436985605733 0.0 581:2.0 582:1.0 584:1.0 585:1.0 1769:1.0 6982:1.0 7884:1.0 9186:1.0 10718:1.0 10940:1.0 12497:2.0 16062:1.0 18146:1.0 19233:1.0 
8.0 8.0 580:1.0 582:1.0 2149:1.0 7882:1.0 8418:1.0 10271:1.0 13241:1.0 14651:1.0 15399:1.0 
3.8119184150280154 0.0 584:1.0 585:1.0 6305:1.0 7884:1.0 13717:1.0 17566:1.0 
0.22183018094878632 0.0 581:2.0 582:1.0 1609:1.0 3713:1.0 4041:1.0 4177:2.0 4219:1.0 6057:1.0 10324:1.0 11851:1.0 13180:1.0 19898:3.0 
3.226615508132313 0.0 59:1.0 582:1.0 704:2.0 1224:1.0 3326:1.0 3342:1.0 8204:1.0 11127:1.0 14252:1.0 18219:1.0 18777:1.0 20294:1.0 
0.18489157160894445 0.4612092454000829 581:7.0 2202:1.0 3574:1.0 10718:1.0 12002:1.0 16412:1.0 16420:1.0 17454:1.0 20067:1.0 20377:1.0 20393:2.0 
8.0 0.0 585:1.0 731:1.0 2272:1.0 2988:1.0 10718:1.0 12497:1.0 
3.535475337978871 0.0 581:1.0 583:1.0 1092:1.0 1369:1.0 1609:1.0 3168:1.0 10181:1.0 10706:1.0 13128:1.0 16659:1.0 
0.024629893079161563 3.2284532265177446 580:1.0 2547:1.0 4475:1.0 5222:1.0 7305:1.0 7813:1.0 8402:1.0 12179:1.0 12451:1.0 17336:1.0 18219:2.0 19600:1.0 
8.0 0.0 585:1.0 5028:1.0 18282:1.0 20423:1.0 
2.6583805986472924 5.97861328824564 580:1.0 584:1.0 726:1.0 7572:1.0 7685:1.0 8004:1.0 10515:1.0 11050:1.0 12072:1.0 14587:1.0 14671:1.0 
4.172368063990783 8.0 582:1.0 2202:1.0 5994:1.0 10151:1.0 11367:2.0 11591:1.0 
0.0 1.2377699753147124 580:1.0 581:1.0 2072:1.0 7294:1.0 8937:1.0 8987:1.0 11449:1.0 12284:1.0 
0.0 2.5107482823609244 580:1.0 581:5.0 2090:1.0 6467:1.0 6606:1.0 7200:1.0 11851:1.0 16346:1.0 18219:1.0 
0.5304711577587524 0.0 581:6.0 2064:1.0 4296:1.0 13717:1.0 14121:1.0 17561:1.0 
8.0 2.8881413144372985 585:1.0 10718:1.0 12497:1.0 14133:1.0 14193:1.0 20383:1.0 
0.0 1.3656025615986183 7702:1.0 10718:1.0 17698:1.0 
8.0 8.0 581:1.0 585:1.0 1769:1.0 11794:1.0 19638:1.0 
2.8111937512195877 0.0 2202:1.0 4778:1.0 5524:1.0 6441:1.0 9237:1.0 12369:1.0 12519:2.0 14416:1.0 15789:1.0 17516:1.0 17993:1.0 19670:1.0 
5.466037086473269 0.0 581:1.0 2241:1.0 3459:1.0 4977:1.0 7884:1.0 11518:1.0 16765:1.0 20039:1.0 
0.022656992141193 0.0 581:1.0 584:1.0 585:1.0 2313:1.0 3025:1.0 3060:1.0 6254:1.0 11091:1.0 12269:1.0 17652:1.0 20097:1.0 
6.08386388066844 8.0 581:2.0 7402:1.0 8367:1.0 11794:1.0 13128:1.0 14671:2.0 18282:1.0 
0.0 5.35989635553372 582:1.0 5322:1.0 10659:1.0 10718:1.0 18054:1.0 
0.0 8.0 1752:1.0 17454:1.0 20288:1.0 
8.0 6.175776016081844 2563:1.0 3518:1.0 11050:1.0 15437:1.0 17336:1.0 17981:1.0 
0.26406992296193715 0.2829849394062071 580:1.0 581:2.0 582:1.0 4525:1.0 7425:1.0 11851:1.0 11860:1.0 12959:1.0 15652:1.0 18139:1.0 18689:1.0 19457:1.0 19647:1.0 
5.3564703541634575 1.7008436005832928 583:1.0 585:1.0 10718:1.0 10831:1.0 16161:1.0 18730:1.0 18948:1.0 19236:1.0 20072:1.0 
5.340805486710239 0.0 585:1.0 1179:1.0 2313:1.0 4368:1.0 10458:1.0 16261:1.0 19258:1.0 20404:1.0 
0.36346704070929103 0.0 581:2.0 3179:1.0 4093:1.0 7249:1.0 7702:1.0 7884:1.0 12369:1.0 12497:2.0 13806:1.0 15427:1.0 17099:1.0 17857:1.0 
0.0 8.0 581:1.0 850:1.0 6904:1.0 17838:1.0 20048:1.0 20283:1.0 
4.997155465104134 0.0 584:1.0 1752:1.0 6478:1.0 17304:1.0 
6.130098915642702 0.0 581:2.0 582:1.0 585:1.0 6057:1.0 6533:1.0 8418:1.0 12369:1.0 12497:1.0 16062:1.0 20061:1.0 
8.0 0.3689130977062915 1230:1.0 1284:1.0 1326:1.0 6057:1.0 11518:1.0 11851:1.0 12519:1.0 16624:1.0 19451:1.0 
1.525242425206079 1.2408464105417405 581:3.0 1059:1.0 1769:1.0 5982:1.0 7268:2.0 7359:1.0 8307:1.0 8420:1.0 8458:1.0 10628:1.0 11061:1.0 12451:1.0 13128:1.0 15579:1.0 16152:1.0 16602:1.0 17091:1.0 17748:2.0 17874:1.0 17947:1.0 19600:1.0 19955:1.0 20097:1.0 
0.0 2.5429366432088765 3922:1.0 4369:1.0 4525:1.0 4997:1.0 7381:1.0 10439:1.0 10718:1.0 11860:1.0 13637:1.0 14213:1.0 17311:1.0 17893:1.0 
0.0 0.14899758282890632 1680:1.0 2072:1.0 4112:1.0 4525:1.0 4571:1.0 10816:1.0 11367:1.0 12562:1.0 12858:1.0 16857:1.0 19524:1.0 
0.5496119132851545 0.0 584:2.0 2599:1.0 3899:1.0 6362:1.0 7408:1.0 7813:1.0 8468:1.0 10383:1.0 12443:1.0 16197:1.0 19041:1.0 19712:1.0 20174:1.0 
3.360839500153921 0.0 8070:1.0 9832:1.0 10718:1.0 12497:1.0 
5.614975211647359 1.7163986316299875 585:1.0 3036:1.0 8674:1.0 12443:1.0 16735:1.0 
1.0889753955972192 2.398048314654627 3349:1.0 4441:1.0 5557:1.0 7574:1.0 10718:1.0 11575:1.0 11608:1.0 13071:1.0 14358:1.0 
8.0 0.0 581:1.0 584:1.0 585:1.0 3459:1.0 4126:1.0 6234:1.0 6749:1.0 13128:1.0 13252:1.0 19233:1.0 
0.0 3.2404887801686315 581:4.0 4441:1.0 6853:1.0 10264:1.0 13806:1.0 19511:1.0 19553:1.0 
5.997271741581607 8.0 8044:1.0 10356:1.0 
1.1382710960868268 0.0 582:1.0 584:1.0 585:1.0 10718:1.0 13680:1.0 
0.0 2.780466544436131 580:1.0 581:2.0 719:1.0 846:1.0 3294:1.0 3413:1.0 6945:2.0 7964:1.0 9819:1.0 10181:1.0 12002:1.0 13128:1.0 14017:1.0 20135:1.0 
5.694464405480153 0.0 582:3.0 585:1.0 7254:1.0 8970:1.0 10026:1.0 11428:1.0 11518:2.0 11819:1.0 12858:1.0 14197:1.0 14210:1.0 19317:1.0 
0.0 1.8707917266588927 2737:1.0 5796:1.0 12369:1.0 12443:1.0 13160:1.0 14213:1.0 17561:1.0 19604:1.0 
8.0 7.6656770475921485 218:1.0 581:1.0 2268:1.0 9622:1.0 
1.6030624850798916 0.0 3768:1.0 4120:1.0 5028:1.0 6493:1.0 8230:1.0 8987:1.0 11449:1.0 11602:1.0 13366:3.0 15778:1.0 16115:1.0 18282:1.0 19477:1.0 19603:1.0 
2.3349536778400086 1.7996474923802126 581:5.0 582:1.0 3243:1.0 3434:1.0 6305:1.0 6473:1.0 6617:1.0 7572:1.0 11035:1.0 11518:1.0 11794:1.0 13594:1.0 14206:1.0 17055:1.0 18293:1.0 19045:1.0 
0.4524804548724407 3.41827731526452 585:1.0 7368:1.0 7813:1.0 10718:1.0 13436:1.0 20404:1.0 
1.1867740870479437 0.10770548200570386 581:3.0 2844:1.0 8484:1.0 9682:1.0 9975:1.0 12900:1.0 14864:1.0 15083:1.0 17390:1.0 17454:1.0 19393:1.0 
0.0 8.0 581:1.0 10718:1.0 19604:1.0 
3.726980414679416 0.0 585:1.0 2072:1.0 4525:1.0 9186:1.0 12305:1.0 
0.521725291528948 0.6208399482539564 581:1.0 582:3.0 585:1.0 6945:1.0 7359:1.0 9932:1.0 10820:1.0 12059:1.0 12480:1.0 13128:1.0 15561:1.0 15705:1.0 16111:1.0 19192:1.0 19511:1.0 
1.6274907805366472 1.962449303658076 581:1.0 1489:1.0 1752:1.0 2202:1.0 2547:1.0 4041:1.0 4733:1.0 5445:1.0 6475:1.0 6853:1.0 7964:1.0 9712:1.0 11025:1.0 13128:1.0 15987:1.0 
4.767290204492059 0.0 581:2.0 582:1.0 585:1.0 3063:1.0 3342:1.0 4020:1.0 6002:1.0 6654:1.0 8204:1.0 9083:1.0 9584:1.0 11125:1.0 11134:1.0 17893:1.0 
8.0 4.946942817413771 2658:1.0 3419:1.0 5374:1.0 6250:1.0 13663:1.0 15477:1.0 18219:1.0 
3.940013651840721 3.4931407824483722 4995:1.0 5000:1.0 10993:1.0 12715:1.0 14671:1.0 15065:1.0 15427:1.0 16624:1.0 16972:1.0 17993:1.0 18293:1.0 19162:1.0 19258:1.0 19805:1.0 
8.0 0.0 7884:1.0 
8.0 1.9890644290016193 585:1.0 3904:1.0 9407:1.0 12497:1.0 13069:1.0 14197:1.0 16154:1.0 
0.41730274913239773 0.0 839:1.0 1060:1.0 4884:1.0 5583:1.0 5818:1.0 7037:1.0 10425:1.0 10718:2.0 14671:1.0 15778:1.0 16709:1.0 19045:1.0 19056:1.0 
2.3415542535139404 1.2391659488323536 540:1.0 673:1.0 1073:1.0 7681:1.0 10369:1.0 14339:1.0 15426:1.0 15651:1.0 15840:1.0 
0.13968249674713892 0.0 581:5.0 2202:1.0 4922:1.0 12369:1.0 12480:1.0 12504:1.0 13108:1.0 14864:2.0 17101:1.0 18607:1.0 20332:1.0 
1.1927271051547403 2.1669051467098885 581:7.0 584:2.0 3168:1.0 4168:1.0 4475:1.0 5365:1.0 5387:1.0 7516:1.0 12759:1.0 14502:1.0 17828:1.0 20377:1.0 
6.279163413133315 0.0 2090:1.0 2202:1.0 4525:1.0 4620:1.0 5766:1.0 18146:1.0 19106:1.0 
4.731056699980979 0.0 581:3.0 582:1.0 4329:1.0 7884:1.0 8133:1.0 8299:1.0 9186:1.0 11518:1.0 12858:1.0 15880:1.0 17680:1.0 
2.722828150821824 0.0 12480:1.0 13342:1.0 14251:1.0 14467:1.0 20004:1.0 
0.0 8.0 2091:1.0 6362:1.0 7572:1.0 
3.685339224652658 0.38322672819537223 585:1.0 2580:1.0 6092:1.0 8038:1.0 8822:1.0 12856:2.0 13184:1.0 13187:1.0 17857:1.0 
8.0 8.0 2350:1.0 7409:1.0 10972:1.0 18146:1.0 
2.589059593222446 4.445583909777928 581:18.0 1609:1.0 10894:1.0 12284:1.0 20331:1.0 
3.9863089528188387 0.0 581:1.0 2122:1.0 6517:1.0 7048:1.0 8281:1.0 17835:1.0 20004:1.0 
6.403095806257535 0.0 581:1.0 584:2.0 2959:1.0 7685:1.0 12443:1.0 13717:1.0 
1.0773887969727503 8.0 580:1.0 6935:1.0 7813:1.0 8025:1.0 9705:1.0 10649:1.0 12959:1.0 20393:1.0 
3.335174477926875 0.0 581:1.0 582:1.0 2228:1.0 6803:1.0 8976:1.0 10993:1.0 12002:1.0 12497:1.0 13128:1.0 13806:1.0 17561:1.0 
5.989882924300043 0.050213387475193 1290:1.0 2547:1.0 6085:1.0 7409:1.0 8963:1.0 12369:1.0 12684:1.0 12959:2.0 12985:1.0 14860:1.0 15065:1.0 15778:1.0 16624:1.0 16634:1.0 19162:1.0 
8.0 8.0 581:1.0 4296:1.0 5252:1.0 13663:1.0 15477:1.0 15708:1.0 19907:1.0 
2.967023821070599 1.409123110797955 359:1.0 581:2.0 584:1.0 7048:1.0 7899:1.0 10181:1.0 10706:1.0 10733:1.0 11130:1.0 11471:1.0 12519:1.0 12920:2.0 13128:1.0 15652:2.0 20097:1.0 
0.0 0.680290760854822 581:3.0 584:1.0 1072:1.0 2283:1.0 2933:1.0 6362:1.0 6656:1.0 7409:1.0 11860:1.0 13703:1.0 14687:1.0 18219:1.0 
0.0 0.13187330434615407 581:2.0 2313:1.0 3605:3.0 4368:1.0 4525:2.0 5796:1.0 5971:1.0 6475:1.0 7572:1.0 11441:1.0 12684:1.0 16076:1.0 19294:1.0 
1.3456018234596718 0.2462583631988896 581:2.0 585:1.0 2545:1.0 6960:1.0 12055:1.0 13564:1.0 14430:1.0 15021:1.0 
0.49030623706384946 5.495072536157765 1372:1.0 2014:1.0 2228:1.0 7359:1.0 7368:1.0 8402:1.0 11602:1.0 11624:1.0 13537:1.0 16379:1.0 17857:1.0 18076:1.0 
0.0 1.0034713089694627 583:1.0 1795:1.0 2183:1.0 4041:1.0 4525:1.0 5987:1.0 6281:1.0 9468:1.0 10718:1.0 11563:1.0 12497:1.0 13999:1.0 15470:1.0 
2.8042893359447865 2.5454262806126176 6613:1.0 8133:1.0 10718:1.0 11492:1.0 13280:1.0 18442:1.0 
1.20135435641508 1.9412364927671086 580:1.0 1284:1.0 3909:1.0 6252:1.0 7409:1.0 11518:1.0 12922:1.0 13829:1.0 14819:2.0 14851:1.0 17857:1.0 19907:1.0 
0.0 0.3790505465238074 581:1.0 2802:1.0 4126:1.0 17101:1.0 
6.7787797256447355 8.0 580:1.0 1795:1.0 6446:1.0 7572:1.0 7996:1.0 8204:1.0 13802:1.0 17947:1.0 18146:1.0 20377:1.0 
8.0 2.5537515118233753 585:1.0 1680:1.0 2748:1.0 12072:1.0 17561:1.0 19258:1.0 19325:1.0 
8.0 2.87750995490463 1049:1.0 6935:1.0 7685:1.0 10515:1.0 11050:1.0 16230:1.0 19379:1.0 
0.0 0.22932757245400553 581:2.0 7409:1.0 16637:1.0 19562:1.0 
8.0 8.0 4553:1.0 16230:1.0 
6.063326304280228 8.0 580:1.0 582:1.0 7048:1.0 10072:1.0 10356:1.0 20288:1.0 
0.5120421385334166 0.8255552194221694 580:1.0 584:1.0 1345:1.0 1523:1.0 2350:1.0 4475:1.0 7474:1.0 10181:1.0 12284:1.0 12853:1.0 13717:1.0 16072:1.0 16187:2.0 18232:1.0 
4.423897529109859 0.0 581:1.0 582:1.0 2675:1.0 7685:1.0 10718:1.0 14318:1.0 14516:1.0 17576:1.0 
0.8296300468128275 0.0 583:1.0 1169:1.0 1243:1.0 2776:1.0 4525:2.0 7368:2.0 7409:1.0 7884:1.0 14033:1.0 14068:1.0 14219:1.0 14546:1.0 16111:1.0 16161:1.0 18219:1.0 
8.0 0.0 581:1.0 6305:1.0 8005:1.0 8204:1.0 10049:1.0 16769:1.0 18146:1.0 
3.237067505806138 0.0 581:3.0 585:1.0 4133:1.0 7033:1.0 12369:1.0 15477:1.0 19192:1.0 19194:1.0 19941:1.0 
4.869014168182563 5.632869119807044 582:2.0 585:1.0 2880:1.0 3116:1.0 6362:2.0 10264:1.0 10524:1.0 11583:1.0 15763:1.0 18288:1.0 20294:1.0 20388:1.0 
5.658181772416429 8.0 581:1.0 4525:1.0 4553:1.0 7409:1.0 7685:1.0 19359:1.0 
4.8424800606377385 1.9174459645514754 839:1.0 2072:1.0 3071:1.0 3154:1.0 3677:1.0 5484:1.0 8032:1.0 8048:1.0 10068:1.0 10643:2.0 13178:1.0 17317:1.0 18370:1.0 19451:1.0 19693:1.0 
5.924426018184099 1.5301623059560934 583:1.0 4045:1.0 7359:1.0 10718:1.0 12900:1.0 20377:1.0 
2.9449073495199842 2.510770377697304 580:1.0 581:1.0 3168:1.0 3781:1.0 4137:1.0 4184:1.0 5365:1.0 5807:1.0 5818:1.0 7409:1.0 7685:1.0 7850:2.0 8307:1.0 10017:1.0 10718:1.0 12959:1.0 16062:1.0 
1.7672265433029501 4.820961428902514 3139:1.0 3909:1.0 6587:1.0 12497:1.0 18139:1.0 19131:1.0 19457:1.0 20512:1.0 
0.0 1.7975892875831532 581:3.0 4525:1.0 5577:1.0 11530:1.0 11851:1.0 14277:1.0 16111:1.0 16637:1.0 18730:1.0 18983:1.0 
0.0 1.6092812459702996 1255:1.0 2228:1.0 2349:1.0 3861:1.0 6362:1.0 8549:1.0 14284:1.0 16970:1.0 16972:1.0 19457:1.0 19945:1.0 
3.066432399151007 0.0 359:1.0 581:2.0 4020:1.0 7048:1.0 9021:1.0 10458:1.0 12519:1.0 13362:1.0 14110:1.0 18053:1.0 20483:1.0 
6.1333623963296136 8.0 6904:1.0 6958:1.0 8204:1.0 8205:1.0 10718:1.0 13557:1.0 
0.0 3.5835246305381285 581:2.0 585:1.0 6057:1.0 11653:1.0 12369:1.0 12684:1.0 14433:1.0 17078:1.0 19680:1.0 
4.06848787650879 1.6735309361985793 585:1.0 1685:1.0 3176:1.0 3341:1.0 5249:1.0 7311:1.0 8484:1.0 10408:1.0 12304:1.0 12415:1.0 13123:1.0 13128:1.0 14701:1.0 16106:1.0 
0.6109787472215553 0.6915434055178238 581:11.0 582:1.0 1622:1.0 2968:1.0 4525:1.0 6057:2.0 7359:1.0 10649:1.0 14651:1.0 17336:1.0 
8.0 1.5399136607897057 582:2.0 583:1.0 585:1.0 1506:1.0 10458:1.0 14439:1.0 16624:1.0 18308:1.0 19162:1.0 19258:1.0 19378:1.0 20404:1.0 
8.0 0.0 10307:1.0 10718:1.0 12002:1.0 12497:2.0 16035:1.0 17426:1.0 
0.0 1.483585163834956 581:9.0 1692:1.0 1876:1.0 6362:1.0 6749:1.0 7368:1.0 8140:1.0 10307:1.0 12519:1.0 13128:1.0 16230:1.0 
0.0 4.23673809253847 581:2.0 6040:1.0 11208:1.0 20024:1.0 20037:1.0 
8.0 8.0 4041:1.0 
8.0 8.0 585:1.0 10151:1.0 12480:1.0 15169:1.0 17561:1.0 
6.045774628257498 8.0 580:1.0 581:1.0 585:1.0 1060:1.0 1063:1.0 5796:1.0 12684:1.0 15442:1.0 16972:1.0 19684:1.0 
0.8481900123507152 0.0 4243:1.0 6234:1.0 6250:1.0 7884:1.0 9186:1.0 12369:1.0 14463:1.0 15416:1.0 19056:2.0 20393:1.0 
0.0 0.7127978309421209 4126:1.0 7479:1.0 12497:1.0 12684:1.0 14651:1.0 14671:1.0 15426:1.0 17993:1.0 20048:1.0 
0.0 1.128324609625716 581:1.0 2202:1.0 3874:1.0 5987:1.0 8256:1.0 9242:1.0 9243:1.0 12684:1.0 15750:1.0 
0.5930555334578822 0.9442560743093337 581:1.0 1695:1.0 4525:2.0 7933:1.0 9257:1.0 12959:1.0 13806:1.0 15652:1.0 
0.0 0.5447848279481999 581:9.0 3909:1.0 6488:1.0 10356:1.0 12853:1.0 19047:2.0 
3.0923578611217857 0.0 581:2.0 585:1.0 1448:1.0 2603:1.0 3459:1.0 4478:1.0 4516:1.0 10532:1.0 13128:1.0 19645:1.0 
1.1583733337722706 0.0 117:1.0 359:1.0 581:2.0 582:1.0 1280:1.0 1622:1.0 5383:1.0 6057:1.0 7359:1.0 9932:1.0 12519:1.0 14133:1.0 17336:1.0 
0.0 2.490496555386652 581:7.0 9872:1.0 10718:1.0 
8.0 4.181445480209915 3555:1.0 5562:1.0 
2.114439433052079 0.5474391913204892 1848:1.0 2167:1.0 3184:1.0 5549:1.0 7788:1.0 9354:1.0 10072:1.0 17019:1.0 17450:1.0 17561:1.0 
0.0 1.0654149698152418 581:4.0 1169:1.0 1624:1.0 5171:1.0 6945:1.0 7964:1.0 10699:1.0 11772:1.0 14366:1.0 
0.34495680832105796 4.907399779568017 581:1.0 2338:1.0 7359:1.0 7401:1.0 12882:1.0 13318:1.0 14658:1.0 16037:1.0 16530:1.0 18983:1.0 19647:1.0 20285:1.0 
7.989370296189269 0.0 910:1.0 4126:1.0 10940:1.0 12369:1.0 12497:1.0 12640:1.0 17215:1.0 18052:1.0 18054:1.0 
0.30235205210272925 2.0394201213606307 581:2.0 2120:1.0 2228:1.0 3713:1.0 6002:1.0 7147:1.0 8111:1.0 10532:1.0 12652:1.0 12921:1.0 14651:1.0 15218:1.0 18265:1.0 
2.940092355892143 0.0 5028:1.0 6782:1.0 7884:1.0 19293:1.0 20005:1.0 
0.0 0.35495464413406996 172:1.0 285:1.0 582:2.0 1752:1.0 2228:1.0 4332:1.0 6305:1.0 12863:1.0 17101:1.0 18235:1.0 19457:1.0 20084:1.0 20294:1.0 
0.029757205127768686 1.1451778033388726 580:1.0 582:1.0 3580:1.0 3811:1.0 4525:1.0 9100:1.0 10718:1.0 10993:1.0 13934:1.0 14102:1.0 14311:1.0 15778:1.0 18219:1.0 18308:1.0 19047:1.0 
0.0 5.142946633262315 1439:1.0 2298:1.0 4525:1.0 12443:1.0 17256:1.0 19477:1.0 
2.313083707948983 3.126038648580864 581:3.0 583:2.0 1060:1.0 3909:2.0 4041:1.0 4703:1.0 8307:1.0 9472:1.0 12369:1.0 18457:1.0 20495:1.0 
8.0 8.0 580:1.0 583:1.0 2313:1.0 6517:1.0 8307:1.0 10923:1.0 11518:1.0 14193:1.0 14899:1.0 15746:1.0 18337:1.0 
1.3312968474550702 2.1665218541927955 581:4.0 848:1.0 849:1.0 4299:1.0 14590:1.0 15189:1.0 
8.0 8.0 585:1.0 14155:1.0 18439:1.0 
6.725537019503687 0.0 585:1.0 1685:1.0 2768:1.0 4041:1.0 6643:1.0 6853:1.0 10011:1.0 12591:1.0 14945:1.0 15115:1.0 16624:1.0 
0.0 0.515253267011161 581:1.0 1030:1.0 6002:1.0 6319:1.0 7884:1.0 15637:1.0 18219:1.0 
0.0 3.764168158915403 580:1.0 2284:1.0 2988:1.0 7788:1.0 10420:1.0 10459:1.0 19923:1.0 
3.136685493333307 1.7401183292926659 1848:1.0 1952:1.0 2228:1.0 2543:1.0 5194:1.0 6674:1.0 8402:1.0 8510:1.0 13350:1.0 15111:1.0 17000:1.0 
0.5845571402476933 1.2608926900698627 581:8.0 1072:1.0 1092:1.0 4676:1.0 5887:1.0 7368:1.0 12002:1.0 12942:1.0 13663:1.0 13806:1.0 16624:1.0 16637:1.0 16986:1.0 17390:1.0 19946:1.0 20213:1.0 
7.451058450003626 0.0 755:1.0 7884:1.0 13309:1.0 20339:1.0 
0.0 2.3631496723331886 152:1.0 580:1.0 581:2.0 584:1.0 6517:1.0 10649:1.0 11319:1.0 16637:1.0 17947:1.0 18113:1.0 19457:1.0 
0.3125221861601761 3.0546953440781763 580:1.0 581:1.0 582:1.0 4808:1.0 4892:1.0 5982:1.0 6101:1.0 6362:1.0 7409:1.0 8096:1.0 9036:1.0 11033:1.0 12369:1.0 14121:1.0 15917:1.0 16057:1.0 18130:1.0 18219:1.0 19907:1.0 
4.4447463062740855 3.638819878313004 581:3.0 4525:1.0 5982:1.0 9420:1.0 10023:1.0 10151:1.0 15575:1.0 19162:1.0 
0.0 1.1611115846277444 582:1.0 584:1.0 1576:1.0 2547:1.0 3605:1.0 6145:1.0 6584:1.0 10718:1.0 12497:1.0 15616:1.0 17981:1.0 18382:1.0 20229:1.0 
6.865766685910641 0.0 585:1.0 1692:1.0 3459:1.0 11816:1.0 12519:1.0 13128:1.0 14002:1.0 14129:1.0 14888:1.0 17573:1.0 20067:1.0 
6.127471482692714 0.0 359:1.0 585:1.0 1692:1.0 2906:1.0 3459:1.0 7048:1.0 12519:1.0 12959:1.0 13128:1.0 14121:1.0 
4.426347752030836 3.240895442237991 581:3.0 583:1.0 755:1.0 2912:1.0 3932:1.0 4874:1.0 10356:1.0 15245:1.0 15789:1.0 20377:1.0 
0.07403047576304739 0.0 25:1.0 581:1.0 5788:1.0 6277:1.0 7964:1.0 9613:1.0 10718:1.0 15588:1.0 
3.7005428365503454 0.15699175881591568 581:2.0 582:1.0 584:1.0 585:1.0 3874:1.0 10718:1.0 10940:1.0 12497:1.0 13264:2.0 14965:1.0 17957:1.0 19233:1.0 19258:1.0 19511:1.0 
0.0 8.0 1752:1.0 10718:1.0 
8.0 1.049509402694598 583:1.0 585:1.0 1692:1.0 11165:1.0 11286:1.0 12497:1.0 13810:1.0 14828:1.0 16062:1.0 18515:1.0 
8.0 8.0 585:1.0 1523:1.0 9817:1.0 16035:1.0 
0.0 1.938491967498356 581:5.0 6057:1.0 7366:1.0 18265:1.0 
0.0 2.2404883663150925 3101:1.0 5402:1.0 6945:1.0 7572:1.0 9856:1.0 10151:1.0 12480:1.0 17540:1.0 
8.0 7.553630051915358 3764:1.0 6404:1.0 6853:1.0 17336:1.0 
2.1707425703011807 0.9270897614827691 581:2.0 2202:1.0 5557:1.0 8005:1.0 9186:1.0 13362:1.0 
1.3598809592246517 1.555414203727762 581:5.0 1612:1.0 1769:2.0 3088:1.0 5588:1.0 6049:1.0 6467:1.0 11518:1.0 12284:1.0 12531:1.0 12858:1.0 14041:1.0 14173:1.0 14358:1.0 17561:1.0 19608:1.0 20024:1.0 
4.472261596775568 0.0 1751:1.0 1811:1.0 2164:1.0 2658:1.0 6833:1.0 7685:1.0 10128:1.0 10660:1.0 12369:1.0 19489:2.0 
5.671296632306081 0.3605838699544482 581:1.0 2202:1.0 2210:1.0 5047:1.0 8204:1.0 
2.704156184183493 1.8543564283153657 654:1.0 4802:1.0 7173:1.0 9764:1.0 10299:1.0 10510:2.0 10819:1.0 11367:1.0 12974:1.0 14671:1.0 15742:1.0 
6.985672383204694 2.3934665400486432 582:1.0 584:2.0 5552:1.0 7884:1.0 
1.1491357032474938 1.3489855237625692 2087:1.0 2207:1.0 6000:1.0 8204:1.0 9682:1.0 9846:1.0 10718:1.0 10993:1.0 13346:1.0 16111:1.0 19553:1.0 19787:1.0 
0.7736890139428063 1.4322052333645738 582:1.0 4126:1.0 10940:1.0 11165:1.0 11238:1.0 11286:1.0 12497:1.0 13983:1.0 16062:1.0 16549:1.0 18052:1.0 18288:1.0 19511:1.0 
0.9324796748837567 0.0 581:2.0 584:1.0 1538:1.0 5537:1.0 7284:1.0 7884:1.0 8111:1.0 12458:1.0 17857:2.0 17874:1.0 18219:1.0 
2.3765740084575318 0.0 582:2.0 1317:1.0 1588:1.0 2903:1.0 3747:1.0 3771:1.0 3982:1.0 4525:1.0 7572:2.0 10643:1.0 11518:1.0 15040:1.0 17724:1.0 
8.0 8.0 1795:1.0 6517:1.0 6803:1.0 12497:1.0 12640:1.0 15344:1.0 16489:1.0 
4.9066581310720165 0.0 581:1.0 5524:1.0 7361:1.0 10613:1.0 12369:1.0 12519:1.0 17516:1.0 
5.301061626842313 1.4070794464503085 359:1.0 581:2.0 5914:1.0 12519:1.0 13128:1.0 16634:1.0 18146:1.0 18288:1.0 20279:1.0 
2.2558882376203337 0.0 581:1.0 585:1.0 2499:1.0 4728:1.0 6072:1.0 7572:1.0 8133:1.0 10151:1.0 10659:1.0 12072:1.0 13672:1.0 14160:1.0 16094:1.0 19056:1.0 
3.5001070300308275 3.762854199136425 580:1.0 581:2.0 582:2.0 584:1.0 2647:1.0 11591:1.0 11851:1.0 18146:1.0 19056:1.0 19387:1.0 19457:1.0 
0.8008442985758994 3.710165581207066 581:2.0 768:1.0 4485:1.0 7479:1.0 7866:1.0 19955:1.0 
0.0 6.811538279051106 580:1.0 582:1.0 4517:1.0 8204:1.0 8404:1.0 8420:1.0 18219:1.0 19457:1.0 19638:1.0 19923:1.0 
0.0 0.4694143080855766 581:10.0 3364:1.0 4904:1.0 5778:1.0 8133:1.0 9011:1.0 10356:1.0 15058:1.0 
1.3149059892406558 2.0986753498248976 6362:1.0 10181:1.0 10408:1.0 10993:1.0 16189:1.0 16412:1.0 
1.9627392919302402 2.652474639992907 3347:1.0 4222:1.0 4553:1.0 6517:1.0 7268:1.0 8181:1.0 10718:1.0 18021:1.0 18146:1.0 18649:1.0 20135:1.0 
0.0 8.0 6960:1.0 7368:1.0 7769:1.0 8987:1.0 11449:1.0 15060:1.0 16037:1.0 19192:1.0 19435:1.0 
1.761691021000361 0.7739746855976385 378:1.0 582:1.0 2338:1.0 4600:1.0 7884:1.0 10532:1.0 15466:1.0 16261:1.0 
8.0 5.382757925032041 4020:1.0 6715:1.0 7964:1.0 8609:1.0 11518:1.0 19898:1.0 
0.0 0.5290342759226543 1169:1.0 1752:1.0 2888:1.0 3394:1.0 3831:1.0 4778:1.0 6270:1.0 7368:1.0 7685:1.0 8402:1.0 10425:1.0 10718:1.0 14121:1.0 14130:1.0 17634:1.0 17635:1.0 
0.0 3.2980610990008903 103:1.0 581:1.0 1265:1.0 2338:1.0 7884:2.0 10778:1.0 15486:1.0 19192:1.0 19511:1.0 19946:1.0 
1.296226928764723 2.2410617546005014 581:1.0 5982:1.0 7884:1.0 10175:1.0 11851:1.0 17712:6.0 
0.0 8.0 580:1.0 581:2.0 848:1.0 16111:1.0 19457:1.0 19645:1.0 
4.889524522612258 3.204408068233889 1979:1.0 2782:1.0 7577:1.0 8012:1.0 9186:2.0 10425:1.0 12339:1.0 13727:1.0 15477:1.0 
0.1739916835727179 0.0 581:2.0 583:1.0 621:1.0 1092:1.0 1523:1.0 3071:1.0 6234:1.0 8205:1.0 9374:2.0 10181:1.0 12853:1.0 16715:1.0 19457:1.0 
1.19644350125063 0.0 581:1.0 584:1.0 585:1.0 1092:1.0 3885:1.0 8790:1.0 9863:1.0 11518:1.0 13366:1.0 13594:1.0 19192:1.0 20191:1.0 
5.558238801760848 0.0 3781:1.0 12443:1.0 12519:1.0 12959:1.0 14023:1.0 14732:1.0 14992:1.0 18288:1.0 
0.40401569149236927 1.5430500019405833 581:1.0 2589:1.0 3071:1.0 7572:1.0 7884:1.0 8286:1.0 8367:1.0 12284:1.0 13617:1.0 13853:1.0 14912:1.0 16634:1.0 17561:1.0 
0.18812022705116255 0.0 581:4.0 1562:1.0 1875:1.0 3055:1.0 3574:1.0 4303:1.0 4441:1.0 4899:1.0 13082:1.0 14300:1.0 17138:1.0 17634:1.0 19124:1.0 19774:1.0 20423:1.0 20426:1.0 
0.6361360036616376 0.0 1010:1.0 9543:1.0 13537:1.0 17857:1.0 18154:1.0 
6.353917285419379 3.3673017633024953 4126:1.0 4553:1.0 7033:1.0 9186:1.0 13703:1.0 14121:1.0 15477:1.0 
0.0 2.654437343074225 2930:1.0 4525:1.0 6252:1.0 7409:2.0 7964:1.0 8333:1.0 10162:1.0 11552:1.0 11653:1.0 11860:1.0 15778:1.0 
8.0 1.1213774604519393 585:1.0 3071:1.0 3343:1.0 3878:1.0 4080:1.0 7572:1.0 8111:1.0 12369:1.0 12856:1.0 14095:1.0 16624:1.0 17187:1.0 20294:1.0 
2.2760253969362805 0.0 581:1.0 584:1.0 585:1.0 2535:1.0 6164:1.0 6362:1.0 6803:1.0 7650:1.0 11134:1.0 11625:1.0 12726:1.0 13252:1.0 19539:1.0 19553:1.0 20520:1.0 
1.37851668895281 0.14423465490566986 585:1.0 976:1.0 3672:1.0 4724:1.0 8610:1.0 9083:1.0 9472:1.0 12443:1.0 12629:1.0 15100:1.0 16928:1.0 17009:1.0 18219:1.0 19955:1.0 
0.0 1.1670164986326972 581:1.0 12684:1.0 14251:1.0 15065:1.0 15689:1.0 
2.2031638297494083 6.103391380080002 581:1.0 8970:1.0 12640:1.0 13160:1.0 14121:1.0 17189:1.0 17318:1.0 19434:1.0 
0.0 8.0 6362:1.0 7884:1.0 12684:1.0 19923:1.0 
1.0221372519515193 4.480612779013909 580:1.0 581:1.0 584:1.0 1284:1.0 1710:1.0 2338:1.0 4525:1.0 7359:1.0 8078:1.0 13366:1.0 17261:1.0 17390:1.0 18055:1.0 
1.5922359312472654 0.0 2207:1.0 2338:1.0 7884:1.0 8732:1.0 15376:1.0 
8.0 6.112690119693184 1609:1.0 4525:1.0 5340:1.0 10923:1.0 14598:1.0 15579:1.0 
0.30882811641667784 0.0 1692:1.0 2786:1.0 11335:1.0 12369:1.0 13523:1.0 15652:1.0 15968:1.0 
1.8076616107742158 2.579577101354555 582:2.0 5207:1.0 7435:2.0 7832:1.0 11851:1.0 12959:1.0 13110:1.0 13736:1.0 14687:1.0 16076:1.0 
4.749263045305155 0.0 581:2.0 585:1.0 755:1.0 1349:1.0 3109:1.0 6684:1.0 7131:1.0 16035:1.0 16825:1.0 17857:1.0 19696:1.0 20294:1.0 
4.038645087499969 0.0 581:1.0 583:1.0 781:1.0 1864:1.0 5041:1.0 5133:1.0 7884:1.0 8367:1.0 11485:1.0 12684:1.0 13241:1.0 14283:1.0 15778:1.0 18396:1.0 19661:1.0 19726:1.0 
1.3850236911400227 0.0 581:6.0 10718:3.0 19056:1.0 
0.0 0.6765792095674624 6057:1.0 18282:1.0 19342:1.0 
3.178443615610118 4.632732184619487 581:1.0 583:1.0 5437:2.0 7103:1.0 12253:1.0 19588:1.0 
2.3019120163734077 1.2706900199563766 205:1.0 581:1.0 6939:1.0 8005:1.0 8137:1.0 8204:1.0 14625:2.0 16825:1.0 17857:1.0 18076:1.0 
0.0 1.9522087713444463 581:2.0 2667:1.0 4564:1.0 6366:1.0 6945:1.0 8354:1.0 10151:1.0 12480:1.0 18039:1.0 19365:1.0 
8.0 0.0 584:1.0 585:1.0 2202:1.0 2313:1.0 5984:1.0 14068:1.0 14071:1.0 19233:1.0 19258:1.0 
0.0 8.0 581:1.0 4198:1.0 4525:1.0 7884:1.0 7885:1.0 10151:1.0 11021:1.0 20048:1.0 
1.4192821896318117 4.9186715923309885 581:1.0 2607:1.0 5222:1.0 5686:1.0 7702:1.0 8004:1.0 8208:1.0 11750:1.0 12813:1.0 16624:1.0 17182:1.0 19680:1.0 
1.759996933150233 0.0 581:3.0 1409:1.0 1609:1.0 3387:1.0 4112:1.0 5378:1.0 6128:1.0 8307:1.0 10181:1.0 10706:1.0 12369:1.0 13128:1.0 15057:1.0 15676:1.0 18282:1.0 
8.0 0.0 7409:1.0 7685:1.0 10659:1.0 11201:1.0 14058:1.0 19923:1.0 
2.0478681249964343 2.1360138070434074 581:4.0 5227:1.0 6446:1.0 6922:1.0 7268:1.0 7368:1.0 14060:1.0 14318:1.0 18282:1.0 19045:2.0 
1.3371627104560062 6.743743282677372 1769:1.0 10425:1.0 11604:1.0 19451:1.0 
0.9697350510054534 0.0 581:4.0 582:2.0 585:1.0 2064:1.0 5246:1.0 17874:1.0 
0.0 1.2438061554154387 581:1.0 1599:1.0 2202:1.0 4778:1.0 12678:1.0 12959:1.0 13999:1.0 14463:1.0 14647:1.0 14720:1.0 15214:1.0 15339:1.0 
0.0 0.31632093326308763 581:3.0 1573:1.0 4525:1.0 6002:1.0 7572:1.0 7964:1.0 8133:1.0 8367:1.0 8402:1.0 9186:1.0 9472:1.0 10162:1.0 11518:1.0 12369:1.0 13043:1.0 14002:1.0 18219:2.0 
0.0 1.2307579624404246 581:3.0 1494:1.0 1633:1.0 4525:1.0 6904:1.0 8204:1.0 8404:1.0 11789:1.0 16936:1.0 17857:1.0 18730:1.0 20288:1.0 
1.8918229570416314 2.0261066778222134 581:3.0 851:1.0 3139:1.0 4202:1.0 4525:1.0 5290:1.0 6284:1.0 6384:1.0 8281:1.0 10524:1.0 11983:1.0 12684:1.0 17055:1.0 18139:1.0 18310:1.0 18450:1.0 19258:1.0 19457:1.0 
1.634363635608519 2.488449124828006 581:17.0 5460:1.0 5462:1.0 6461:1.0 6467:1.0 10718:1.0 11145:1.0 17339:1.0 20153:1.0 
0.6162838670955465 0.0 581:2.0 2202:1.0 3781:1.0 4534:1.0 6159:1.0 8204:1.0 9819:1.0 10151:1.0 12480:1.0 14928:1.0 14975:1.0 15789:1.0 18282:1.0 18587:1.0 
0.0 7.946193844055095 580:1.0 584:1.0 848:1.0 3909:1.0 6922:1.0 7572:1.0 13128:1.0 14998:1.0 19457:1.0 
0.0 1.0480051105877655 581:1.0 1092:1.0 6404:1.0 7561:1.0 10151:1.0 11455:1.0 13178:1.0 13537:1.0 19645:1.0 
1.2638891228818254 7.1919151432057715 581:3.0 1523:1.0 2064:1.0 4105:1.0 6931:1.0 8402:1.0 13178:1.0 17561:1.0 19511:1.0 
1.5311672838070847 0.0 671:1.0 7268:1.0 7884:1.0 7886:1.0 10369:1.0 18777:1.0 20067:1.0 
0.9819613339583955 8.0 2789:1.0 3843:1.0 4525:1.0 7359:1.0 12652:1.0 17537:1.0 
1.0972547883149866 0.10290114333218212 581:8.0 584:2.0 7685:1.0 8096:1.0 10672:2.0 11033:1.0 17961:1.0 19056:1.0 20288:1.0 
3.7981793927264156 7.180277260977155 580:1.0 581:1.0 848:1.0 1345:1.0 6681:1.0 7756:1.0 12497:1.0 17019:1.0 18396:1.0 18528:1.0 
8.0 5.497341579868297 580:1.0 585:1.0 4080:1.0 6875:1.0 7685:1.0 8133:1.0 9932:2.0 10580:1.0 11050:1.0 16238:1.0 16615:1.0 16618:1.0 16972:1.0 17055:1.0 19726:1.0 19805:1.0 
4.028498435918103 2.216328605151623 581:1.0 582:1.0 1594:1.0 4911:1.0 9186:1.0 10993:1.0 19451:1.0 20294:1.0 
5.557400974803921 0.0 755:1.0 3932:2.0 6517:1.0 10738:1.0 12369:1.0 13080:1.0 15789:1.0 
1.1506851730894878 1.582888786341132 6741:1.0 10659:1.0 11490:1.0 11957:1.0 12369:1.0 13640:1.0 15567:1.0 17187:1.0 18765:1.0 20048:1.0 
2.0007465235917845 0.0 581:3.0 3899:1.0 6057:1.0 6848:1.0 9186:1.0 13065:1.0 16624:1.0 19162:1.0 
2.1356172976390377 1.001988589140931 2087:1.0 4911:1.0 7164:1.0 13928:1.0 14121:1.0 14318:1.0 15818:1.0 
4.058319836728613 5.468757664117074 582:1.0 5252:1.0 5383:1.0 9992:1.0 10151:1.0 10993:1.0 12093:1.0 12480:1.0 13663:2.0 15477:1.0 16426:1.0 17062:1.0 18009:1.0 18084:1.0 18146:1.0 
1.6865984836675074 0.0 581:3.0 4093:1.0 4637:2.0 7409:1.0 10659:1.0 11705:2.0 12497:1.0 14197:1.0 15427:1.0 18933:1.0 20022:1.0 
0.0 0.35593982867603197 3280:1.0 5028:1.0 7409:1.0 16979:1.0 
0.0 0.14193802456987828 581:3.0 1769:2.0 3139:1.0 6002:1.0 10248:1.0 12863:1.0 14447:1.0 15778:1.0 18146:1.0 18282:1.0 19457:1.0 19670:1.0 
2.6629901743694036 2.6614995121665985 580:2.0 581:1.0 1378:1.0 1523:1.0 1914:1.0 7685:2.0 8534:1.0 10181:2.0 10706:1.0 10993:1.0 12853:1.0 13128:1.0 16275:1.0 16618:1.0 16979:1.0 17336:1.0 20048:1.0 
4.075380427843882 4.958656268906347 3168:1.0 7884:1.0 9311:1.0 
0.0 4.36639605982211 582:1.0 584:1.0 3139:1.0 4525:1.0 4553:1.0 6305:1.0 9454:1.0 9932:1.0 10181:1.0 10481:1.0 10706:1.0 11927:1.0 13128:1.0 15778:1.0 17055:1.0 18139:1.0 19457:1.0 
3.6212005380075243 3.0806066542887525 581:1.0 582:1.0 2690:1.0 11705:1.0 11889:1.0 12480:1.0 
0.0 0.9664147559024683 1848:1.0 3501:1.0 17298:1.0 18282:1.0 20245:1.0 
3.800121427279272 6.319732444025907 580:1.0 582:1.0 2382:1.0 6134:1.0 8212:1.0 9249:1.0 11772:1.0 13717:1.0 14788:1.0 14906:1.0 16442:1.0 17205:1.0 17566:1.0 18282:1.0 20294:1.0 
2.225609100004376 0.8683902194750835 581:2.0 584:2.0 585:1.0 1096:1.0 4080:1.0 4564:1.0 7409:1.0 8004:3.0 10659:1.0 13362:1.0 14671:1.0 16230:1.0 
3.3851086789204534 0.0 755:1.0 2658:1.0 9272:1.0 10718:1.0 11772:2.0 12369:1.0 
2.882111035355228 8.0 580:1.0 3513:1.0 14804:1.0 17253:1.0 18478:1.0 
1.293232755179999 1.3541044368093698 580:1.0 581:2.0 582:3.0 585:1.0 2064:1.0 5315:1.0 7392:1.0 8228:1.0 15275:1.0 15754:1.0 17102:2.0 17173:1.0 18052:1.0 18219:1.0 19256:1.0 19378:1.0 20294:1.0 
0.0 0.0035353947115980395 582:1.0 1734:1.0 2107:1.0 2373:1.0 4883:1.0 6488:1.0 7964:1.0 9011:1.0 11166:1.0 11203:1.0 11518:1.0 13802:1.0 15595:1.0 15879:1.0 19457:1.0 19680:1.0 20048:1.0 
0.0 8.0 581:1.0 6057:1.0 7899:1.0 20048:1.0 
0.3754424109651192 4.723075804079996 581:1.0 848:1.0 15065:1.0 17994:1.0 18684:1.0 20232:1.0 
0.0 1.801926610261104 581:1.0 582:1.0 4525:1.0 5194:1.0 6467:1.0 6517:1.0 9353:1.0 10736:1.0 15778:1.0 18146:1.0 
0.4622573743277637 0.0 581:2.0 8195:1.0 9186:1.0 12835:1.0 12959:1.0 19553:1.0 
2.375308584958728 8.0 580:1.0 581:1.0 1973:1.0 5194:2.0 8420:1.0 11851:1.0 17068:1.0 
0.5744025133685464 0.0 581:1.0 755:1.0 1060:1.0 3874:1.0 6057:1.0 11274:1.0 12369:1.0 13482:1.0 16489:1.0 17016:1.0 18265:1.0 
2.066882938312621 3.459117970343649 583:1.0 824:1.0 5537:1.0 8418:1.0 10271:1.0 11789:1.0 14416:1.0 15792:1.0 16769:1.0 18146:2.0 18618:1.0 20048:1.0 20378:1.0 
0.0 8.0 10718:1.0 16982:1.0 
8.0 0.0 585:1.0 3932:1.0 6305:1.0 7884:1.0 10275:1.0 12369:1.0 12497:1.0 12959:1.0 
1.0969750722953386 0.0 581:1.0 3909:1.0 4908:1.0 5984:2.0 6404:1.0 7572:1.0 7884:1.0 11851:1.0 14002:1.0 15751:1.0 16634:1.0 18219:1.0 18276:1.0 19000:1.0 20048:1.0 
5.019559210549146 0.7067864651572573 3459:1.0 4470:1.0 5982:1.0 7572:1.0 7575:1.0 11518:1.0 12369:1.0 13377:1.0 14193:1.0 14337:1.0 14415:1.0 
0.0 8.0 581:1.0 1680:1.0 8005:1.0 12443:1.0 18219:1.0 19647:1.0 19943:1.0 20048:1.0 
4.233301530527251 0.0 585:1.0 2549:1.0 3904:1.0 7048:1.0 12415:1.0 12497:1.0 14121:1.0 14197:1.0 14828:1.0 15967:1.0 18788:1.0 18928:1.0 19647:1.0 20097:1.0 
0.0 0.6207525915173799 3334:1.0 6741:1.0 7048:1.0 8044:1.0 10659:1.0 17687:1.0 18265:1.0 19553:1.0 
8.0 2.892496046229306 581:2.0 3629:1.0 7409:1.0 11860:1.0 18146:1.0 18689:1.0 
6.577133605922942 6.822994561212818 580:1.0 582:1.0 2241:1.0 3093:1.0 6008:1.0 7685:1.0 7882:1.0 9228:1.0 10628:1.0 10651:1.0 13806:1.0 16348:1.0 16618:1.0 18146:1.0 18291:1.0 18730:1.0 
3.697163453423817 0.0 585:1.0 755:1.0 760:1.0 3622:1.0 6656:1.0 12134:1.0 12443:1.0 13460:1.0 14116:1.0 17444:1.0 17789:1.0 19680:1.0 19923:1.0 
8.0 0.0 2835:1.0 7685:1.0 10592:1.0 10718:1.0 
1.1567331719990972 0.0 581:6.0 585:1.0 7838:1.0 9747:1.0 9918:1.0 12959:1.0 16851:1.0 17680:1.0 17857:1.0 19387:1.0 20030:1.0 20039:1.0 
2.7024350954924086 0.9139583683470738 581:3.0 12497:1.0 13264:1.0 16084:1.0 16609:1.0 16809:1.0 18063:1.0 
