svm_type c_svc
kernel_type rbf
gamma 0.03125
nr_class 3
total_sv 17643
rho 0.9777720870324503 0.042113124743969714 -0.763632988060387
label 3 2 1
nr_sv 6154 5557 5932
SV
7.093265864203772 6.711595110303757 574:1.0 4202:1.0 9001:2.0 12539:1.0 17290:1.0 
8.0 4.247265065454376 574:1.0 718:1.0 1211:1.0 3182:1.0 9001:1.0 9502:1.0 11713:1.0 17175:1.0 
2.0992996534833113 0.0 571:1.0 574:2.0 575:1.0 798:1.0 5375:1.0 7604:1.0 8094:1.0 10590:1.0 11862:1.0 13965:1.0 16072:1.0 17096:1.0 19038:1.0 
8.0 1.7255618662847656 571:1.0 574:2.0 5473:1.0 9001:1.0 10793:1.0 15603:1.0 17276:1.0 
8.0 8.0 574:1.0 8987:1.0 14505:1.0 14524:1.0 17653:1.0 18475:1.0 
8.0 8.0 571:1.0 574:4.0 2318:1.0 4397:1.0 4988:1.0 10405:1.0 11784:1.0 18837:1.0 
4.603363358909557 2.032670016828464 571:1.0 572:1.0 574:2.0 575:1.0 6173:1.0 7021:1.0 7202:1.0 8403:1.0 15657:1.0 16072:2.0 16449:1.0 16930:1.0 17789:1.0 19013:1.0 
0.6957872779140027 0.0 571:1.0 574:1.0 1119:1.0 3716:1.0 5905:1.0 7476:1.0 13442:1.0 14632:1.0 16896:1.0 16904:1.0 17670:1.0 18075:1.0 
1.309825134697652 1.8893571071247355 573:1.0 574:1.0 1306:1.0 1482:1.0 2174:1.0 3897:1.0 4409:1.0 6010:1.0 15699:1.0 
8.0 4.43691079045129 1306:1.0 1323:1.0 3029:1.0 8265:1.0 9363:1.0 10058:1.0 10578:1.0 12979:1.0 
1.010544513441114 0.5359138203745907 571:4.0 574:1.0 1501:1.0 2500:1.0 5437:1.0 6395:1.0 7690:1.0 8070:1.0 9199:1.0 10058:1.0 10501:1.0 10578:1.0 10817:1.0 12706:1.0 12854:1.0 12979:1.0 15255:1.0 16072:1.0 16416:1.0 17085:1.0 17805:1.0 19589:1.0 
0.8002548124473349 3.1738407565404136 571:4.0 574:1.0 1501:1.0 2500:1.0 5437:1.0 6395:1.0 7690:1.0 8070:1.0 10058:1.0 10501:1.0 10578:1.0 10817:1.0 12706:1.0 12854:1.0 12979:1.0 15255:1.0 16072:1.0 16416:1.0 17085:1.0 17805:1.0 19589:1.0 
0.0 0.1858924866420693 571:1.0 574:1.0 713:1.0 1329:1.0 4856:1.0 7483:1.0 8011:1.0 8032:1.0 8265:1.0 13500:1.0 14637:1.0 
0.0293854848644031 0.0 170:1.0 574:1.0 575:1.0 1306:1.0 4626:2.0 6436:1.0 7061:2.0 7476:2.0 8995:2.0 11596:1.0 12709:1.0 14622:1.0 14623:1.0 19864:1.0 
4.682558953656086 4.185044209796683 571:1.0 574:1.0 1119:1.0 1297:1.0 4397:1.0 6478:1.0 7384:1.0 7752:1.0 8238:1.0 9001:1.0 9834:1.0 10138:1.0 10914:1.0 13028:1.0 18269:1.0 18781:1.0 18826:1.0 
5.762787816594416 2.7696326445603447 571:3.0 574:3.0 1218:1.0 7698:1.0 9001:1.0 9720:1.0 12979:1.0 14310:1.0 14664:1.0 19287:1.0 19329:1.0 
4.960229406253131 0.5348813152904729 1306:1.0 2351:1.0 2912:1.0 3305:1.0 3859:1.0 4531:1.0 6719:1.0 7517:1.0 7983:1.0 9001:1.0 14135:1.0 15649:1.0 15980:1.0 
8.0 8.0 574:2.0 6960:1.0 
2.224924733631182 0.29921181729850893 1189:1.0 1306:1.0 2351:1.0 2912:1.0 3305:1.0 6719:1.0 7983:1.0 9001:1.0 14135:1.0 15649:1.0 18988:1.0 
2.977643256294586 3.306034502007554 574:1.0 895:1.0 6395:1.0 10474:1.0 10742:1.0 16224:1.0 16886:1.0 17653:1.0 17785:1.0 19703:1.0 
0.5004586683231654 8.0 574:2.0 1218:1.0 2324:1.0 5414:1.0 6436:1.0 9001:1.0 12811:1.0 16465:1.0 
8.0 0.0 574:2.0 575:1.0 2627:1.0 8995:1.0 13684:1.0 14717:1.0 17478:1.0 
8.0 0.0 1306:1.0 7316:1.0 8995:1.0 
8.0 0.0 572:1.0 574:1.0 575:1.0 1075:1.0 6263:1.0 8980:1.0 12225:1.0 
0.0 0.05404578692821195 27:1.0 571:1.0 574:1.0 1338:1.0 5532:1.0 6263:1.0 6325:1.0 8365:1.0 12811:1.0 14310:1.0 17255:1.0 18012:1.0 18273:1.0 19402:1.0 19466:1.0 
2.831509855551009 1.9411969289098214 574:2.0 1118:1.0 1667:1.0 8802:1.0 9003:1.0 12517:1.0 18695:1.0 19831:1.0 20098:1.0 
8.0 8.0 572:1.0 1306:1.0 8987:1.0 
5.100986511551973 7.972810752743831 570:1.0 573:1.0 574:1.0 892:1.0 2764:1.0 5938:1.0 9001:1.0 14278:1.0 17777:1.0 
1.0069483731044226 0.5327695501310162 571:1.0 1306:1.0 2319:1.0 7786:2.0 8658:1.0 9003:1.0 9078:1.0 9129:1.0 13028:1.0 13385:1.0 13511:1.0 16233:1.0 17805:1.0 18972:1.0 19229:1.0 
0.38898728617915296 1.524395889264456 571:1.0 1306:1.0 2319:1.0 7786:2.0 9003:1.0 9078:1.0 9129:1.0 13028:1.0 13385:1.0 13511:1.0 16233:1.0 17805:1.0 18972:1.0 19229:1.0 
8.0 2.2145217294843222 574:3.0 575:1.0 3303:1.0 4115:1.0 11287:1.0 13752:1.0 16001:1.0 18271:1.0 
0.7727025876211681 0.0 1306:1.0 2836:1.0 9001:1.0 17653:1.0 19690:1.0 
8.0 3.8050361409705986 574:3.0 1297:1.0 1339:1.0 4826:1.0 4858:1.0 5153:1.0 9120:1.0 11581:1.0 17376:1.0 19450:1.0 
0.21495553210314808 0.0 571:3.0 574:1.0 5144:1.0 6171:1.0 7195:1.0 7604:1.0 7786:1.0 9129:1.0 10880:1.0 10911:1.0 15699:1.0 16904:1.0 17653:1.0 
2.901773702010345 0.16388176601362084 572:2.0 574:2.0 575:1.0 2748:1.0 3763:1.0 8444:2.0 8995:3.0 12625:1.0 14568:2.0 15603:1.0 15704:1.0 19713:1.0 20141:1.0 
5.304617499373997 1.0005040934905587 571:1.0 572:1.0 574:2.0 1306:1.0 2744:1.0 4513:1.0 5908:1.0 6436:1.0 9001:2.0 9363:1.0 10409:1.0 11449:1.0 15199:1.0 15635:1.0 16839:1.0 18720:1.0 19418:1.0 
4.560197374137704 3.7996421987831033 570:1.0 571:1.0 574:2.0 5731:1.0 5923:2.0 9001:1.0 10298:1.0 14365:1.0 15173:1.0 15611:1.0 17981:1.0 
2.4594823746284296 8.0 574:1.0 1296:1.0 2343:1.0 
8.0 3.525694665478911 572:1.0 574:1.0 575:1.0 5223:1.0 8980:1.0 13817:1.0 14096:1.0 18837:1.0 
8.0 5.865979576397103 574:2.0 4448:1.0 8365:1.0 
5.7909509180292815 0.5547787185254326 94:1.0 427:1.0 572:3.0 574:1.0 575:1.0 2200:1.0 4463:1.0 8744:1.0 9001:2.0 9003:1.0 11449:1.0 
4.171039655880854 0.8516135695290029 571:3.0 574:1.0 575:1.0 1745:1.0 2862:1.0 8011:1.0 8342:1.0 9001:1.0 10312:1.0 10501:1.0 15404:1.0 15614:1.0 18771:1.0 
0.21631196240812542 7.6991498309452835 572:1.0 574:1.0 1952:1.0 3335:1.0 5249:1.0 6457:1.0 8987:1.0 9001:1.0 9078:1.0 12539:1.0 14022:1.0 14717:1.0 19450:1.0 19815:1.0 
2.415019004619134 3.4229885591348945 571:3.0 572:1.0 574:1.0 1800:1.0 2681:1.0 4397:1.0 8620:1.0 9078:1.0 10750:2.0 11518:1.0 12225:1.0 12772:1.0 12916:1.0 14014:1.0 17939:1.0 20059:1.0 
3.2250731280408207 8.0 574:1.0 2793:1.0 4455:1.0 7178:1.0 9812:1.0 11635:1.0 12539:1.0 16072:1.0 17653:1.0 
4.081182888071679 4.638434476055829 570:1.0 571:1.0 572:1.0 574:2.0 575:1.0 1770:1.0 2449:1.0 4659:1.0 9001:1.0 11449:1.0 13028:1.0 15635:1.0 16237:1.0 19418:1.0 
3.730445078916452 1.7917048539628246 574:1.0 895:1.0 8531:1.0 9001:1.0 10590:1.0 10742:1.0 12225:1.0 17537:2.0 18744:1.0 
5.68939197616081 3.5154357778967595 574:2.0 575:1.0 834:1.0 1218:1.0 1306:1.0 4409:1.0 7108:1.0 7476:1.0 11285:1.0 12813:1.0 15699:1.0 16904:2.0 
8.0 7.208815151753958 570:1.0 573:1.0 574:1.0 575:1.0 2044:1.0 9078:1.0 12539:1.0 13520:1.0 17670:1.0 18378:1.0 
3.531049716493905 4.519747248167594 570:1.0 1306:1.0 6658:1.0 9001:1.0 10524:1.0 10532:1.0 10903:1.0 13105:1.0 16853:1.0 17634:1.0 17653:1.0 17939:1.0 
0.0 5.791150213355893 574:1.0 3930:1.0 6719:1.0 7852:1.0 7983:1.0 10771:1.0 12141:1.0 12811:1.0 15649:1.0 19289:1.0 
4.719014311209599 4.9224135475836395 571:1.0 574:1.0 3335:1.0 3723:1.0 6492:1.0 8531:1.0 15704:1.0 19815:1.0 
4.388652635643953 0.0 571:1.0 574:3.0 1055:1.0 3897:1.0 5639:1.0 7476:1.0 15699:1.0 16904:1.0 18130:1.0 
0.0 8.0 574:1.0 6457:1.0 7604:1.0 9104:1.0 12298:1.0 17175:1.0 17520:1.0 
0.0 1.039570373127656 574:1.0 834:1.0 4409:1.0 7108:1.0 7476:1.0 10891:1.0 11445:1.0 12813:1.0 15699:1.0 16904:1.0 
8.0 8.0 573:1.0 574:1.0 6201:1.0 8987:1.0 8995:1.0 
0.0 1.5704465321163887 570:1.0 571:1.0 572:1.0 574:1.0 4463:1.0 5903:1.0 7049:1.0 8438:1.0 8643:1.0 10590:1.0 12539:1.0 15614:1.0 17850:1.0 
8.0 2.812195075230371 574:2.0 575:1.0 1306:1.0 9001:1.0 9003:1.0 10863:1.0 16237:1.0 16843:1.0 16904:1.0 17276:1.0 
0.0 8.0 574:1.0 10750:1.0 12225:1.0 15973:1.0 
1.3647062589157597 0.0 574:1.0 575:1.0 3055:1.0 5153:1.0 9003:1.0 10590:1.0 10903:1.0 13654:1.0 19450:1.0 
2.996649329278786 1.6305660649479843 572:1.0 574:1.0 718:1.0 895:1.0 2206:1.0 3097:1.0 3825:1.0 4671:1.0 6283:1.0 8995:1.0 9001:1.0 9219:1.0 10750:2.0 14014:1.0 14022:1.0 16904:1.0 
5.392986318275763 7.3883130266818515 574:1.0 3350:1.0 8987:1.0 10298:1.0 14490:1.0 20053:1.0 
5.250601856408259 2.3340384016770663 574:1.0 13070:1.0 14487:1.0 15244:1.0 19381:1.0 19839:1.0 
8.0 0.0 574:8.0 
4.654392456572552 2.552502429212073 570:1.0 571:1.0 572:3.0 575:1.0 1306:1.0 9001:1.0 9003:1.0 9004:1.0 9363:1.0 9948:1.0 10029:1.0 10817:1.0 12270:1.0 12979:1.0 20059:1.0 
3.243457237804336 1.9541864088312133 574:1.0 2862:1.0 3666:1.0 5978:1.0 7266:1.0 7786:1.0 9735:1.0 10029:1.0 10219:1.0 10370:1.0 10779:1.0 12539:1.0 14896:1.0 16328:1.0 16904:1.0 19229:1.0 
2.537099424290438 6.271358674100314 473:1.0 572:1.0 574:2.0 5036:1.0 7157:1.0 8880:1.0 9001:1.0 10568:1.0 11315:1.0 11784:1.0 13028:1.0 15699:1.0 17653:1.0 18826:1.0 20141:1.0 
4.751422484790065 2.742365885204025 571:1.0 572:2.0 574:1.0 575:1.0 1306:1.0 4463:1.0 5102:3.0 9001:1.0 9631:1.0 11449:1.0 15635:1.0 19450:1.0 
2.5075448714989395 0.3559600731966479 1306:2.0 7681:1.0 8971:1.0 9120:1.0 16780:1.0 17653:2.0 
0.24889843691260027 0.41070551302746194 571:4.0 572:2.0 573:1.0 574:1.0 9003:1.0 10785:1.0 11449:1.0 13395:1.0 15588:1.0 19418:1.0 
8.0 8.0 571:1.0 572:2.0 573:1.0 574:1.0 9003:1.0 10785:1.0 11449:1.0 13395:1.0 15588:1.0 19418:1.0 
7.747143912341731 0.0 1164:1.0 1306:1.0 7041:1.0 8970:1.0 10750:1.0 11713:1.0 12270:1.0 12539:1.0 14040:1.0 15635:1.0 17939:1.0 20059:1.0 
8.0 8.0 571:1.0 574:2.0 17743:1.0 
8.0 8.0 1306:1.0 2351:1.0 11784:1.0 16465:1.0 
0.41609456148686186 2.265439924998781 573:1.0 574:1.0 990:1.0 2399:1.0 5794:1.0 7202:1.0 7932:1.0 9078:1.0 9735:1.0 9845:1.0 14199:1.0 14310:2.0 16862:1.0 19316:1.0 19648:1.0 
0.8391405525647719 1.5747508311108338 570:1.0 571:11.0 572:1.0 574:1.0 1394:1.0 1786:1.0 2581:1.0 4463:1.0 5341:1.0 6399:1.0 7786:1.0 9001:1.0 10068:1.0 11636:1.0 12924:1.0 14872:1.0 
8.0 1.2849788569177425 571:1.0 575:1.0 1306:1.0 2691:1.0 
0.5972531163808945 1.8279423180392482 574:3.0 1119:2.0 1322:1.0 1501:1.0 1744:1.0 1770:1.0 2401:1.0 7275:1.0 10590:1.0 13999:1.0 17316:1.0 20168:1.0 
1.9854128708009993 3.2295264527367666 565:1.0 571:1.0 574:1.0 1327:1.0 1744:1.0 2244:1.0 7224:1.0 8206:1.0 9001:1.0 10040:1.0 11489:1.0 13511:1.0 14717:1.0 16904:1.0 17653:1.0 18436:1.0 19804:1.0 
3.3684488990722956 0.0 574:1.0 4463:1.0 6325:1.0 7021:1.0 7786:1.0 9001:1.0 12225:1.0 12298:1.0 12811:1.0 16240:1.0 18475:1.0 18972:1.0 
4.331840530353653 6.86662741649124 572:1.0 574:1.0 5639:1.0 8980:1.0 10475:1.0 12881:1.0 13807:1.0 15534:1.0 17653:1.0 18731:1.0 
8.0 0.0 574:1.0 575:1.0 1306:1.0 6436:1.0 6672:1.0 9001:1.0 11449:1.0 12811:1.0 15271:1.0 18101:1.0 19013:1.0 19418:1.0 19806:1.0 19864:1.0 
0.0 2.685217670233878 571:4.0 574:1.0 1075:1.0 2200:2.0 7108:1.0 8531:1.0 9631:1.0 
5.996021125298366 7.862401775956769 572:1.0 574:1.0 1306:1.0 3239:1.0 7398:1.0 8980:1.0 12902:1.0 14896:1.0 18787:1.0 
0.15038845875993698 0.52964486799843 571:1.0 574:1.0 1667:1.0 2618:1.0 5219:2.0 5479:1.0 5556:1.0 6263:1.0 8987:2.0 10405:1.0 10590:1.0 11390:1.0 11575:1.0 14154:2.0 15603:1.0 18101:1.0 
0.0 0.682803239270186 571:1.0 574:1.0 1667:1.0 2618:1.0 5219:2.0 5479:1.0 5556:1.0 6263:1.0 8987:2.0 10405:1.0 10590:1.0 11390:1.0 14154:2.0 15603:1.0 18101:1.0 
1.404770982325003 7.211923182766317 362:1.0 574:1.0 1501:1.0 1770:1.0 3335:1.0 3723:1.0 8980:1.0 9001:1.0 13965:1.0 15699:1.0 16780:1.0 16862:1.0 18784:1.0 18826:1.0 
1.9191217053056795 6.296439844933483 572:1.0 1306:1.0 2044:1.0 7309:1.0 8980:1.0 9001:1.0 10590:1.0 10903:1.0 11722:1.0 15173:1.0 
4.496788826376417 0.0 574:1.0 2174:1.0 16031:1.0 
2.768780054840202 0.0 571:3.0 575:1.0 1306:1.0 6093:1.0 7725:1.0 17653:1.0 18343:1.0 
1.5330443552400332 0.12405027928182046 571:4.0 574:1.0 755:1.0 3070:1.0 5251:1.0 7786:1.0 10501:1.0 10793:1.0 10865:1.0 12309:1.0 12539:1.0 14914:1.0 17634:2.0 18070:3.0 18964:1.0 18972:1.0 
0.0 1.969393789376527 341:1.0 574:1.0 4409:1.0 4583:1.0 7476:1.0 12225:1.0 13511:2.0 14537:1.0 15699:1.0 17653:1.0 18012:1.0 19013:1.0 19229:1.0 
0.0 8.0 574:1.0 6719:1.0 13511:1.0 14717:1.0 
0.0 5.315616659298514 574:1.0 9011:1.0 10590:1.0 12225:1.0 18784:1.0 
4.07405274027172 3.00917953933724 574:2.0 1031:1.0 4042:1.0 5720:1.0 6658:1.0 9001:1.0 10532:1.0 16072:2.0 17805:1.0 18787:2.0 19620:1.0 19851:1.0 
4.247760512477493 1.639945327328567 572:1.0 574:3.0 575:1.0 8470:1.0 17653:2.0 18250:1.0 20141:2.0 
3.2278634957818024 4.486216546731848 574:1.0 1306:1.0 2014:1.0 7476:1.0 8242:1.0 10566:1.0 11518:1.0 18076:1.0 18311:1.0 19834:1.0 
5.043152513840828 5.731795432844421 574:1.0 7072:1.0 7476:1.0 9001:1.0 
1.3661993735941282 1.9787972100109001 574:1.0 1325:1.0 1422:1.0 3135:2.0 4739:1.0 10472:1.0 10817:1.0 12514:1.0 12711:1.0 13849:1.0 15664:1.0 17120:1.0 18012:1.0 18311:1.0 
0.6657242248474519 1.7170457088676951 570:1.0 574:1.0 1306:1.0 2200:1.0 8477:1.0 9078:1.0 10298:1.0 10590:1.0 11713:1.0 12225:1.0 14896:1.0 16033:1.0 16413:1.0 17670:1.0 17805:1.0 18784:1.0 
1.8014751341874127 0.0 571:1.0 574:1.0 575:1.0 904:1.0 14508:1.0 17653:1.0 17939:1.0 18853:1.0 19450:1.0 
1.1688961516871363 7.078797115510456 574:1.0 1075:1.0 16072:1.0 
8.0 8.0 571:1.0 574:2.0 9003:1.0 12141:1.0 16072:1.0 
4.567552228918231 0.0 574:1.0 575:1.0 1075:1.0 2944:1.0 3697:1.0 9001:1.0 10359:1.0 11234:1.0 12225:1.0 16072:1.0 
4.222431750803906 4.889875330029564 571:4.0 574:1.0 10903:1.0 15463:1.0 16904:1.0 19582:1.0 
0.0 4.685089629455468 571:4.0 574:1.0 5908:2.0 6283:1.0 8650:1.0 12213:1.0 16554:1.0 16624:1.0 18826:1.0 19815:1.0 19846:1.0 
8.0 8.0 574:1.0 575:1.0 
8.0 0.0 574:2.0 7316:1.0 8657:1.0 8987:1.0 10658:1.0 12225:1.0 12539:1.0 17198:1.0 18787:1.0 
2.753725667475917 0.0 574:2.0 731:1.0 3733:1.0 7865:1.0 9001:1.0 11090:1.0 14896:1.0 19440:1.0 
1.698156869448304 0.0 574:1.0 575:1.0 1879:1.0 5993:1.0 6093:1.0 6958:1.0 7604:1.0 8849:1.0 8883:1.0 13654:1.0 16643:1.0 17653:1.0 19329:1.0 
0.4324642068736355 1.5371158712992443 571:9.0 573:2.0 574:1.0 713:1.0 1306:1.0 2169:1.0 2546:1.0 8123:1.0 13879:1.0 17537:1.0 19815:1.0 19925:1.0 
8.0 3.699674083565939 471:1.0 574:1.0 575:1.0 16839:1.0 16904:1.0 17653:1.0 
8.0 8.0 572:1.0 573:1.0 1306:1.0 7359:1.0 10113:1.0 10568:1.0 12270:1.0 16072:1.0 19495:1.0 19721:1.0 20059:1.0 
5.379087972879822 3.6124265057777993 571:1.0 572:1.0 574:1.0 1763:1.0 4174:1.0 5153:1.0 8531:1.0 8896:1.0 8980:1.0 10839:1.0 12513:1.0 12539:1.0 13511:1.0 15571:1.0 17255:1.0 17305:1.0 18475:1.0 19450:1.0 19624:1.0 
1.0051464868326143 0.0 574:1.0 575:1.0 1218:1.0 1370:1.0 7476:1.0 8685:1.0 9200:1.0 9594:1.0 14792:1.0 16850:1.0 16906:1.0 17057:1.0 17939:1.0 18012:1.0 
8.0 2.210986264759548 574:2.0 575:1.0 1306:1.0 7466:1.0 7604:1.0 11285:1.0 12298:1.0 13511:1.0 14717:1.0 16904:2.0 18475:1.0 
0.6290851727484161 0.0 574:1.0 575:1.0 1218:1.0 1370:1.0 7476:1.0 8685:1.0 9200:1.0 14792:1.0 16850:1.0 16906:1.0 17057:1.0 17939:1.0 18012:1.0 
8.0 8.0 572:1.0 574:1.0 8365:1.0 12817:1.0 
6.792576561613215 0.0 574:1.0 5373:1.0 7604:1.0 8987:1.0 11010:1.0 17653:1.0 18475:1.0 19440:1.0 19834:1.0 
8.0 0.0 571:1.0 574:1.0 575:1.0 4463:1.0 5923:1.0 7786:1.0 9363:1.0 16839:1.0 
1.630275415084863 0.004889454705792455 574:1.0 1151:1.0 1879:1.0 2553:1.0 2989:1.0 3298:1.0 6719:2.0 7072:1.0 8689:1.0 11335:1.0 13879:1.0 14717:2.0 15534:1.0 15699:1.0 
4.781154471365085 8.0 570:1.0 1306:1.0 1952:1.0 4463:1.0 5522:1.0 7784:1.0 9001:2.0 9363:1.0 10029:1.0 10524:1.0 12298:1.0 
1.0039534419809004 0.5302578508430954 571:1.0 574:2.0 1758:1.0 6055:1.0 8027:1.0 8689:1.0 12225:1.0 13511:1.0 
0.021342635479610038 6.689836884251843 571:1.0 574:2.0 1758:1.0 6055:1.0 8689:1.0 12225:1.0 13511:1.0 
2.6050439413578834 0.0 574:1.0 575:1.0 1075:1.0 4250:1.0 8873:1.0 9001:1.0 13385:1.0 14036:1.0 16521:1.0 17789:1.0 18627:1.0 
8.0 5.86833232057572 574:2.0 8365:1.0 15204:1.0 
0.0 8.0 574:1.0 762:1.0 16031:1.0 
8.0 8.0 574:1.0 4601:1.0 8365:1.0 13950:1.0 
2.49480674687198 0.8646172779282093 572:1.0 574:1.0 2200:1.0 5153:1.0 6263:2.0 6325:1.0 8980:1.0 11713:1.0 11862:1.0 14739:1.0 18787:1.0 
0.8839048274979535 0.0 572:1.0 574:1.0 2174:1.0 8631:1.0 8980:1.0 12225:1.0 18784:1.0 
2.9448352929297443 6.372322511254811 1306:1.0 1559:1.0 6387:1.0 9001:1.0 10138:1.0 10228:1.0 17013:1.0 17653:1.0 
0.0 0.33536484479013595 571:1.0 574:1.0 1297:1.0 3135:1.0 10590:1.0 12225:1.0 
0.551942075609375 0.0 643:1.0 1306:1.0 9001:1.0 10590:1.0 16839:1.0 17653:1.0 20141:1.0 
8.0 8.0 574:1.0 
0.12366229535209802 2.0954661711661453 574:1.0 713:1.0 1075:1.0 2793:1.0 3029:1.0 7108:2.0 7266:1.0 7905:1.0 8967:1.0 9012:1.0 13192:1.0 14036:1.0 16072:1.0 
8.0 8.0 1306:1.0 4486:1.0 10388:1.0 10863:1.0 13654:1.0 16072:1.0 18787:1.0 19289:1.0 19450:1.0 
2.835943913113956 7.166141486536025 574:1.0 1306:1.0 3135:1.0 4885:1.0 8003:1.0 10522:1.0 11689:1.0 16088:1.0 19038:1.0 19833:1.0 
6.01472213138913 5.322995111305753 571:2.0 574:4.0 1119:1.0 1352:1.0 2351:1.0 9001:1.0 9072:1.0 10863:1.0 14508:1.0 17874:1.0 18217:1.0 18790:1.0 20141:1.0 
6.272216099264594 5.570368196784007 571:2.0 1306:1.0 8987:1.0 17033:1.0 17175:1.0 17653:1.0 18784:1.0 
0.0 1.9551397012079432 570:1.0 1075:1.0 1306:1.0 2186:1.0 3350:1.0 7316:2.0 8542:1.0 9078:1.0 9363:1.0 13511:1.0 16072:1.0 16862:1.0 18826:1.0 19229:1.0 19864:1.0 
5.254313314569432 0.5324311777906312 575:1.0 1306:1.0 6457:1.0 17653:1.0 17777:1.0 18000:1.0 
3.685929463480964 2.6733129420872235 571:1.0 574:1.0 2174:1.0 4238:1.0 4307:1.0 8987:1.0 13520:1.0 
8.0 6.988425631772645 575:1.0 1306:1.0 6457:1.0 17653:1.0 17777:1.0 
0.8152639681344015 7.833151632941442 571:5.0 574:1.0 1744:1.0 4028:1.0 7997:1.0 17653:1.0 20048:1.0 
0.0 8.0 574:1.0 3350:1.0 10298:1.0 
0.0 5.550296934494077 570:1.0 571:2.0 574:1.0 1744:1.0 3374:1.0 4463:1.0 5676:1.0 9001:1.0 10785:1.0 10793:1.0 13672:1.0 14075:1.0 14717:1.0 
0.0 3.7798773690056953 574:2.0 713:1.0 10903:1.0 11779:1.0 13965:1.0 17255:1.0 
1.7978813856383382 2.600655918907288 574:1.0 636:1.0 643:1.0 1075:1.0 1563:1.0 2691:1.0 9003:1.0 13973:1.0 14554:1.0 16072:1.0 16826:1.0 19137:1.0 
3.636239850889232 2.1018997351358557 254:1.0 571:1.0 1306:1.0 2862:1.0 5908:1.0 8620:1.0 8643:1.0 10590:1.0 13701:1.0 16415:1.0 
2.640364973889613 0.0 574:2.0 6387:1.0 7108:1.0 9001:1.0 17653:1.0 17939:1.0 
0.0 4.430085650519496 571:1.0 572:1.0 574:1.0 2126:1.0 2927:1.0 4409:1.0 6819:1.0 7316:1.0 9675:1.0 16904:1.0 17175:1.0 
8.0 8.0 574:1.0 7935:1.0 
3.804943023755366 1.4554034577565191 571:1.0 574:1.0 2200:1.0 5223:1.0 6006:1.0 8980:1.0 9078:1.0 17663:1.0 
2.3044232843733816 0.0 571:4.0 1075:1.0 1306:1.0 10590:1.0 16072:1.0 
7.406012601613594 2.917372001982575 1080:1.0 3549:1.0 4671:1.0 7346:1.0 8645:1.0 11689:1.0 13028:1.0 16401:1.0 16903:1.0 18075:1.0 18085:1.0 
8.0 0.0 572:1.0 574:1.0 1164:1.0 4463:1.0 7346:1.0 8505:1.0 15306:1.0 18012:1.0 
3.764473461792766 0.0 575:1.0 2200:1.0 6958:1.0 7346:1.0 8011:1.0 12298:1.0 15571:1.0 18281:1.0 18826:1.0 18972:1.0 
8.0 0.0 571:1.0 575:1.0 2863:1.0 3097:1.0 6719:1.0 7346:1.0 19402:2.0 
0.0 1.7473027796417062 570:1.0 572:2.0 1164:1.0 7316:1.0 7346:1.0 8505:1.0 10136:1.0 10532:1.0 12580:1.0 13965:1.0 14302:1.0 17183:1.0 19851:1.0 
8.0 0.0 574:1.0 7346:1.0 7786:1.0 
0.6500668777653388 0.0 571:1.0 572:2.0 574:1.0 575:1.0 1164:2.0 1651:1.0 2259:1.0 4245:1.0 7346:2.0 8032:1.0 8505:1.0 12225:1.0 12274:2.0 15333:1.0 
0.31450845238530256 0.0 2044:1.0 2580:1.0 7266:1.0 7346:2.0 11005:2.0 12225:1.0 12274:1.0 13511:1.0 15780:1.0 16227:1.0 18130:1.0 19864:1.0 
1.374244616546582 0.0 2745:1.0 4551:1.0 4818:1.0 7346:1.0 7694:1.0 8896:1.0 10058:1.0 10578:1.0 10905:1.0 12979:1.0 16161:1.0 17061:1.0 17142:1.0 18830:1.0 19038:1.0 19229:1.0 19329:1.0 
8.0 1.0776454922346779 573:1.0 1164:1.0 3284:1.0 4245:1.0 4822:1.0 6160:1.0 7346:1.0 8129:1.0 8505:1.0 15333:1.0 17689:1.0 19772:1.0 19815:1.0 
8.0 0.0 1164:1.0 4245:1.0 7346:1.0 8505:1.0 15333:1.0 
0.0 4.075282112527328 571:8.0 7346:1.0 
2.8927876632579688 0.0 571:1.0 572:2.0 575:1.0 1164:2.0 1651:1.0 2259:1.0 4245:1.0 7346:2.0 8032:1.0 8505:1.0 12225:1.0 12274:2.0 15333:1.0 
4.416644805731365 3.124876554436426 1075:1.0 1119:1.0 1164:1.0 2348:1.0 7346:1.0 8365:1.0 8515:1.0 10532:1.0 11518:1.0 12891:1.0 14474:1.0 14607:1.0 
5.016166389834285 0.0 575:1.0 1164:1.0 6263:1.0 6629:1.0 7346:1.0 10331:1.0 12274:1.0 12298:1.0 13511:1.0 15543:1.0 
4.038992810384798 0.0 571:1.0 575:1.0 1075:1.0 1165:1.0 6943:1.0 7346:1.0 8515:1.0 12274:1.0 13991:1.0 15306:1.0 16031:1.0 
2.4268096885095103 0.0 571:1.0 1119:1.0 1164:1.0 1656:1.0 4245:1.0 6387:1.0 7316:1.0 7346:1.0 8365:1.0 8505:1.0 10532:1.0 11862:1.0 12887:1.0 15333:1.0 16320:1.0 17183:1.0 17316:1.0 18769:1.0 
8.0 0.0 571:3.0 575:1.0 6387:1.0 7346:1.0 8365:1.0 10487:1.0 15571:1.0 18837:1.0 
4.637364632992123 4.284356191713429 572:1.0 4656:1.0 7346:1.0 8315:1.0 8505:1.0 8515:1.0 10532:1.0 12118:1.0 14508:1.0 14664:2.0 14909:1.0 16935:1.0 17361:1.0 
0.04604809115408609 0.0 571:2.0 1164:1.0 6134:1.0 6943:1.0 6944:1.0 7346:1.0 9129:1.0 10590:1.0 10903:1.0 12274:1.0 15306:1.0 18925:1.0 
8.0 1.178818932425126 571:3.0 5207:1.0 7346:1.0 
4.894421751081091 0.0 575:1.0 6456:1.0 6662:1.0 7346:2.0 7472:1.0 13527:1.0 13530:1.0 14524:1.0 15780:1.0 19293:1.0 19666:1.0 
1.0055442650856188 0.5209755926605523 1513:1.0 5639:1.0 6943:1.0 7346:1.0 9812:1.0 12274:1.0 12539:1.0 13701:1.0 15649:1.0 16416:1.0 17537:1.0 19289:1.0 
1.3538456001023487 0.07754542901025807 575:1.0 2255:1.0 6085:1.0 7346:1.0 13879:1.0 14723:1.0 15748:1.0 15846:1.0 17560:1.0 17857:1.0 18475:1.0 18837:1.0 
8.0 8.0 1164:1.0 1306:1.0 1770:1.0 7346:1.0 9749:1.0 10532:1.0 10793:1.0 15306:1.0 16465:1.0 
8.0 0.0 575:1.0 2255:1.0 6085:1.0 7346:1.0 13879:1.0 14723:1.0 15846:1.0 17560:1.0 17857:1.0 18475:1.0 18837:1.0 
8.0 4.055469093451315 573:1.0 575:1.0 6085:1.0 7309:1.0 7346:1.0 7865:1.0 13879:1.0 16353:1.0 17560:1.0 17713:1.0 18475:1.0 18837:1.0 
3.520778918014952 4.448480902171398 570:1.0 1164:1.0 4818:1.0 5672:1.0 6590:1.0 7316:1.0 7346:1.0 8689:1.0 10226:1.0 11862:1.0 12184:1.0 12225:1.0 14485:1.0 15996:1.0 18784:1.0 
8.0 3.2974529853101227 575:1.0 5548:1.0 7346:1.0 15603:1.0 19038:1.0 19267:1.0 19864:1.0 
8.0 1.9500400818905628 3097:1.0 7346:1.0 14685:1.0 16416:1.0 16577:1.0 16921:1.0 18407:1.0 
4.485229867050753 3.8266229722008904 5639:1.0 6943:1.0 7346:1.0 9812:1.0 12274:1.0 12539:1.0 13701:1.0 15649:1.0 16416:1.0 17537:1.0 19289:1.0 
6.918433438976906 0.0 575:1.0 6958:1.0 7316:1.0 7346:2.0 8849:1.0 8928:1.0 9812:1.0 10065:1.0 14008:2.0 16826:1.0 17537:1.0 19381:1.0 
8.0 1.2866023726079505 571:1.0 572:2.0 1164:1.0 1635:1.0 7346:1.0 12274:1.0 12979:1.0 15306:1.0 19690:1.0 
8.0 6.180938274317476 2174:1.0 6768:1.0 7346:1.0 11956:1.0 15688:1.0 
6.735277860550405 3.0078650110955643 570:1.0 574:1.0 575:1.0 2554:1.0 2801:1.0 4938:1.0 5550:1.0 6858:1.0 7346:1.0 8794:1.0 11105:1.0 14664:1.0 19229:1.0 
4.718348811832894 3.38264038998106 574:1.0 2147:1.0 4007:1.0 4930:1.0 5713:1.0 6085:1.0 7346:2.0 9078:1.0 12901:1.0 13239:1.0 15571:1.0 16350:1.0 
8.0 0.0 575:1.0 1164:1.0 2876:1.0 3182:1.0 4245:1.0 7346:1.0 8505:1.0 15333:1.0 16237:1.0 16896:1.0 18837:1.0 
8.0 0.0 575:2.0 1164:1.0 2876:1.0 3182:1.0 4245:1.0 7346:1.0 8505:1.0 15333:1.0 16237:1.0 16896:1.0 18837:1.0 
6.302804202657345 0.0 6944:1.0 7346:1.0 7476:1.0 8513:1.0 
8.0 2.5884598387715316 571:2.0 575:1.0 7346:1.0 8032:1.0 12270:1.0 12274:1.0 13511:1.0 
8.0 1.4052888465931896 575:1.0 5470:1.0 7346:2.0 8011:1.0 8306:1.0 10474:1.0 15281:1.0 
8.0 8.0 570:1.0 706:1.0 2319:1.0 6819:1.0 7346:1.0 9812:1.0 13442:1.0 17789:1.0 17801:1.0 
8.0 0.0 1306:1.0 6943:1.0 7346:1.0 9001:1.0 10024:1.0 12274:1.0 12911:1.0 15306:1.0 16853:1.0 19784:1.0 
8.0 3.15337492571854 575:1.0 6943:1.0 7346:1.0 12274:1.0 15306:1.0 19289:1.0 
2.025893887773922 0.0 1046:1.0 1165:1.0 1352:1.0 4245:1.0 4736:1.0 5057:1.0 7346:1.0 7786:1.0 8505:1.0 8515:1.0 9001:1.0 9815:1.0 10065:1.0 14508:1.0 15333:1.0 17183:1.0 17670:1.0 20141:2.0 
8.0 0.9382379598995019 7346:1.0 10610:1.0 
8.0 1.2814966531443535 575:1.0 3716:1.0 3819:1.0 6010:1.0 6658:1.0 7346:2.0 11581:1.0 13701:1.0 14194:1.0 14310:1.0 15306:1.0 
0.47927365479488676 1.2545246558469694 570:1.0 571:2.0 6387:1.0 6944:1.0 7346:1.0 8505:1.0 11713:1.0 13879:1.0 14739:1.0 15069:1.0 15115:1.0 15537:1.0 19156:1.0 
8.0 8.0 572:2.0 1164:1.0 6819:1.0 6944:1.0 7266:1.0 7346:1.0 12225:1.0 19289:1.0 
8.0 0.0 575:1.0 3967:1.0 7346:1.0 12274:1.0 13956:1.0 16177:1.0 
6.601915653837758 2.2740441892585594 572:1.0 575:1.0 788:2.0 7346:2.0 14524:1.0 15640:1.0 15666:1.0 18826:1.0 
8.0 4.349102056149895 1329:1.0 3829:1.0 7108:1.0 7346:1.0 8075:1.0 15478:1.0 17871:1.0 20141:1.0 
4.175972221122605 0.2638597360246131 1164:1.0 3352:1.0 5153:1.0 6958:1.0 7346:1.0 8515:1.0 9051:1.0 9363:1.0 10855:1.0 11581:1.0 15531:2.0 16521:1.0 19450:1.0 20141:1.0 
8.0 0.0 574:1.0 870:1.0 1055:1.0 7346:1.0 17805:1.0 
1.526621753281934 0.0 574:1.0 2554:1.0 7346:1.0 15780:1.0 17653:1.0 19089:1.0 
5.277600535309756 5.066495310190938 1164:1.0 7108:1.0 7346:1.0 8515:1.0 9001:1.0 9631:1.0 12225:1.0 12539:1.0 13511:1.0 14820:1.0 19523:1.0 
6.272907717520934 1.7103286354875002 575:1.0 1164:1.0 3718:1.0 4245:1.0 4883:1.0 6084:1.0 6263:1.0 7346:1.0 8505:1.0 10532:1.0 13708:1.0 14310:1.0 14484:1.0 14990:1.0 15333:1.0 18536:1.0 
0.8156873627612764 0.9103122428835061 1164:1.0 6171:1.0 6944:1.0 7346:1.0 8505:1.0 8689:1.0 12225:1.0 15306:1.0 17163:1.0 18972:1.0 19815:1.0 
7.283932558514386 8.0 2174:1.0 3897:1.0 7346:1.0 14018:1.0 17805:1.0 19815:2.0 
8.0 0.0 7346:1.0 10590:1.0 
8.0 0.0 570:1.0 575:1.0 1164:1.0 4245:1.0 7346:1.0 8505:1.0 15333:1.0 19235:1.0 
8.0 4.7611417257670565 575:1.0 7346:1.0 8254:1.0 12141:1.0 12225:1.0 12274:1.0 16896:1.0 17512:1.0 19289:1.0 
0.0 1.7593710327275598 670:1.0 1352:1.0 2699:1.0 7346:1.0 7546:1.0 8515:1.0 12126:1.0 12225:1.0 12507:1.0 13511:1.0 18850:1.0 19450:1.0 
8.0 0.0 575:1.0 1164:1.0 4858:1.0 4883:1.0 6691:1.0 6943:1.0 7065:1.0 7346:1.0 12274:1.0 13966:1.0 15537:1.0 18784:1.0 
5.2286107677453 0.0 575:1.0 1164:2.0 4245:1.0 4736:1.0 7346:1.0 8505:2.0 8958:1.0 11569:1.0 12225:1.0 15333:1.0 16232:1.0 18988:1.0 
1.7525742697146334 0.0 574:1.0 575:1.0 1164:1.0 2044:1.0 2214:1.0 3414:1.0 6943:1.0 7346:1.0 8958:1.0 12274:2.0 12979:1.0 16028:1.0 16227:1.0 19038:1.0 
5.635468706601039 3.504549466989515 3678:1.0 4245:2.0 7346:1.0 8505:1.0 8863:1.0 9363:1.0 13010:1.0 13511:1.0 
8.0 5.078277847649902 573:2.0 575:1.0 2145:1.0 2927:1.0 6263:1.0 7346:1.0 7476:1.0 13674:1.0 14508:1.0 16220:1.0 17805:1.0 17851:1.0 
2.7012636295112724 0.6002204327632316 718:1.0 2001:1.0 3268:1.0 5106:1.0 5518:1.0 5529:1.0 7346:2.0 10391:1.0 10590:1.0 12225:1.0 13222:1.0 13950:1.0 15554:1.0 17724:1.0 18086:1.0 18822:1.0 19013:1.0 19038:1.0 
8.0 0.0 575:1.0 2554:1.0 2745:1.0 7346:1.0 19390:1.0 
8.0 7.3152938816821855 3914:1.0 7346:1.0 15571:1.0 15665:1.0 17789:1.0 19620:1.0 
2.7027307470653814 0.0 572:2.0 575:1.0 1164:1.0 2044:1.0 2214:1.0 4245:1.0 6943:1.0 7346:1.0 8505:1.0 8958:1.0 12274:1.0 16028:1.0 16227:1.0 
8.0 5.054048885028597 572:1.0 1164:1.0 7346:1.0 8365:1.0 9150:1.0 12274:1.0 13991:1.0 
8.0 0.0 574:1.0 575:1.0 2554:2.0 4938:1.0 7346:1.0 8794:1.0 8913:1.0 14664:1.0 18962:1.0 
0.7516320022244805 0.9891642306656347 571:1.0 2174:1.0 6627:1.0 6768:1.0 7346:1.0 12539:1.0 14896:1.0 
1.5553805268671401 0.0 571:4.0 6201:1.0 6408:1.0 7346:2.0 19229:1.0 
4.728268954833993 0.0 575:1.0 1164:1.0 6010:1.0 6387:1.0 6561:1.0 7316:1.0 7346:1.0 8515:1.0 15603:1.0 18378:1.0 18837:1.0 
5.626858075543419 0.0 571:1.0 1164:1.0 1667:1.0 7346:1.0 8505:1.0 10532:1.0 11767:1.0 13511:1.0 13701:1.0 
1.593681422994188 0.0 571:5.0 575:1.0 1164:1.0 4245:1.0 6608:1.0 7346:1.0 8505:1.0 9001:1.0 15333:1.0 17689:1.0 19666:1.0 
8.0 0.5316464686367148 573:1.0 574:1.0 6085:1.0 7346:1.0 12141:1.0 15359:1.0 16136:1.0 18475:1.0 20053:1.0 
8.0 0.0 573:1.0 575:1.0 672:1.0 2867:1.0 7346:1.0 7786:1.0 10354:1.0 11784:1.0 12274:1.0 16227:1.0 
0.3450672254945376 0.0 571:2.0 1044:1.0 1164:2.0 2025:1.0 4674:1.0 7346:1.0 10793:1.0 12539:1.0 14896:1.0 17478:2.0 20048:1.0 
8.0 0.4478519463421654 571:1.0 574:1.0 575:1.0 729:2.0 7228:1.0 7346:1.0 14044:1.0 14056:1.0 19013:1.0 19390:1.0 20157:1.0 
1.264938688399859 0.0 571:1.0 755:1.0 1164:1.0 6590:1.0 7316:1.0 7346:1.0 8505:1.0 12225:1.0 16780:1.0 17653:1.0 18581:1.0 20157:1.0 
7.730141684837852 0.0 571:1.0 575:1.0 4245:1.0 6084:1.0 6944:1.0 7346:1.0 8505:1.0 8515:1.0 14508:1.0 15333:1.0 18731:1.0 19815:1.0 
6.693377184999819 0.0 571:1.0 573:1.0 574:1.0 575:1.0 1164:2.0 4245:1.0 7346:1.0 8505:2.0 12274:1.0 14488:1.0 15333:1.0 16074:1.0 
8.0 0.0 1164:1.0 4245:1.0 7346:1.0 8505:1.0 11569:1.0 15333:1.0 
6.265049505254504 8.0 2324:1.0 4245:1.0 7346:1.0 8505:1.0 12539:1.0 15333:1.0 15614:1.0 17433:1.0 19289:1.0 
5.332519023070682 2.2528375867439623 570:1.0 571:2.0 573:1.0 834:1.0 1164:1.0 2174:1.0 5711:1.0 5905:1.0 7346:1.0 8515:1.0 10409:1.0 10487:1.0 14018:1.0 15306:1.0 17276:1.0 19381:1.0 20100:1.0 
0.8166626747956738 0.2701846907496078 571:2.0 572:2.0 1164:1.0 1168:1.0 4245:1.0 7346:1.0 8505:1.0 10532:1.0 10863:1.0 12539:1.0 12887:1.0 12988:1.0 15333:1.0 16237:1.0 17316:1.0 19869:1.0 20034:1.0 
6.425825674915447 0.0 1325:1.0 2174:1.0 4245:1.0 7346:1.0 8505:2.0 8671:1.0 8880:1.0 13385:1.0 13520:1.0 15333:1.0 15780:1.0 19495:1.0 
2.608158529317653 0.0 571:1.0 574:1.0 1164:2.0 3405:1.0 5138:1.0 7346:1.0 9001:1.0 10532:1.0 10863:1.0 12225:1.0 12274:1.0 13511:1.0 14498:1.0 16904:1.0 17465:1.0 18028:1.0 
7.6670052484925755 0.0 572:2.0 574:1.0 575:1.0 1164:1.0 4245:2.0 4842:1.0 7346:2.0 8505:3.0 12716:1.0 15333:2.0 17255:1.0 
0.0 0.4134647434871869 571:2.0 1165:1.0 6944:1.0 7346:1.0 7752:1.0 8515:1.0 12539:1.0 13511:1.0 13879:1.0 14310:1.0 14389:1.0 15309:1.0 15311:1.0 19289:1.0 
8.0 8.0 573:1.0 1164:1.0 1306:1.0 4858:1.0 7346:1.0 9001:1.0 14717:1.0 16072:1.0 19722:1.0 
8.0 0.0 571:1.0 575:1.0 1164:1.0 7346:2.0 8515:1.0 10409:1.0 12225:1.0 12274:2.0 13102:1.0 
4.251100792695999 0.8080861506404232 1119:1.0 1164:2.0 1168:1.0 2025:1.0 4843:1.0 5978:1.0 6084:1.0 7346:1.0 8505:1.0 8515:1.0 18731:1.0 
8.0 2.557456799889654 573:1.0 1151:1.0 3897:1.0 4028:1.0 5851:1.0 6436:1.0 7346:2.0 10361:1.0 13102:1.0 18086:1.0 18826:1.0 20100:1.0 
8.0 5.087038798116234 573:1.0 574:1.0 6085:1.0 7346:1.0 12141:1.0 16136:1.0 18475:1.0 20053:1.0 
1.0052939179417728 0.0 571:1.0 4231:1.0 4245:1.0 7346:2.0 8505:1.0 8515:1.0 12539:1.0 15306:2.0 15333:1.0 15581:1.0 17653:1.0 
7.991881402624498 0.0 575:1.0 1164:1.0 2044:1.0 2214:1.0 6943:1.0 7346:1.0 8505:1.0 8958:1.0 12274:1.0 15306:1.0 16028:1.0 16227:1.0 
0.4897109809169722 0.0 571:1.0 692:1.0 7346:2.0 8505:1.0 8515:1.0 8689:1.0 10532:1.0 14302:1.0 19229:1.0 
3.8920468192433586 0.0 572:2.0 573:1.0 1164:2.0 5978:1.0 6263:1.0 7346:1.0 8505:1.0 12225:1.0 13654:1.0 17851:1.0 
8.0 0.0 575:1.0 1164:1.0 6943:1.0 7346:1.0 7786:1.0 12274:1.0 12539:1.0 14637:1.0 
8.0 0.0 571:1.0 575:1.0 2554:1.0 4476:1.0 7346:1.0 8794:1.0 8916:1.0 18837:1.0 19390:1.0 19864:1.0 
8.0 0.0 6944:1.0 7346:1.0 8513:1.0 13407:1.0 15306:1.0 15333:1.0 
2.7248704882618724 0.0 571:1.0 4231:1.0 4245:1.0 7346:2.0 8505:1.0 8515:1.0 12539:1.0 15306:2.0 15333:1.0 17653:1.0 
0.0 8.0 7316:1.0 7346:1.0 8505:1.0 15973:1.0 17478:1.0 19815:1.0 
6.777822367420466 2.4703087503098495 778:1.0 1164:2.0 3222:1.0 3565:1.0 7346:2.0 7384:1.0 13965:1.0 15255:1.0 
7.530836495558511 1.5628864837766996 574:1.0 3181:1.0 4974:1.0 7346:1.0 12535:1.0 12539:1.0 14178:1.0 15306:1.0 18081:1.0 19289:1.0 19772:1.0 
0.0 8.0 1667:1.0 7346:1.0 12274:1.0 12539:1.0 14508:1.0 19289:1.0 
8.0 2.6085875745524794 1164:1.0 3350:1.0 5905:1.0 7346:1.0 9347:1.0 12539:1.0 13028:1.0 13155:1.0 15306:1.0 17939:1.0 19450:1.0 
5.987586571537918 0.9297871265031653 5268:1.0 6944:1.0 7346:1.0 7604:1.0 14998:1.0 15306:1.0 17528:1.0 
1.003979371877697 0.53024830166044 571:5.0 1655:1.0 2454:1.0 7346:1.0 10397:1.0 11458:1.0 12539:1.0 15306:1.0 17686:1.0 
5.14921384571092 0.0 574:2.0 1667:1.0 7346:1.0 7476:1.0 8505:1.0 8980:1.0 9363:1.0 18837:1.0 
8.0 2.697181599951847 571:1.0 3855:1.0 7346:1.0 11767:1.0 13407:1.0 18974:1.0 
0.02680989925289862 0.0 1119:1.0 1164:1.0 4245:1.0 6658:1.0 6943:1.0 7346:2.0 8505:2.0 8959:1.0 10532:1.0 10590:1.0 12225:1.0 12274:2.0 13511:1.0 14508:1.0 15333:1.0 
4.316747240123423 0.0 571:2.0 1164:1.0 4245:1.0 4856:2.0 7346:1.0 8365:1.0 8505:1.0 9770:1.0 10409:1.0 12700:1.0 14323:1.0 15333:1.0 16378:1.0 
5.476656463859294 0.0 571:1.0 575:1.0 1164:1.0 5268:1.0 6943:1.0 7346:1.0 7786:1.0 12274:1.0 15306:1.0 17478:1.0 
8.0 3.393354389151188 1164:1.0 4245:1.0 7346:1.0 8505:1.0 15333:1.0 19289:1.0 20195:1.0 
8.0 0.0 575:1.0 1164:1.0 7108:1.0 7346:1.0 8515:1.0 13216:1.0 14488:1.0 16446:1.0 
4.933990240672494 0.3131727287343156 7316:1.0 7346:1.0 8417:1.0 8515:1.0 10532:1.0 10863:1.0 12806:1.0 17376:1.0 
8.0 0.0 571:1.0 7346:1.0 8505:1.0 12225:1.0 12594:1.0 13511:1.0 
2.902679219778731 0.17333667674367456 571:1.0 1164:1.0 1306:1.0 4117:1.0 4858:1.0 6395:1.0 7346:1.0 9001:2.0 9078:1.0 12124:1.0 13650:1.0 18217:1.0 18837:1.0 
1.7138683547741749 0.0 571:1.0 1744:1.0 5153:1.0 6943:1.0 7346:1.0 7786:1.0 8505:1.0 8620:1.0 8939:1.0 12274:1.0 12539:2.0 13956:1.0 14643:1.0 14664:1.0 15306:1.0 18407:1.0 19289:1.0 
8.0 0.0 571:1.0 1165:1.0 6944:1.0 7346:1.0 7752:1.0 8515:1.0 12539:1.0 13511:1.0 13879:1.0 14389:1.0 15306:1.0 19289:1.0 
8.0 0.0 571:1.0 1164:1.0 4245:1.0 7346:1.0 8505:1.0 14488:1.0 15333:1.0 
2.321708460567234 0.4582379910211426 1044:1.0 1306:1.0 1501:1.0 2745:1.0 6084:1.0 7346:2.0 7801:1.0 9701:1.0 12225:1.0 12274:1.0 13511:1.0 19450:1.0 
1.3087943872713295 0.48746130315812153 571:5.0 1655:1.0 2454:1.0 7346:1.0 10397:1.0 11458:1.0 12539:1.0 15306:1.0 
3.158513345553429 1.3730445188285019 571:1.0 573:1.0 1172:1.0 4736:1.0 5908:1.0 6197:1.0 7346:1.0 13568:1.0 14495:1.0 15333:1.0 17670:1.0 17805:1.0 
2.548164112189516 0.9212843882099073 1164:2.0 1306:1.0 4245:1.0 6283:1.0 7346:1.0 8505:1.0 9001:2.0 14478:1.0 15333:1.0 15408:1.0 16465:1.0 18012:1.0 18837:1.0 
8.0 0.0 570:1.0 2244:1.0 4626:1.0 4713:1.0 6944:1.0 7346:1.0 7752:1.0 8505:1.0 13965:1.0 15306:1.0 19235:1.0 
0.0 3.744904661666527 570:1.0 571:3.0 1164:1.0 7346:1.0 8505:1.0 12225:1.0 13511:1.0 19235:1.0 
1.006419604826175 0.528779032423389 4856:1.0 5201:1.0 5498:1.0 7346:1.0 8515:1.0 9770:1.0 16378:1.0 19864:1.0 
6.404849977477936 3.199692812666123 4856:1.0 5201:1.0 7346:1.0 8515:1.0 9770:1.0 16378:1.0 19864:1.0 
4.711808610956858 2.8665785998851105 571:2.0 572:2.0 1164:1.0 1635:1.0 4856:1.0 7275:1.0 7346:1.0 8365:1.0 9770:1.0 12539:1.0 12700:1.0 16378:1.0 
5.262039646948529 2.9838274630944954 572:2.0 1786:1.0 7346:1.0 9003:1.0 9363:1.0 10532:1.0 10863:1.0 12225:1.0 12298:1.0 12772:1.0 12887:1.0 13511:1.0 15306:1.0 15310:1.0 17316:1.0 
8.0 5.829500467531034 570:1.0 575:1.0 3029:1.0 5989:1.0 7346:1.0 8325:1.0 11005:1.0 15996:1.0 18189:1.0 19235:1.0 19416:1.0 
2.7053576563929274 0.0 1164:1.0 1440:1.0 2025:1.0 4028:1.0 4072:1.0 6375:1.0 6958:1.0 7346:1.0 8505:1.0 13965:1.0 15780:1.0 
2.8742755030757006 0.0 572:3.0 1164:2.0 2025:1.0 2026:1.0 3110:1.0 4035:1.0 4858:1.0 7346:1.0 8505:1.0 8731:1.0 14310:1.0 15629:1.0 16177:1.0 18025:1.0 18137:1.0 18200:1.0 
3.9945778772208467 0.0 1164:1.0 3029:1.0 4680:1.0 4933:1.0 7346:1.0 7476:1.0 10501:1.0 13776:1.0 14286:1.0 14310:1.0 14508:1.0 14773:1.0 
8.0 8.0 2886:1.0 7318:1.0 7346:1.0 8505:1.0 
4.830011924169962 6.532714824831155 571:2.0 7346:1.0 8514:1.0 12539:1.0 14896:1.0 19289:1.0 
2.2566894897023446 1.2573695277921624 571:1.0 574:3.0 1164:1.0 4669:1.0 4818:1.0 7316:1.0 7346:1.0 7604:2.0 9363:1.0 11335:1.0 11862:1.0 13511:1.0 17443:1.0 
2.8792196714186504 0.0 571:2.0 1297:1.0 1325:1.0 4928:1.0 6010:1.0 7316:1.0 7346:1.0 8505:1.0 8896:1.0 10532:1.0 10863:1.0 12225:1.0 13385:1.0 14062:1.0 18130:1.0 18837:1.0 18850:1.0 
0.6452962095580378 0.0 770:1.0 4051:1.0 4551:1.0 7346:1.0 7476:1.0 8542:1.0 12274:1.0 12501:1.0 13842:1.0 14508:1.0 18830:1.0 19690:1.0 
8.0 0.7216105414896706 674:1.0 3759:1.0 7346:1.0 8928:1.0 14484:1.0 17571:1.0 18475:1.0 19329:1.0 
8.0 6.1589740283113885 1306:1.0 1655:1.0 2452:1.0 7346:1.0 8515:1.0 9056:1.0 18130:1.0 
8.0 8.0 8365:1.0 14951:1.0 
3.4772482241815776 1.21154657957929 572:1.0 729:1.0 1165:1.0 3135:1.0 4028:2.0 4975:1.0 7346:1.0 7476:1.0 8206:1.0 10409:1.0 10905:1.0 13385:1.0 14286:1.0 15534:1.0 20157:1.0 
8.0 0.9508995174189078 834:1.0 5153:1.0 7346:1.0 8513:1.0 15333:1.0 
2.720118348199528 1.1832583982007008 845:1.0 1164:1.0 1325:1.0 2863:1.0 4028:2.0 7346:1.0 8505:1.0 8802:1.0 10097:1.0 10811:1.0 11900:1.0 12225:1.0 16177:1.0 16498:1.0 17019:1.0 18972:1.0 
1.508007139028674 0.0 1164:1.0 7346:1.0 10532:1.0 12274:1.0 12298:1.0 13991:1.0 
2.703043976992645 0.0 575:1.0 1075:1.0 2553:1.0 2554:1.0 7346:1.0 7906:1.0 8794:1.0 8913:1.0 10532:1.0 15603:1.0 16605:1.0 
7.6665445026467065 0.0 1164:1.0 1325:1.0 2318:1.0 6943:1.0 7346:1.0 8692:1.0 8716:1.0 12166:1.0 12225:1.0 12274:2.0 13153:1.0 13565:1.0 15306:1.0 
0.840387948020252 0.0 571:1.0 572:2.0 1164:1.0 2641:1.0 4245:1.0 7346:1.0 8505:1.0 12225:1.0 12979:1.0 13154:1.0 13565:1.0 14896:1.0 15333:1.0 17255:1.0 17361:1.0 17689:1.0 
8.0 5.699345616995348 7346:1.0 14767:1.0 17802:1.0 
8.0 1.436641145733246 571:1.0 1164:1.0 1325:1.0 3055:1.0 3110:1.0 7346:1.0 8505:1.0 12539:1.0 13154:1.0 
8.0 0.0 575:1.0 1164:1.0 4245:1.0 7346:1.0 8505:1.0 10065:1.0 11282:1.0 13677:1.0 15333:1.0 16490:1.0 17434:1.0 
8.0 8.0 7346:1.0 18028:1.0 19289:1.0 
7.611817459569475 2.3993071807153696 572:2.0 1164:2.0 1325:1.0 2200:1.0 6949:1.0 7346:1.0 8505:1.0 8731:1.0 19450:1.0 
6.518580156280518 2.2933394916960226 572:2.0 1164:2.0 5524:1.0 6387:1.0 7346:1.0 8505:1.0 8731:1.0 13520:1.0 18086:1.0 
5.320945092864267 0.0 1164:1.0 2318:1.0 3055:1.0 6943:1.0 7346:1.0 7814:1.0 8692:1.0 9937:1.0 12166:1.0 12225:1.0 12274:2.0 12887:1.0 15306:1.0 15962:1.0 17316:1.0 20249:1.0 
2.8442394149771006 0.6630045838521151 3055:1.0 6197:1.0 6201:1.0 6943:1.0 7346:1.0 12274:1.0 17805:1.0 18972:1.0 19864:1.0 
2.671589294190852 0.0 574:1.0 3723:1.0 7346:1.0 8365:1.0 11803:1.0 12298:1.0 12301:1.0 13654:2.0 14310:2.0 14723:1.0 15273:1.0 15502:1.0 17859:1.0 18101:1.0 18827:1.0 19534:1.0 19965:1.0 
8.0 0.15085815987746215 1164:1.0 7346:1.0 7347:1.0 8505:1.0 8515:1.0 
1.0623941360487525 3.3697977471810105 570:1.0 571:1.0 1164:1.0 1260:1.0 4551:1.0 7346:1.0 7689:1.0 8505:2.0 10532:1.0 12141:1.0 14040:1.0 18830:1.0 19331:1.0 
3.944235820619722 0.0 1075:1.0 1164:1.0 4551:1.0 6263:1.0 6944:1.0 7346:1.0 8505:1.0 10532:1.0 15306:1.0 18830:1.0 
8.0 3.8283366152557194 574:1.0 6226:1.0 7346:1.0 7605:1.0 16993:1.0 
8.0 0.0 571:1.0 575:1.0 1164:1.0 2430:1.0 7346:1.0 8513:1.0 10409:1.0 12274:1.0 12887:1.0 13991:1.0 14664:1.0 15333:1.0 17316:1.0 17537:1.0 
2.584112373508089 1.7405688731356188 570:2.0 4245:1.0 5007:1.0 5031:1.0 5639:1.0 5905:1.0 7346:1.0 8505:1.0 10590:1.0 11315:1.0 12594:1.0 13324:1.0 13332:1.0 14310:1.0 15306:1.0 15333:1.0 
3.0233365305027906 3.059797554774194 570:1.0 1055:1.0 7346:1.0 10590:1.0 13442:1.0 13661:1.0 14795:1.0 15571:1.0 15931:1.0 17013:1.0 17789:1.0 
8.0 2.4118867549252254 571:1.0 1422:1.0 6944:1.0 7346:1.0 15306:1.0 15309:1.0 
0.6632475110477953 0.0 571:1.0 1164:1.0 1325:1.0 3021:1.0 3110:1.0 4397:1.0 6173:1.0 7346:1.0 8505:1.0 12225:1.0 12811:1.0 13599:1.0 17154:1.0 20273:1.0 
3.8842983043019617 0.6862602247099491 572:7.0 575:1.0 1164:1.0 3055:1.0 5309:1.0 6943:1.0 7145:1.0 7346:1.0 8726:1.0 9935:1.0 12274:1.0 15306:1.0 18769:1.0 
3.780793264282474 0.0 572:1.0 1164:1.0 1325:1.0 2318:1.0 4463:1.0 6943:1.0 7248:1.0 7346:1.0 8692:1.0 10029:1.0 12166:1.0 12225:1.0 12274:2.0 12720:1.0 15306:1.0 15571:1.0 
1.9393230842283924 0.0 572:1.0 1164:1.0 1169:1.0 1680:1.0 2200:1.0 3988:1.0 7346:1.0 8980:1.0 11105:1.0 12225:1.0 15306:1.0 19864:1.0 
3.625695079984158 1.0028072317375085 572:2.0 1164:2.0 1325:1.0 1624:1.0 4057:1.0 6005:1.0 7248:1.0 7275:1.0 7346:1.0 8505:1.0 14577:1.0 17653:1.0 18651:1.0 
5.246899446685181 7.5923049184652065 571:1.0 573:2.0 2553:1.0 4463:1.0 5182:1.0 6395:1.0 7346:1.0 9001:1.0 13102:1.0 15688:1.0 16862:1.0 20080:1.0 
0.0 0.8196906665886678 571:4.0 1667:1.0 1770:1.0 5268:1.0 6944:1.0 7346:1.0 12811:1.0 15306:1.0 17528:1.0 18769:1.0 19289:1.0 19329:1.0 
8.0 0.0 47:1.0 574:1.0 575:1.0 1186:1.0 3565:1.0 3880:1.0 5970:1.0 7346:1.0 19013:1.0 
6.458871846705672 0.0 575:1.0 1164:2.0 1211:1.0 7346:2.0 8513:1.0 8913:1.0 10532:1.0 14508:1.0 15306:1.0 15333:1.0 19329:1.0 
3.9807390064423824 0.0 575:1.0 4245:1.0 6171:1.0 6943:1.0 7346:1.0 7476:1.0 8505:1.0 9001:1.0 10532:2.0 12274:1.0 15306:1.0 15333:1.0 17805:1.0 18837:1.0 
0.425130975996103 0.5568131843653799 571:10.0 573:2.0 1164:1.0 2557:1.0 3565:1.0 4858:1.0 7346:1.0 12298:1.0 17305:1.0 19495:1.0 
8.0 0.0 571:1.0 1164:1.0 4245:1.0 6943:1.0 7346:1.0 8505:1.0 8515:1.0 12274:1.0 15306:1.0 15333:1.0 15973:1.0 
0.5265557207109808 0.0 1164:1.0 3414:1.0 4909:1.0 7346:1.0 8505:1.0 8840:1.0 9678:1.0 12083:1.0 12298:1.0 16577:1.0 19137:1.0 
8.0 0.0 570:1.0 574:1.0 575:1.0 2174:1.0 6943:1.0 7346:1.0 8515:1.0 12225:1.0 12274:1.0 17175:1.0 19013:1.0 19235:1.0 19267:1.0 
1.8237092164500777 0.0 1164:1.0 6943:1.0 7346:1.0 8505:2.0 12098:1.0 12274:1.0 14772:1.0 15534:1.0 16276:1.0 18972:1.0 19613:1.0 
3.0465392030679763 0.0 1164:2.0 2318:1.0 2865:1.0 4245:1.0 6943:1.0 7346:1.0 8505:1.0 8692:1.0 12166:1.0 12225:1.0 12274:2.0 12887:1.0 15306:1.0 15333:1.0 17316:1.0 18988:1.0 
2.1266926413655574 0.0 1119:1.0 1164:1.0 2318:1.0 4035:1.0 6943:1.0 7346:1.0 8692:1.0 8958:1.0 12166:1.0 12225:1.0 12274:1.0 12887:1.0 14876:1.0 15306:1.0 15543:1.0 16732:1.0 17316:1.0 19613:1.0 
2.5569529092274137 0.8964153418989502 1164:1.0 1667:1.0 2954:1.0 4987:1.0 6849:1.0 7346:1.0 10409:1.0 11595:1.0 11713:1.0 15534:1.0 18784:1.0 19089:1.0 19269:1.0 19613:1.0 
4.465911650744913 2.1913326236234085 1218:1.0 3311:1.0 3531:1.0 4072:1.0 8883:1.0 11384:1.0 11900:1.0 13218:1.0 14508:1.0 16689:1.0 17625:1.0 18340:1.0 18536:1.0 
8.0 2.871425324669934 571:1.0 575:1.0 5180:1.0 5753:1.0 11214:1.0 11384:1.0 12881:1.0 14056:1.0 16537:1.0 18516:1.0 
6.0072915710361805 4.034318227535559 2174:1.0 2853:1.0 8501:1.0 8898:1.0 11384:1.0 13290:1.0 16242:1.0 
4.59340310179173 0.0 572:2.0 575:1.0 870:1.0 10925:2.0 11384:1.0 13511:1.0 14027:1.0 15464:1.0 18784:1.0 19675:1.0 19682:1.0 
4.074670527244192 0.0 574:1.0 575:1.0 1744:1.0 2449:1.0 3675:1.0 7108:1.0 9225:1.0 11384:1.0 14667:1.0 14873:1.0 16237:1.0 17743:1.0 19013:1.0 19872:1.0 
8.0 6.689783869432332 5970:1.0 6861:1.0 9078:1.0 9363:1.0 10863:1.0 11384:1.0 14036:1.0 
0.748915402968719 0.0 575:1.0 1731:1.0 3143:1.0 5688:1.0 8296:1.0 9703:1.0 10492:1.0 10590:1.0 11384:2.0 17520:1.0 17524:1.0 17525:1.0 19013:1.0 
0.6404107454148503 8.0 571:1.0 834:1.0 3930:1.0 11384:1.0 19806:1.0 19815:1.0 20096:1.0 
6.591717959721432 5.394148798283458 3890:1.0 7149:1.0 11384:1.0 14508:1.0 15603:1.0 17191:1.0 17607:1.0 18667:1.0 18714:1.0 
8.0 2.043385553928778 572:1.0 575:1.0 2273:1.0 2275:1.0 7009:1.0 11384:1.0 15404:1.0 19229:1.0 19834:2.0 
8.0 0.0 575:1.0 5017:1.0 6436:1.0 6719:1.0 7061:1.0 7761:1.0 11384:1.0 12979:1.0 16904:1.0 19872:1.0 
4.382563337244265 0.6505234361903324 571:1.0 575:1.0 3790:1.0 3859:1.0 4354:1.0 4551:1.0 6023:1.0 8913:1.0 11384:1.0 12811:1.0 14310:1.0 15083:1.0 15518:1.0 19013:1.0 19329:1.0 19648:1.0 
6.085536377647253 2.6143543205786877 572:2.0 573:1.0 1564:1.0 5484:1.0 10688:1.0 11384:1.0 13978:1.0 18012:1.0 19184:1.0 
1.2591210036723035 1.0546504025726993 571:1.0 3790:1.0 3859:1.0 4354:1.0 4551:1.0 6023:1.0 8365:1.0 8913:1.0 11384:1.0 11689:1.0 12270:1.0 12811:1.0 14310:1.0 15083:1.0 19180:1.0 19329:1.0 19648:1.0 
6.084681451021762 0.0 572:1.0 860:1.0 4842:1.0 8365:1.0 8692:1.0 11384:1.0 14310:1.0 15536:1.0 15571:1.0 16780:1.0 19675:1.0 
0.3432015102522252 0.0 571:1.0 574:2.0 1667:1.0 4853:1.0 5898:1.0 6387:1.0 10472:1.0 11384:1.0 11784:1.0 18900:1.0 
0.0 1.354690798711205 572:1.0 575:1.0 4858:1.0 6719:1.0 11384:3.0 11385:1.0 12709:1.0 13511:1.0 16904:1.0 19675:1.0 
2.376932213333556 0.0 572:1.0 575:1.0 4858:1.0 6719:1.0 11384:2.0 11385:1.0 12709:1.0 13511:1.0 16904:1.0 19675:1.0 
8.0 0.0 572:1.0 575:1.0 4858:1.0 6719:1.0 11384:2.0 11385:1.0 12709:1.0 13511:1.0 16904:1.0 19675:1.0 
8.0 0.5288007686663945 572:1.0 575:1.0 4858:1.0 6719:1.0 11384:2.0 11385:1.0 12179:1.0 12709:1.0 13511:1.0 16904:1.0 19675:1.0 
8.0 2.3170857809503693 572:1.0 575:1.0 4858:1.0 6719:1.0 11384:2.0 11385:1.0 12709:1.0 13511:1.0 16904:1.0 19675:1.0 
7.670076174496622 1.3124124906024632 3199:1.0 3859:1.0 5468:1.0 7801:1.0 8032:1.0 11384:1.0 16581:1.0 16904:1.0 19184:1.0 
6.969215220288419 4.13956177265628 570:1.0 574:1.0 575:1.0 3414:1.0 3770:1.0 6719:1.0 8363:1.0 9812:1.0 11384:1.0 11777:1.0 12979:1.0 13835:1.0 14587:1.0 19473:1.0 
6.108751781837242 1.4652962461668435 575:1.0 663:1.0 3723:1.0 5360:1.0 5675:1.0 6719:1.0 8692:1.0 11384:2.0 12709:1.0 16991:1.0 17464:1.0 17537:1.0 
1.2713864505348875 0.0 571:1.0 1667:1.0 2318:1.0 8201:1.0 11384:1.0 14244:1.0 
7.928177509184438 2.5878852783082342 572:1.0 574:1.0 4842:1.0 8365:1.0 8693:1.0 9250:1.0 11384:1.0 14310:1.0 15571:1.0 19013:1.0 19675:1.0 
1.5503881467098202 0.0 570:1.0 571:2.0 574:1.0 575:1.0 2025:1.0 7665:1.0 8201:1.0 11384:2.0 15780:1.0 17653:1.0 18764:1.0 19097:1.0 19235:1.0 
1.3064959812633108 0.6415965886034952 572:2.0 574:2.0 1164:1.0 5153:1.0 7316:1.0 8916:1.0 10532:1.0 11335:1.0 11384:1.0 15408:1.0 15688:1.0 17361:1.0 18837:1.0 20053:2.0 
4.775869786081577 1.3002446819972409 575:1.0 1731:1.0 3143:1.0 5688:1.0 8296:1.0 9703:1.0 10590:1.0 11384:2.0 17520:1.0 17524:1.0 17525:1.0 19013:1.0 19599:1.0 
7.329092992610715 0.5910627640529312 572:1.0 574:1.0 575:1.0 2864:1.0 6016:1.0 8692:1.0 11384:2.0 12225:1.0 15534:1.0 15571:1.0 16780:1.0 17520:1.0 19675:1.0 
3.040258975904499 0.0 575:1.0 5721:1.0 7476:1.0 8542:1.0 11384:1.0 11431:1.0 15571:2.0 
8.0 0.0 575:1.0 2284:1.0 7346:1.0 9749:1.0 11384:1.0 12225:1.0 15571:2.0 17972:1.0 
7.095120488382072 1.261623041568094 3904:1.0 4248:1.0 7192:1.0 8796:1.0 11384:1.0 13879:1.0 13885:1.0 15632:1.0 15699:1.0 16401:1.0 18837:1.0 
8.0 0.0 572:2.0 575:1.0 1119:2.0 6893:1.0 7346:1.0 8802:1.0 8809:1.0 8849:1.0 11384:1.0 12529:1.0 14638:1.0 17689:1.0 18475:1.0 18606:1.0 
8.0 3.4736649506328234 1218:1.0 1635:1.0 4387:1.0 7058:1.0 7506:1.0 8127:1.0 8365:1.0 9689:1.0 10040:1.0 11384:1.0 11689:1.0 13442:1.0 14056:1.0 14310:1.0 
8.0 6.324332155963216 571:1.0 575:1.0 2025:1.0 8202:1.0 11384:2.0 14056:1.0 14743:1.0 
0.6777295043529451 0.0 5887:1.0 7476:1.0 9852:1.0 11384:1.0 15697:1.0 15703:1.0 16683:1.0 16820:1.0 17653:1.0 
7.376384716979977 8.0 575:1.0 2275:1.0 3378:1.0 4463:1.0 11384:1.0 13493:1.0 19815:1.0 
8.0 7.379969242721002 575:1.0 853:1.0 1164:1.0 1832:1.0 3930:1.0 6037:1.0 11384:1.0 15489:1.0 17520:1.0 17805:1.0 18826:1.0 
2.7844855633310104 0.30141205880388644 4731:1.0 7476:1.0 11384:1.0 11453:1.0 16635:1.0 17523:1.0 17653:1.0 17939:1.0 
5.451959318610747 4.288809787526266 570:1.0 572:1.0 575:1.0 5822:1.0 5862:1.0 6398:1.0 9052:1.0 11384:1.0 11713:1.0 15697:1.0 17422:1.0 18890:1.0 19123:1.0 19186:1.0 19666:1.0 19815:1.0 
8.0 4.648043568653181 574:1.0 575:1.0 2500:1.0 11384:1.0 17520:1.0 18143:1.0 18378:1.0 19013:1.0 19864:1.0 
0.9234311739428568 0.003137718009458921 571:4.0 574:1.0 1667:1.0 2318:1.0 3718:1.0 8201:1.0 8202:1.0 9744:1.0 11384:1.0 12811:1.0 13318:1.0 14743:1.0 15931:1.0 16826:1.0 19013:1.0 
0.0 2.530318071729463 570:1.0 575:1.0 4072:1.0 6099:1.0 6345:1.0 8202:1.0 10532:1.0 11384:1.0 14396:1.0 14743:1.0 15488:2.0 15931:1.0 16490:1.0 
8.0 0.8298501352616472 575:1.0 6099:1.0 6345:1.0 8202:1.0 10532:1.0 11384:1.0 14743:1.0 15488:2.0 15931:1.0 
8.0 0.9207330921459839 571:1.0 575:1.0 1422:1.0 3075:1.0 11384:1.0 11932:2.0 12225:1.0 20285:1.0 
3.870287292127289 0.0 575:1.0 5532:1.0 8011:1.0 9744:1.0 10138:1.0 10863:1.0 11384:1.0 12080:1.0 13677:1.0 15701:1.0 
8.0 2.6238546276875776 575:1.0 5532:1.0 8011:1.0 9744:1.0 10138:1.0 10863:1.0 11384:1.0 12080:1.0 13677:1.0 15701:1.0 
5.756974686827856 3.5030696555536003 7485:1.0 8345:1.0 9938:1.0 10925:1.0 11384:1.0 14665:1.0 
5.749545967773145 0.0 571:1.0 573:1.0 575:1.0 6143:1.0 6719:1.0 7983:1.0 8011:1.0 9631:1.0 9703:1.0 9812:1.0 10409:1.0 11384:1.0 12837:1.0 13192:1.0 15245:1.0 15247:1.0 18086:1.0 
1.0068919668982856 0.0 571:2.0 574:1.0 575:1.0 3350:1.0 3414:1.0 6106:1.0 6297:1.0 8032:1.0 11384:1.0 12225:1.0 12979:1.0 13756:1.0 16042:1.0 19834:1.0 
6.755420684288613 1.2918667854704886 573:1.0 1306:1.0 2277:1.0 5121:1.0 7316:1.0 9078:1.0 11105:1.0 11384:1.0 17670:1.0 18826:1.0 19235:1.0 19834:1.0 
2.0609107404594127 0.0 571:1.0 572:1.0 708:1.0 1954:1.0 4034:1.0 6387:1.0 8689:1.0 8913:1.0 9050:1.0 10742:1.0 11384:1.0 12225:1.0 13965:1.0 16904:1.0 19329:1.0 19675:1.0 
8.0 5.618905309679464 575:1.0 3855:1.0 8916:1.0 10532:1.0 11384:1.0 12126:1.0 15298:1.0 15780:1.0 18250:1.0 19682:1.0 19956:1.0 
7.5398608641664975 0.0 571:1.0 575:1.0 3350:1.0 3414:1.0 6106:1.0 6297:1.0 8032:1.0 11384:1.0 12225:1.0 12979:1.0 13756:1.0 19834:1.0 
2.621457134328284 0.0 574:1.0 2053:1.0 3634:1.0 7275:1.0 7786:1.0 11265:1.0 11384:1.0 11835:1.0 17653:1.0 
7.169669384042536 2.7207600076961125 575:1.0 2591:1.0 4072:1.0 10487:1.0 11384:2.0 11779:1.0 13849:1.0 18086:2.0 18853:1.0 19381:1.0 19727:1.0 
8.0 3.0748446531098885 570:1.0 575:1.0 2036:1.0 3874:1.0 6629:1.0 10925:1.0 11384:1.0 16072:2.0 16573:1.0 16862:1.0 17577:1.0 19682:1.0 19872:1.0 
8.0 0.0 520:1.0 571:1.0 575:1.0 1336:1.0 4552:1.0 5744:2.0 11384:1.0 12811:1.0 13442:1.0 14096:1.0 15428:1.0 17625:1.0 18837:1.0 
2.749235237485421 1.7305311294634833 570:1.0 1507:1.0 4741:1.0 5444:1.0 5816:1.0 7316:1.0 11384:1.0 13752:1.0 14310:1.0 14352:1.0 15252:1.0 15255:1.0 15349:1.0 16378:1.0 18697:1.0 20048:1.0 
5.3741018105203855 0.0 575:1.0 4853:1.0 6412:1.0 7316:1.0 8016:1.0 11384:1.0 12894:1.0 18150:1.0 
7.29033186442618 3.2424233506308155 574:1.0 1233:1.0 2381:1.0 2581:1.0 3773:1.0 6811:1.0 11384:1.0 14076:1.0 14483:1.0 15595:1.0 17081:1.0 
4.444861065604818 0.0 571:1.0 574:1.0 575:1.0 3924:1.0 4248:1.0 5525:1.0 8645:2.0 8689:1.0 8764:1.0 11384:1.0 13154:1.0 17653:1.0 19722:1.0 
6.770958272293111 0.1916458045010784 571:2.0 1655:1.0 2454:1.0 8849:1.0 11005:1.0 11384:1.0 11713:1.0 17537:1.0 
0.9992666960377301 0.5334415825893009 571:2.0 572:1.0 834:1.0 1119:1.0 1469:1.0 1744:1.0 2621:1.0 4626:1.0 4915:1.0 5200:1.0 7202:1.0 7784:1.0 11384:1.0 12539:1.0 15271:1.0 20008:1.0 20059:2.0 
1.8045744793103573 1.933889801200187 571:2.0 572:1.0 834:1.0 1119:1.0 1744:1.0 2621:1.0 4626:1.0 4915:1.0 5200:1.0 7202:1.0 7784:1.0 11384:1.0 12539:1.0 15271:1.0 20008:1.0 20059:2.0 
5.836878289328828 0.8697746918447287 571:1.0 575:1.0 6895:1.0 8689:1.0 11384:1.0 12805:1.0 13950:1.0 17537:1.0 18972:1.0 
8.0 6.8309115289073565 573:1.0 574:1.0 575:1.0 2284:1.0 5219:1.0 7316:1.0 7346:1.0 8970:1.0 11384:1.0 13105:1.0 19013:1.0 
8.0 5.4340396968359785 575:1.0 1306:1.0 2184:1.0 4822:1.0 8995:1.0 10226:1.0 11384:1.0 16993:1.0 17329:1.0 19675:1.0 
3.1799107061921617 0.8633333693492965 170:1.0 571:1.0 574:2.0 4463:1.0 4530:1.0 7476:1.0 8206:1.0 11384:1.0 11851:1.0 11963:1.0 12961:1.0 14680:1.0 17939:1.0 18081:1.0 19229:1.0 
5.845262908671381 0.0 575:1.0 10925:1.0 11384:1.0 15931:1.0 16237:1.0 16862:1.0 17057:1.0 17433:1.0 
8.0 0.0 572:1.0 575:1.0 4842:1.0 8692:1.0 11384:1.0 15534:1.0 15571:1.0 16780:1.0 19675:1.0 
8.0 0.9651120951350254 575:1.0 3723:1.0 10590:1.0 11384:1.0 11713:1.0 12811:1.0 13565:1.0 14100:1.0 15699:1.0 
6.8730692050086395 3.195137241670445 575:1.0 2200:1.0 4853:1.0 5204:1.0 11384:1.0 12193:1.0 15185:1.0 18025:1.0 19675:1.0 19696:1.0 
6.464929392176938 4.720862333085448 574:1.0 3890:1.0 9662:1.0 11384:1.0 12298:1.0 17376:1.0 
8.0 8.0 573:1.0 574:1.0 575:1.0 8518:1.0 8659:1.0 8849:1.0 11384:1.0 14508:1.0 15235:2.0 19682:1.0 19872:1.0 
6.134854631343645 2.907625726561398 572:1.0 6133:1.0 7072:1.0 8233:1.0 10590:1.0 11384:1.0 11713:2.0 12711:1.0 18826:1.0 19722:1.0 
2.1103196040457837 2.423836893365163 1151:1.0 1306:2.0 3501:1.0 6667:1.0 6862:2.0 7009:1.0 7586:1.0 10532:1.0 10590:1.0 11384:1.0 12539:1.0 14310:2.0 17245:1.0 
8.0 8.0 7316:1.0 11384:1.0 12819:1.0 
5.500711315161528 0.0 575:1.0 1075:1.0 6143:1.0 11384:1.0 16136:1.0 17789:1.0 18025:1.0 19440:1.0 19442:1.0 
8.0 8.0 571:3.0 572:1.0 11384:1.0 20141:1.0 
1.6316300650085953 1.464663360902503 643:1.0 1361:1.0 4168:1.0 7513:1.0 8873:1.0 10590:1.0 11384:1.0 11779:1.0 12811:1.0 
8.0 2.7782905964145916 570:1.0 575:1.0 4072:1.0 6155:1.0 11384:1.0 17185:1.0 18143:1.0 18378:1.0 19038:1.0 
4.942366441902272 4.182444073158984 570:1.0 1164:1.0 6650:1.0 7266:1.0 8505:1.0 10065:1.0 10571:1.0 10925:1.0 11384:1.0 13385:1.0 14132:1.0 16111:1.0 16553:1.0 17376:1.0 19864:1.0 
8.0 8.0 572:1.0 3930:1.0 9502:1.0 11384:1.0 17653:1.0 18784:1.0 19675:1.0 
8.0 0.0 571:2.0 1750:1.0 10590:1.0 18475:1.0 
8.0 8.0 573:1.0 13658:1.0 
7.038807472416486 7.961241336630824 570:1.0 2351:1.0 2940:1.0 3992:1.0 6085:1.0 6283:1.0 8011:1.0 9078:1.0 11713:1.0 12752:1.0 14199:1.0 15298:1.0 16182:1.0 18475:1.0 19834:1.0 
8.0 8.0 574:1.0 2546:1.0 11518:1.0 18475:1.0 
3.502690854942574 1.0847850942623658 571:1.0 1119:1.0 1744:2.0 5929:1.0 9631:1.0 10058:1.0 10145:1.0 10578:1.0 12141:1.0 12979:1.0 14154:1.0 16047:1.0 16416:1.0 17573:1.0 17670:1.0 18322:1.0 18475:1.0 
8.0 8.0 570:1.0 571:1.0 3897:1.0 9631:1.0 16162:1.0 18475:1.0 
8.0 0.0 571:1.0 1325:1.0 1501:1.0 6398:1.0 6749:1.0 12225:1.0 17724:1.0 18475:1.0 19722:1.0 
7.763369910250804 2.3908177939976665 573:2.0 574:1.0 1108:1.0 5057:1.0 16162:2.0 18475:1.0 18488:1.0 19435:1.0 
8.0 4.093845761985646 3942:1.0 5639:1.0 7842:1.0 10409:1.0 13028:1.0 13677:1.0 14508:1.0 15649:1.0 16780:1.0 17361:1.0 18475:1.0 
8.0 8.0 731:1.0 17805:1.0 18475:1.0 
8.0 8.0 570:2.0 7997:1.0 10058:1.0 10578:1.0 12979:1.0 13028:1.0 15858:1.0 18475:1.0 
4.105899515189856 0.0 571:2.0 2252:1.0 8958:1.0 10266:1.0 10590:1.0 11207:1.0 16350:1.0 17548:1.0 18012:1.0 18475:1.0 20141:1.0 
8.0 8.0 6085:1.0 18475:1.0 
5.5239236851383895 0.0 574:1.0 7202:1.0 7786:1.0 15931:1.0 18475:1.0 20053:1.0 
7.9209555720362195 1.9374402845594074 618:1.0 6085:1.0 9129:1.0 11862:1.0 13965:1.0 18475:1.0 18503:1.0 
2.21785950533771 6.71620005398062 7288:1.0 7384:1.0 10319:1.0 10590:1.0 15095:1.0 15858:1.0 16575:1.0 18475:1.0 19834:1.0 
8.0 8.0 574:1.0 18475:1.0 
8.0 0.0 571:1.0 8003:1.0 18475:1.0 
8.0 2.518028617314794 571:1.0 11697:1.0 18475:1.0 
5.329457575075921 0.9386232574453731 571:1.0 572:1.0 2062:2.0 7266:2.0 11186:1.0 11489:1.0 14508:1.0 16079:1.0 18475:1.0 18496:1.0 19521:1.0 
8.0 0.0 571:1.0 10590:1.0 17225:1.0 18475:1.0 
8.0 8.0 4638:1.0 5219:1.0 6819:1.0 8928:1.0 11518:1.0 18012:1.0 18475:1.0 
6.971229151322766 5.564944214513389 571:1.0 572:1.0 1218:1.0 2927:1.0 5411:1.0 7288:1.0 9631:1.0 14100:1.0 15478:1.0 17653:1.0 18407:1.0 18475:1.0 19229:1.0 
8.0 4.3451167567328675 571:1.0 3359:1.0 17501:1.0 18475:1.0 
8.0 8.0 572:1.0 12225:1.0 18496:1.0 
8.0 0.0 10590:1.0 17805:1.0 18475:1.0 
8.0 8.0 18475:1.0 
1.0010841799959576 0.5318405498760957 574:1.0 1302:1.0 5910:1.0 7316:1.0 7403:1.0 10166:1.0 12811:1.0 13385:1.0 14053:1.0 14508:1.0 15442:1.0 15980:1.0 16350:1.0 17789:1.0 18475:1.0 
0.0 0.18624426213250428 574:1.0 6085:1.0 11086:1.0 18488:1.0 
8.0 1.3805017730537732 7384:1.0 10590:1.0 18475:1.0 
8.0 8.0 570:1.0 573:1.0 11207:1.0 16350:1.0 18475:1.0 18495:1.0 19727:1.0 
5.235977645354255 6.021385188952296 965:1.0 6085:1.0 18488:1.0 
4.9816547729256655 3.0339232651304346 571:2.0 572:2.0 731:1.0 1224:1.0 3368:1.0 5961:1.0 7598:1.0 10226:1.0 11003:1.0 13677:1.0 14278:1.0 18475:1.0 18723:1.0 19901:1.0 
2.462457354587815 2.512899454861165 574:1.0 1302:1.0 7316:1.0 7403:1.0 10166:1.0 12811:1.0 13385:1.0 14053:1.0 14508:1.0 15442:1.0 15980:1.0 16350:1.0 17789:1.0 18475:1.0 
8.0 2.6338864587785995 1306:1.0 4035:1.0 5712:1.0 11105:1.0 11713:1.0 12908:1.0 16753:1.0 18475:1.0 19229:1.0 
8.0 7.783615576118013 1297:1.0 2062:1.0 5219:1.0 6085:1.0 6226:1.0 9947:1.0 18475:1.0 18498:1.0 
4.666915119524005 3.6443982064255804 573:1.0 574:1.0 3350:1.0 5864:1.0 5978:1.0 6085:1.0 10863:1.0 11713:1.0 11862:1.0 12189:1.0 13928:1.0 14008:1.0 18475:1.0 19574:1.0 
8.0 0.0 7786:1.0 18475:2.0 
8.0 8.0 332:1.0 18475:1.0 
8.0 1.4088386453224555 575:1.0 8689:1.0 12580:1.0 15142:1.0 16268:1.0 16353:1.0 18475:2.0 
8.0 8.0 2319:1.0 2879:1.0 6085:1.0 6819:1.0 18475:1.0 
7.270331769324854 0.0 4064:1.0 6185:1.0 10590:1.0 18475:2.0 18972:1.0 
8.0 5.4551302064901686 2200:1.0 6085:1.0 6584:1.0 6819:1.0 17488:1.0 18475:1.0 19229:1.0 
5.995724956096355 4.237688510598651 570:1.0 635:1.0 6858:1.0 7866:1.0 8032:1.0 10532:1.0 10903:1.0 15858:1.0 18475:2.0 18972:1.0 
8.0 0.5181326906497089 5691:1.0 6395:1.0 8011:1.0 15931:1.0 16430:1.0 17571:1.0 18475:2.0 19329:1.0 
8.0 0.0 731:1.0 7786:1.0 18475:1.0 
2.0134487818901974 0.0 1744:1.0 2206:1.0 5283:1.0 5639:1.0 6085:1.0 6652:1.0 7316:1.0 10397:1.0 17537:1.0 17634:1.0 18475:1.0 
1.0027271320234439 0.5304529300099342 232:1.0 269:1.0 4463:2.0 6085:1.0 8912:1.0 8913:1.0 17755:1.0 18475:1.0 
8.0 8.0 8620:1.0 9631:1.0 11518:1.0 11713:1.0 14062:1.0 18137:1.0 18475:1.0 20141:1.0 
3.377203922362821 1.6314323658007919 232:1.0 269:1.0 4463:2.0 6085:1.0 8912:1.0 8913:1.0 18475:1.0 
7.70094922254217 4.785788164736089 571:1.0 2014:1.0 2593:1.0 6768:1.0 7786:1.0 8032:1.0 10785:1.0 11697:1.0 12539:1.0 15235:1.0 17653:1.0 18305:1.0 18475:2.0 
8.0 8.0 4810:1.0 18475:1.0 
8.0 8.0 571:1.0 1119:1.0 1256:1.0 2036:1.0 2940:1.0 16862:1.0 17063:1.0 18475:1.0 
8.0 0.0 10590:1.0 18475:1.0 18505:1.0 
8.0 8.0 18475:1.0 
8.0 8.0 570:1.0 4463:1.0 5745:1.0 6401:1.0 6872:1.0 8435:1.0 15858:2.0 18475:2.0 
6.678680854455074 0.0 2121:1.0 5923:1.0 7192:1.0 7933:1.0 10058:1.0 10298:1.0 10578:1.0 12979:1.0 13385:1.0 14495:1.0 18248:1.0 18475:1.0 18729:1.0 19137:1.0 
8.0 0.0 571:1.0 10590:1.0 18475:1.0 20141:1.0 
4.816648065457176 0.0 571:2.0 574:1.0 2856:1.0 3235:1.0 4912:1.0 8251:1.0 12539:1.0 17939:1.0 18475:1.0 20054:1.0 
4.029029167771359 0.0 957:1.0 6085:1.0 7842:1.0 8032:1.0 15488:1.0 18488:1.0 18826:1.0 
8.0 5.197910394898006 6630:1.0 9631:1.0 10058:1.0 10578:1.0 11862:1.0 12979:1.0 14508:1.0 18475:1.0 
8.0 0.0 7786:1.0 18475:1.0 
8.0 0.0 6085:1.0 7476:1.0 12335:1.0 12383:1.0 16581:1.0 16632:1.0 18475:1.0 19229:1.0 
5.547845987845179 4.164540668575973 875:1.0 3097:1.0 6283:1.0 10230:1.0 12979:1.0 14495:1.0 18475:1.0 18826:1.0 19834:1.0 
8.0 6.253468822581717 572:1.0 2255:1.0 4503:1.0 4828:1.0 12658:1.0 18475:1.0 
8.0 0.0 7786:1.0 9484:1.0 18475:1.0 18850:1.0 
5.96183395192877 0.0 571:1.0 729:1.0 6085:1.0 7690:1.0 10863:1.0 11314:1.0 12225:1.0 12811:1.0 14669:1.0 18475:1.0 
4.20121890364118 5.484835168550121 571:1.0 572:1.0 573:1.0 834:1.0 1925:1.0 6819:1.0 7275:1.0 10312:1.0 10810:1.0 12225:1.0 12352:1.0 16368:1.0 17769:1.0 17848:1.0 
0.8319816320587311 1.4626921301258626 570:1.0 575:1.0 3859:1.0 5268:1.0 6629:1.0 6858:1.0 8620:1.0 10793:1.0 13385:1.0 17653:1.0 17743:1.0 17939:1.0 18305:1.0 19289:1.0 19772:1.0 20141:1.0 
2.144334613289116 1.2289131643707525 570:2.0 571:3.0 2121:1.0 6666:1.0 6872:1.0 10058:1.0 10578:1.0 12979:1.0 18837:1.0 20141:1.0 
7.48431805659523 0.16860356280693636 3560:1.0 5464:1.0 11639:1.0 11640:1.0 12352:1.0 16904:1.0 17653:1.0 
3.2660816748840094 6.329205730443689 4463:1.0 13216:1.0 17939:1.0 19798:1.0 
1.0604016613383316 0.0 28:1.0 571:4.0 574:1.0 895:1.0 2050:1.0 7786:1.0 8001:1.0 8104:1.0 10590:1.0 11097:1.0 12225:1.0 12352:1.0 16583:1.0 
7.075788837316434 0.0 575:1.0 5721:1.0 8107:1.0 10058:1.0 10578:1.0 12979:1.0 
7.758191950620233 3.0487172562755895 9744:1.0 10602:1.0 11183:1.0 11384:1.0 13200:1.0 13654:1.0 13658:1.0 16904:1.0 18012:1.0 
0.4514247617940459 0.0 570:1.0 571:3.0 572:1.0 574:1.0 1119:1.0 2044:1.0 4248:1.0 7587:1.0 10650:2.0 10868:1.0 11115:1.0 11120:1.0 14446:1.0 15931:1.0 19036:1.0 19235:1.0 
0.08834620613041856 0.0 571:3.0 2108:1.0 10590:3.0 11862:1.0 16415:1.0 
8.0 8.0 570:1.0 10298:1.0 10409:1.0 14640:1.0 
0.256584603672736 0.0 571:2.0 2401:1.0 3210:1.0 3298:1.0 3583:1.0 7176:1.0 7476:1.0 7479:1.0 9394:1.0 13654:1.0 14181:1.0 14646:1.0 16436:1.0 19137:1.0 
8.0 8.0 570:1.0 3599:1.0 11689:1.0 13028:1.0 16973:1.0 
8.0 7.766673187706821 2638:1.0 7587:1.0 14159:1.0 
0.0 2.67300005827629 571:2.0 572:1.0 3216:1.0 4072:1.0 4463:1.0 5219:1.0 6133:1.0 10590:1.0 11722:1.0 13010:1.0 15944:1.0 16079:1.0 19255:1.0 19463:1.0 
7.3806249521285565 8.0 570:1.0 571:1.0 14640:1.0 
6.3409535073365415 7.137381412808401 571:3.0 572:2.0 9798:1.0 16526:1.0 19666:1.0 
0.44235326993766866 1.9728694396264912 571:4.0 1667:1.0 8928:1.0 9280:1.0 9812:1.0 12374:1.0 19631:1.0 
4.58089877425949 0.7443518951262286 571:5.0 2200:1.0 5989:1.0 6719:1.0 8103:1.0 10585:1.0 10863:1.0 
0.7296320429480322 0.0 570:1.0 574:1.0 575:1.0 7587:1.0 10331:1.0 10590:1.0 10919:1.0 12716:1.0 15012:1.0 19038:1.0 19384:1.0 
0.0 0.7492021239073615 571:3.0 1031:1.0 4463:1.0 5721:1.0 5923:1.0 6143:2.0 7786:2.0 8880:1.0 11315:1.0 
8.0 0.0 571:1.0 6768:1.0 7786:1.0 
2.7757285607354936 0.5357875285532206 571:3.0 575:1.0 4463:1.0 7587:2.0 9714:1.0 9812:1.0 10029:1.0 10058:1.0 10578:1.0 12335:1.0 12979:1.0 13216:1.0 14727:1.0 15743:1.0 19553:1.0 
7.586186762256148 1.3484409948468805 574:1.0 575:1.0 3072:1.0 4257:1.0 5550:1.0 7601:1.0 11384:1.0 14027:1.0 14537:1.0 14542:1.0 18972:1.0 
3.247037270249764 0.22330252796253205 853:1.0 1055:1.0 2174:1.0 2892:1.0 3877:1.0 6958:1.0 7077:1.0 8730:1.0 8993:1.0 12006:1.0 15603:1.0 16436:1.0 17376:1.0 19690:1.0 
0.0 3.725340038516103 570:1.0 571:1.0 1793:1.0 2927:1.0 3097:1.0 7176:1.0 8421:1.0 8880:1.0 11315:1.0 12849:1.0 14056:1.0 16162:1.0 16577:1.0 16948:1.0 19235:1.0 19815:1.0 
7.36135809011631 2.489878106235312 895:1.0 10810:1.0 12352:1.0 15687:1.0 15883:1.0 16416:1.0 17848:1.0 19864:1.0 
1.6671363884082468 0.0 572:1.0 1471:1.0 2581:1.0 3067:1.0 3859:1.0 5268:1.0 6387:1.0 7266:1.0 7267:1.0 7786:1.0 9690:1.0 11384:1.0 11833:1.0 13227:1.0 13567:1.0 16991:1.0 18305:1.0 19781:1.0 
0.0 2.3483685370086627 572:1.0 3014:1.0 3029:1.0 3529:1.0 5484:1.0 6651:1.0 6743:1.0 8315:1.0 10793:1.0 12172:1.0 12539:1.0 18012:1.0 19815:2.0 19851:1.0 
1.6633908307648548 0.0 571:2.0 573:2.0 574:2.0 2862:1.0 4072:1.0 4245:1.0 8103:1.0 8505:1.0 9812:1.0 10388:1.0 10472:1.0 13196:1.0 17670:1.0 19450:1.0 19527:1.0 20048:1.0 20141:1.0 
3.1006020557558456 5.031417523439779 2200:1.0 7906:1.0 8103:1.0 9058:1.0 12507:1.0 12539:1.0 12733:1.0 14896:1.0 16490:1.0 
5.727708504528544 6.032288699828107 2916:1.0 3510:1.0 7871:1.0 11027:1.0 20048:1.0 
0.17565477752205327 2.5127930125350986 571:5.0 2458:1.0 6098:1.0 8184:1.0 15059:1.0 
7.959289835375579 8.0 571:4.0 6958:1.0 15258:1.0 
3.2957415981895988 3.497021636323388 570:1.0 571:2.0 832:1.0 2739:1.0 6283:1.0 6658:1.0 9129:1.0 10029:1.0 10417:1.0 10532:1.0 15509:1.0 16436:1.0 17777:1.0 19229:1.0 19416:1.0 
8.0 4.213029398545081 575:1.0 3859:1.0 6173:1.0 6958:1.0 8913:1.0 12374:1.0 12979:1.0 13846:1.0 18719:1.0 19636:1.0 
8.0 3.031607435780769 572:1.0 876:1.0 4409:1.0 12352:1.0 12916:1.0 15720:1.0 15886:1.0 18191:1.0 
0.0 1.7591723371540229 1667:1.0 2307:1.0 3414:1.0 6666:1.0 
0.12139473188799993 2.4756079311793036 570:1.0 5456:1.0 8508:1.0 8841:1.0 13407:2.0 
0.06291779770775577 8.0 6763:1.0 14508:2.0 15603:1.0 19289:1.0 20053:1.0 
8.0 8.0 571:1.0 4480:1.0 14896:1.0 15033:1.0 
8.0 4.682737098445737 2062:1.0 3865:1.0 7951:1.0 11384:1.0 11932:1.0 17805:1.0 19806:1.0 
8.0 0.0 574:2.0 575:1.0 4146:1.0 16436:1.0 17805:1.0 19013:1.0 19165:1.0 19666:1.0 
8.0 5.6306206631469395 777:1.0 6698:1.0 7275:1.0 7587:1.0 8299:1.0 9200:1.0 
8.0 1.883576217029137 571:1.0 575:1.0 8116:1.0 10304:1.0 
0.5525558288500622 0.0 12881:1.0 17057:1.0 19418:1.0 
3.9971029568507763 8.0 571:1.0 2200:1.0 9387:1.0 
0.9122123543991799 0.5804603409426744 571:9.0 3667:1.0 9928:1.0 12811:2.0 14765:1.0 15173:1.0 17783:1.0 19834:1.0 
0.14932564952956606 0.0 571:1.0 951:1.0 2959:1.0 5331:1.0 7108:1.0 10000:1.0 10058:1.0 10578:1.0 10590:1.0 12979:1.0 15809:1.0 16078:1.0 19631:1.0 
0.0 0.8466447525551439 119:1.0 570:1.0 571:8.0 572:1.0 575:1.0 2249:1.0 4493:1.0 6819:1.0 7424:1.0 7604:1.0 10590:1.0 10930:1.0 17573:1.0 20010:1.0 
4.752477100556455 2.3082531914624136 571:3.0 572:3.0 7266:1.0 9812:1.0 10058:1.0 12706:1.0 17906:1.0 18075:1.0 20157:1.0 
8.0 8.0 1224:1.0 1352:1.0 3029:1.0 3051:1.0 14742:1.0 19289:1.0 20157:1.0 
7.45434048105943 0.2444689557890941 574:1.0 575:1.0 742:1.0 1151:1.0 2962:1.0 4456:1.0 5183:1.0 10058:1.0 10326:1.0 10405:1.0 10578:1.0 10903:1.0 11639:1.0 12979:1.0 
0.0 1.0973975762701238 91:1.0 570:1.0 571:1.0 1727:1.0 2307:2.0 2789:1.0 5386:1.0 6436:1.0 7176:1.0 7786:1.0 8082:1.0 11636:1.0 17743:1.0 20141:1.0 
2.67686358193656 8.0 571:2.0 1208:1.0 4334:1.0 7786:1.0 10571:1.0 12539:1.0 15688:1.0 17373:1.0 18058:1.0 19289:1.0 
0.0 8.0 571:1.0 4463:1.0 5992:1.0 15388:1.0 
2.860621514765398 0.07413871075863376 573:1.0 1261:1.0 1282:1.0 3469:1.0 3629:1.0 4248:1.0 5978:1.0 14743:1.0 17019:2.0 19831:1.0 
0.0 1.1395840914333684 570:1.0 571:2.0 4414:1.0 4501:1.0 5435:1.0 10047:1.0 12270:1.0 19235:1.0 
0.8602355098354859 4.495971480868692 573:1.0 574:2.0 2054:1.0 4917:1.0 6819:1.0 7536:1.0 10590:2.0 12539:1.0 14495:1.0 14896:1.0 16700:1.0 17553:1.0 17670:1.0 17932:1.0 19289:1.0 20141:1.0 
5.179870809590642 0.0 572:1.0 574:1.0 1744:1.0 2119:1.0 6573:3.0 7786:1.0 8434:1.0 18305:1.0 
6.194545865383471 6.143093703048415 571:1.0 5484:1.0 8103:1.0 11635:1.0 20186:1.0 
1.1092556142723868 0.0 2661:1.0 6080:1.0 6387:1.0 6666:1.0 7587:1.0 7618:1.0 7786:1.0 12225:1.0 12473:1.0 13650:1.0 13720:1.0 14349:1.0 14896:1.0 15719:1.0 16248:1.0 17653:1.0 19815:1.0 20141:1.0 20191:1.0 
1.709452421276537 0.0 10590:1.0 12088:1.0 18108:1.0 
4.671391728291337 2.3644925239747843 573:2.0 6763:1.0 8003:1.0 11384:1.0 13216:1.0 15757:1.0 17019:1.0 17670:1.0 19418:1.0 20048:1.0 
2.202075561067458 0.0 571:2.0 575:1.0 3854:1.0 6531:1.0 12225:1.0 12352:1.0 14040:1.0 17255:1.0 20059:1.0 
0.18064620408627313 8.0 571:2.0 2512:1.0 18534:1.0 20053:1.0 
0.7581483626809901 0.0 571:2.0 945:1.0 2284:1.0 5920:1.0 7476:1.0 8977:1.0 9755:1.0 10585:1.0 12335:1.0 13654:1.0 14355:1.0 17691:1.0 17939:1.0 18012:1.0 18058:1.0 19772:1.0 
2.567258501003568 0.0 572:2.0 5206:1.0 5978:1.0 7465:1.0 7786:1.0 8103:1.0 11400:1.0 12270:1.0 13028:1.0 13526:1.0 14079:1.0 19416:1.0 
4.041819449539998 0.8006950691688718 571:2.0 1409:1.0 9298:1.0 11044:1.0 12066:1.0 12352:1.0 18651:1.0 18972:1.0 
2.3344036059933324 0.0 571:2.0 575:1.0 1075:1.0 3414:1.0 6263:1.0 10387:1.0 12539:1.0 12979:1.0 14079:1.0 14896:1.0 15271:1.0 
8.0 4.799747372656632 4463:1.0 10140:1.0 12374:1.0 15298:1.0 18475:1.0 18826:1.0 19631:1.0 
3.844988920215193 0.37949652007961276 572:2.0 573:1.0 574:1.0 2270:1.0 5164:1.0 9502:1.0 10590:1.0 12343:1.0 12352:1.0 12811:1.0 15773:1.0 15883:1.0 16091:1.0 18349:1.0 19553:1.0 20141:1.0 
8.0 0.0 575:1.0 10590:1.0 17777:1.0 
5.2712955549665335 0.09020011651151708 571:4.0 2621:1.0 6143:1.0 6858:1.0 6958:1.0 12374:1.0 18075:1.0 19466:1.0 19631:1.0 
0.8540636626571073 0.0 571:3.0 6858:1.0 8103:1.0 9902:1.0 10571:1.0 13216:1.0 13800:1.0 18075:1.0 18942:1.0 
8.0 0.0 574:1.0 575:1.0 10331:1.0 10810:1.0 12352:1.0 19038:1.0 
1.2874055977139673 1.1804172562234232 571:3.0 3770:1.0 4481:1.0 5102:1.0 7786:1.0 10590:1.0 10793:1.0 16500:1.0 16792:1.0 16862:1.0 18837:1.0 19473:1.0 20141:1.0 
0.0 3.611701569506909 4463:1.0 6197:1.0 10590:1.0 13239:1.0 13901:1.0 17139:1.0 17939:1.0 
0.0 1.7745834666641507 570:1.0 571:1.0 574:1.0 1218:1.0 6133:1.0 6719:1.0 7468:1.0 10145:1.0 10590:1.0 11636:1.0 15704:1.0 16430:1.0 19289:1.0 20157:1.0 
0.0 1.5603849638361167 571:2.0 1585:1.0 1667:1.0 2681:1.0 3097:1.0 4507:1.0 5294:1.0 7108:1.0 7690:1.0 10532:1.0 12225:1.0 14435:1.0 19235:1.0 19713:1.0 
7.887617346957162 1.8460045076673008 3097:1.0 7587:1.0 10058:1.0 10388:1.0 10578:1.0 10785:1.0 12326:1.0 12979:1.0 17777:1.0 19521:1.0 20141:2.0 
0.0 3.371117753449395 1799:1.0 2714:1.0 7316:1.0 12539:1.0 12865:1.0 14896:1.0 16490:1.0 
7.689606866638288 2.114230644102814 2189:1.0 2702:1.0 7668:1.0 11149:1.0 
4.392543311456017 1.7508426178142238 208:1.0 571:1.0 572:1.0 575:1.0 2036:1.0 2424:1.0 6859:1.0 13030:1.0 13654:1.0 14415:1.0 15004:1.0 15502:1.0 
4.93418716155794 8.0 570:1.0 1879:1.0 7275:1.0 7951:1.0 11442:1.0 12811:1.0 
8.0 0.0 575:1.0 10058:1.0 10793:1.0 13520:1.0 
3.7281924599686267 0.0 571:3.0 3281:1.0 6140:1.0 7786:1.0 7906:2.0 8103:1.0 9363:1.0 11722:1.0 12225:1.0 19416:1.0 
8.0 0.0 7786:1.0 
5.2951258292448875 0.0 571:2.0 575:1.0 1915:1.0 5905:1.0 6872:1.0 6941:1.0 7604:1.0 8103:1.0 10409:1.0 10501:1.0 19329:1.0 
4.480568126126399 5.947300885130884 170:1.0 571:2.0 3718:1.0 4463:1.0 6133:1.0 12794:1.0 15674:1.0 17825:1.0 18058:1.0 
8.0 0.0 575:1.0 834:1.0 2862:1.0 6387:1.0 7316:1.0 14524:1.0 16436:1.0 
6.144430619099201 8.0 570:1.0 713:1.0 2319:1.0 3181:1.0 5922:1.0 8162:1.0 14078:1.0 14765:1.0 17727:2.0 
8.0 8.0 6962:1.0 12374:1.0 15858:1.0 17139:1.0 
1.451450441080554 0.0 2174:1.0 3074:1.0 3077:1.0 3270:1.0 4156:1.0 6398:1.0 6719:1.0 7906:1.0 8180:1.0 13212:1.0 14093:1.0 19466:1.0 19834:1.0 
2.8602742103780545 0.0 570:1.0 571:1.0 572:1.0 575:1.0 4463:1.0 7906:1.0 8003:1.0 8103:1.0 12270:1.0 16581:1.0 19235:1.0 20141:1.0 
3.015892304654011 0.0 571:4.0 572:1.0 574:1.0 575:1.0 895:1.0 1770:1.0 2454:1.0 6436:1.0 10532:1.0 10810:1.0 11034:1.0 11153:1.0 11458:1.0 12352:1.0 19864:1.0 
0.6998884494560988 0.0 571:1.0 834:1.0 3051:1.0 3352:1.0 6381:1.0 6387:1.0 6763:1.0 11652:1.0 12979:1.0 15168:1.0 15603:1.0 15914:1.0 17653:1.0 17848:1.0 18075:1.0 18899:1.0 19038:1.0 
8.0 0.0 9502:1.0 10058:1.0 10578:1.0 10793:1.0 12979:1.0 18475:1.0 
6.28063484738762 4.020104969249692 3216:1.0 3221:1.0 4463:1.0 7434:1.0 10069:1.0 11862:1.0 12141:1.0 12706:1.0 14256:1.0 15931:1.0 17939:2.0 
2.6429358999308232 1.4587762370609954 1422:1.0 4463:1.0 6943:1.0 7767:1.0 7906:1.0 11264:1.0 12225:1.0 14022:1.0 14774:1.0 15306:1.0 15851:1.0 16581:1.0 18322:1.0 18826:1.0 
8.0 1.8521852292606578 571:1.0 575:1.0 1211:1.0 3414:1.0 3723:1.0 10065:1.0 11384:1.0 12225:2.0 12979:1.0 13674:1.0 13701:1.0 15697:1.0 19402:1.0 19466:1.0 
2.9177558904283702 0.2312504102412355 5153:1.0 7176:1.0 8159:1.0 19450:1.0 
0.0 2.499842223549969 571:1.0 574:1.0 2940:1.0 3668:1.0 6858:1.0 8880:1.0 11315:1.0 17827:1.0 19450:1.0 19495:1.0 
4.431367415303614 0.0 571:1.0 850:1.0 947:1.0 1813:1.0 2174:1.0 6325:1.0 8103:1.0 8842:1.0 10040:1.0 10793:1.0 12335:1.0 14568:1.0 15057:1.0 16744:2.0 18787:1.0 19466:1.0 19475:1.0 
6.292754903237069 8.0 753:1.0 10258:1.0 10674:1.0 11862:1.0 
0.3115485407947926 4.68271987419143 571:1.0 7096:1.0 7999:1.0 9363:1.0 12298:1.0 12352:1.0 15973:1.0 18715:1.0 
8.0 8.0 572:1.0 575:1.0 12786:1.0 
8.0 0.0 2621:1.0 6943:1.0 14040:1.0 15306:1.0 
4.558893993537138 0.0 571:2.0 572:1.0 574:1.0 575:1.0 1744:1.0 6893:1.0 7786:1.0 9078:1.0 10590:1.0 10810:1.0 12352:2.0 15883:1.0 17939:1.0 19013:1.0 
8.0 8.0 570:1.0 572:1.0 2121:1.0 7784:1.0 8315:1.0 10145:1.0 13091:1.0 14488:1.0 15228:1.0 
2.488531295867619 0.0 574:1.0 575:1.0 6226:1.0 7786:1.0 13565:1.0 17366:1.0 
0.2666510281964657 0.0 571:2.0 572:1.0 1585:1.0 3666:1.0 3988:1.0 4121:2.0 4163:1.0 5978:1.0 10198:1.0 11713:1.0 13030:1.0 19666:3.0 
3.219977079985484 0.0 59:1.0 572:1.0 692:2.0 1205:1.0 3281:1.0 3297:1.0 8103:1.0 10996:1.0 14094:1.0 18012:1.0 18561:1.0 20059:1.0 
0.12363962603513298 0.4658989882348139 571:7.0 2174:1.0 3529:1.0 10590:1.0 11862:1.0 16227:1.0 16234:1.0 17255:1.0 19834:1.0 20141:1.0 20157:2.0 
8.0 0.0 575:1.0 718:1.0 2244:1.0 2947:1.0 10590:1.0 12352:1.0 
3.3971681161476197 0.0 571:1.0 573:1.0 1075:1.0 1349:1.0 1585:1.0 3126:1.0 10058:1.0 10578:1.0 12979:1.0 16471:1.0 
0.0 3.063964639981649 570:1.0 2512:1.0 4414:1.0 5153:1.0 7212:1.0 7715:1.0 8299:1.0 12037:1.0 12306:1.0 17139:1.0 18012:2.0 19373:1.0 
8.0 0.0 575:1.0 4961:1.0 18075:1.0 20186:1.0 
2.848876457965154 5.869181257308997 570:1.0 574:1.0 713:1.0 7476:1.0 7587:1.0 7905:1.0 10388:1.0 10919:1.0 11932:1.0 14424:1.0 14508:1.0 
4.506323540721022 8.0 572:1.0 2174:1.0 5915:1.0 10029:1.0 11234:2.0 11456:1.0 
0.0 0.7172436480972479 570:1.0 571:1.0 2044:1.0 7202:1.0 8831:1.0 8880:1.0 11315:1.0 12141:1.0 
0.0 2.4187636997560173 570:1.0 571:5.0 2062:1.0 6387:1.0 6524:1.0 7108:1.0 11713:1.0 16162:1.0 18012:1.0 
0.437296827794345 0.0 571:6.0 2036:1.0 4238:1.0 13565:1.0 13965:1.0 17361:1.0 
8.0 3.0870721409993096 575:1.0 10590:1.0 12352:1.0 13976:1.0 14036:1.0 20147:1.0 
0.0 0.8881681281049433 7604:1.0 10590:1.0 17496:1.0 
8.0 7.821179321663239 571:1.0 575:1.0 1744:1.0 11657:1.0 19409:1.0 
2.745164316576202 0.0 2174:1.0 4713:1.0 5451:1.0 6361:1.0 9129:1.0 12225:1.0 12374:2.0 14256:1.0 15614:1.0 17316:1.0 17789:1.0 19440:1.0 
5.177976988856959 0.0 571:1.0 2213:1.0 3414:1.0 4910:1.0 7786:1.0 11384:1.0 16577:1.0 19806:1.0 
6.155690655845154 8.0 571:2.0 7309:1.0 8265:1.0 11657:1.0 12979:1.0 14508:2.0 18075:1.0 
0.0 5.811187904229631 572:1.0 5251:1.0 10532:1.0 10590:1.0 17850:1.0 
0.0 8.0 1727:1.0 17255:1.0 20053:1.0 
8.0 6.325132025377738 2528:1.0 3473:1.0 10919:1.0 15266:1.0 17139:1.0 17777:1.0 
0.18546124690642998 0.2676656018975343 570:1.0 571:2.0 572:1.0 4463:1.0 7331:1.0 11713:1.0 11722:1.0 12811:1.0 15478:1.0 17932:1.0 18475:1.0 19235:1.0 19418:1.0 
5.668352712276495 1.641777773493664 573:1.0 575:1.0 10590:1.0 10703:1.0 15980:1.0 18516:1.0 18730:1.0 19016:1.0 19839:1.0 
5.454667422084519 0.0 575:1.0 1161:1.0 2284:1.0 4309:1.0 10331:1.0 16078:1.0 19038:1.0 20168:1.0 
0.7751824121125074 0.0 571:2.0 3137:1.0 4039:1.0 7157:1.0 7604:1.0 7786:1.0 12225:1.0 12352:2.0 13654:1.0 15256:1.0 16904:1.0 17653:1.0 
0.0 8.0 571:1.0 836:1.0 6819:1.0 17634:1.0 19815:1.0 20048:1.0 
5.185003105446178 0.0 574:1.0 1727:1.0 6398:1.0 17108:1.0 
6.393268413369052 0.0 571:2.0 572:1.0 575:1.0 5978:1.0 6452:1.0 8315:1.0 12225:1.0 12352:1.0 15883:1.0 19828:1.0 
8.0 0.0 1211:1.0 1265:1.0 1306:1.0 5978:1.0 11384:1.0 11713:1.0 12374:1.0 16436:1.0 19229:1.0 
1.4882085684859991 1.3401961404610647 571:3.0 1042:1.0 1744:1.0 5903:1.0 7176:2.0 7266:1.0 8206:1.0 8317:1.0 8355:1.0 10501:1.0 10930:1.0 12306:1.0 12979:1.0 15408:1.0 15971:1.0 16414:1.0 16896:1.0 17546:2.0 17670:1.0 17743:1.0 19373:1.0 19722:1.0 19864:1.0 
0.0 2.339959631901943 3871:1.0 4310:1.0 4463:1.0 4930:1.0 7288:1.0 10312:1.0 10590:1.0 11722:1.0 13485:1.0 14056:1.0 17114:1.0 17689:1.0 
0.0 0.46119427862491524 1655:1.0 2044:1.0 4058:1.0 4463:1.0 4508:1.0 10688:1.0 11234:1.0 12417:1.0 12711:1.0 16666:1.0 19302:1.0 
0.2102341155656064 0.0 574:2.0 2563:1.0 3849:1.0 6283:1.0 7315:1.0 7715:1.0 8365:1.0 10257:1.0 12298:1.0 16016:1.0 18822:1.0 19482:1.0 19939:1.0 
4.364123902843817 0.0 7971:1.0 9716:1.0 10590:1.0 12352:1.0 
5.488886838128487 1.5782532899957438 575:1.0 2995:1.0 8570:1.0 12298:1.0 16547:1.0 
0.13566371164609914 2.6830916497115664 3304:1.0 4380:1.0 5484:1.0 7478:1.0 10590:1.0 11441:1.0 11473:1.0 12922:1.0 14199:1.0 
8.0 0.0 571:1.0 574:1.0 575:1.0 3414:1.0 4072:1.0 6155:1.0 6666:1.0 12979:1.0 13102:1.0 19013:1.0 
0.0 3.7281976459205746 571:4.0 4380:1.0 6768:1.0 10138:1.0 13654:1.0 19289:1.0 19329:1.0 
7.122299483049559 8.0 7945:1.0 10230:1.0 
1.290203140559158 0.0 572:1.0 574:1.0 575:1.0 10590:1.0 13528:1.0 
0.0 2.6704340882074256 570:1.0 571:2.0 706:1.0 832:1.0 3249:1.0 3368:1.0 6858:2.0 7865:1.0 9703:1.0 10058:1.0 11862:1.0 12979:1.0 13864:1.0 19901:1.0 
6.163797226386298 0.0 572:3.0 575:1.0 7162:1.0 8863:1.0 9905:1.0 11295:1.0 11384:2.0 11681:1.0 12711:1.0 14040:1.0 14053:1.0 19095:1.0 
0.0 2.4920054127554203 2699:1.0 5721:1.0 12225:1.0 12298:1.0 13010:1.0 14056:1.0 17361:1.0 19377:1.0 
8.0 7.689153970587241 216:1.0 571:1.0 2240:1.0 9511:1.0 
1.451851526501673 0.0 3720:1.0 4066:1.0 4961:1.0 6413:1.0 8129:1.0 8880:1.0 11315:1.0 11467:1.0 13216:3.0 15603:1.0 15935:1.0 18075:1.0 19255:1.0 19376:1.0 
2.1891273074474906 1.8164724780427155 571:5.0 572:1.0 3199:1.0 3389:1.0 6226:1.0 6393:1.0 6535:1.0 7476:1.0 10905:1.0 11384:1.0 11657:1.0 13442:1.0 14049:1.0 16862:1.0 18086:1.0 18826:1.0 
0.7037656339124038 3.537463467295806 575:1.0 7275:1.0 7715:1.0 10590:1.0 13285:1.0 20168:1.0 
1.1980200353150119 0.12812421671385005 571:3.0 2805:1.0 8381:1.0 9569:1.0 9855:1.0 12752:1.0 14700:1.0 14914:1.0 17191:1.0 17255:1.0 19171:1.0 
0.0 8.0 571:1.0 10590:1.0 19377:1.0 
3.4035703278711575 0.0 575:1.0 2044:1.0 4463:1.0 9078:1.0 12162:1.0 
0.5211989713571391 0.519081259648696 571:1.0 572:3.0 575:1.0 6858:1.0 7266:1.0 9812:1.0 10692:1.0 11919:1.0 12335:1.0 12979:1.0 15390:1.0 15531:1.0 15931:1.0 18972:1.0 19289:1.0 
1.5021229527877356 1.9331582599831036 571:1.0 1467:1.0 1727:1.0 2174:1.0 2512:1.0 3988:1.0 4668:1.0 5373:1.0 6395:1.0 6768:1.0 7865:1.0 9598:1.0 10895:1.0 12979:1.0 15809:1.0 
4.788995593925747 0.0 571:2.0 572:1.0 575:1.0 3021:1.0 3297:1.0 3967:1.0 5923:1.0 6571:1.0 8103:1.0 8975:1.0 9473:1.0 10994:1.0 11003:1.0 17689:1.0 
8.0 4.838952461099423 2621:1.0 3374:1.0 5303:1.0 6171:1.0 13511:1.0 15306:1.0 18012:1.0 
4.083140094128932 3.4342742722831336 4928:1.0 4933:1.0 10863:1.0 12570:1.0 14508:1.0 14896:1.0 15256:1.0 16436:1.0 16780:1.0 17789:1.0 18086:1.0 18942:1.0 19038:1.0 19574:1.0 
8.0 2.4237735240504965 7786:1.0 
8.0 1.7815359178007462 575:1.0 3854:1.0 9298:1.0 12352:1.0 12920:1.0 14040:1.0 15973:1.0 
0.6197709065169265 0.0 825:1.0 1043:1.0 4818:1.0 5510:1.0 5742:1.0 6947:1.0 10298:1.0 10590:2.0 14508:1.0 15603:1.0 16521:1.0 18826:1.0 18837:1.0 
2.3110614419510958 1.1354473038273716 532:1.0 662:1.0 1056:1.0 7583:1.0 10243:1.0 14180:1.0 15255:1.0 15477:1.0 15664:1.0 
0.1972177933456937 0.0 571:5.0 2174:1.0 4856:1.0 12225:1.0 12335:1.0 12359:1.0 12959:1.0 14700:2.0 16906:1.0 18394:1.0 20096:1.0 
1.2105587771874662 1.9640323004640539 571:7.0 574:2.0 3126:1.0 4113:1.0 4414:1.0 5294:1.0 5316:1.0 7420:1.0 12613:1.0 14341:1.0 17625:1.0 20141:1.0 
5.713004503834333 0.0 2062:1.0 2174:1.0 4463:1.0 4557:1.0 5691:1.0 17939:1.0 18887:1.0 
4.617912269830467 0.0 571:3.0 572:1.0 4271:1.0 7786:1.0 8032:1.0 8198:1.0 9078:1.0 11384:1.0 12711:1.0 15704:1.0 17478:1.0 
2.8399356502912236 0.0 12335:1.0 13192:1.0 14093:1.0 14306:1.0 19771:1.0 
0.0 0.009722047570861092 571:2.0 1585:1.0 7108:1.0 8265:1.0 14508:1.0 18012:1.0 
0.0 8.0 2063:1.0 6283:1.0 7476:1.0 
3.718582612235254 0.4121831468225796 575:1.0 2544:1.0 6013:1.0 7939:1.0 8717:1.0 12709:2.0 13034:1.0 13037:1.0 17653:1.0 
8.0 8.0 2319:1.0 7316:1.0 10842:1.0 17939:1.0 
2.5827901615411664 4.413661374619964 571:18.0 1585:1.0 10764:1.0 12141:1.0 20095:1.0 
3.904411469506156 0.0 571:1.0 2094:1.0 6436:1.0 6958:1.0 8180:1.0 17632:1.0 19771:1.0 
6.44992860745461 0.0 571:1.0 574:2.0 2918:1.0 7587:1.0 12298:1.0 13565:1.0 
1.226176491621948 8.0 570:1.0 6849:1.0 7715:1.0 7926:1.0 9591:1.0 10522:1.0 12811:1.0 20157:1.0 
3.6723765512263276 0.0 571:1.0 572:1.0 2200:1.0 6719:1.0 8869:1.0 10863:1.0 11862:1.0 12352:1.0 12979:1.0 13654:1.0 17361:1.0 
5.642878877703412 0.3032050684501233 1271:1.0 2512:1.0 6006:1.0 7316:1.0 8856:1.0 12225:1.0 12539:1.0 12811:2.0 12837:1.0 14696:1.0 14896:1.0 15603:1.0 16436:1.0 16446:1.0 18942:1.0 
8.0 8.0 571:1.0 4238:1.0 5183:1.0 13511:1.0 15306:1.0 15534:1.0 19675:1.0 
2.8493754113536536 1.3368121021307424 356:1.0 571:2.0 574:1.0 6958:1.0 7801:1.0 10058:1.0 10578:1.0 10605:1.0 10999:1.0 11337:1.0 12374:1.0 12772:2.0 12979:1.0 15478:2.0 19864:1.0 
0.0 0.5066701857247317 571:3.0 574:1.0 1055:1.0 2255:1.0 2892:1.0 6283:1.0 6573:1.0 7316:1.0 11722:1.0 13551:1.0 14524:1.0 18012:1.0 
0.0 0.09965188615431425 571:2.0 2284:1.0 3560:3.0 4309:1.0 4463:2.0 5721:1.0 5892:1.0 6395:1.0 7476:1.0 11308:1.0 12539:1.0 15897:1.0 19074:1.0 
1.9117725714249816 0.0 571:2.0 575:1.0 2510:1.0 6872:1.0 11915:1.0 13412:1.0 14270:1.0 14854:1.0 
0.8327320902695381 5.575404885909146 1352:1.0 1986:1.0 2200:1.0 7266:1.0 7275:1.0 8299:1.0 11467:1.0 11489:1.0 13385:1.0 16194:1.0 17653:1.0 17871:1.0 
0.0 1.212063092604107 573:1.0 1770:1.0 2155:1.0 3988:1.0 4463:1.0 5908:1.0 6202:1.0 9359:1.0 10590:1.0 11429:1.0 12352:1.0 13846:1.0 15299:1.0 
2.9976959800865055 2.604638566629484 6531:1.0 8032:1.0 10590:1.0 11358:1.0 13130:1.0 18235:1.0 
1.3264569784381273 1.899623416598065 570:1.0 1265:1.0 3859:1.0 6173:1.0 7316:1.0 11384:1.0 12774:1.0 13677:1.0 14655:2.0 14687:1.0 17653:1.0 19675:1.0 
0.0 1.1693781638766059 571:1.0 2764:1.0 4072:1.0 16906:1.0 
6.816519117143874 8.0 570:1.0 1770:1.0 6366:1.0 7476:1.0 7897:1.0 8103:1.0 13650:1.0 17743:1.0 17939:1.0 20141:1.0 
8.0 2.9221133450794596 575:1.0 1655:1.0 2710:1.0 11932:1.0 17361:1.0 19038:1.0 19103:1.0 
8.0 2.669648579374731 1032:1.0 6849:1.0 7587:1.0 10388:1.0 10919:1.0 16047:1.0 19157:1.0 
0.0 3.159385412804778 571:2.0 7316:1.0 16449:1.0 19338:1.0 
8.0 8.0 4490:1.0 16047:1.0 
8.0 8.0 570:1.0 572:1.0 6958:1.0 9951:1.0 10230:1.0 20053:1.0 
0.7701241544450281 0.8946896835629324 570:1.0 574:1.0 1325:1.0 1501:1.0 2319:1.0 4414:1.0 7379:1.0 10058:1.0 12141:1.0 12706:1.0 13565:1.0 15893:1.0 16006:2.0 18025:1.0 
0.20806556450331654 0.0 571:1.0 574:1.0 575:1.0 1667:1.0 1744:1.0 3378:1.0 6858:1.0 6893:1.0 7266:1.0 10643:1.0 12352:1.0 14025:1.0 14721:1.0 17009:1.0 18191:1.0 19722:1.0 
0.0 0.17774940454569868 571:1.0 572:1.0 574:1.0 2174:1.0 15614:1.0 17789:1.0 19329:1.0 19416:1.0 20284:1.0 
4.828143910704371 0.0 571:1.0 572:1.0 2638:1.0 7587:1.0 10590:1.0 14159:1.0 14355:1.0 17376:1.0 
0.8441736838970898 0.0 573:1.0 1151:1.0 1224:1.0 2738:1.0 4463:2.0 7275:2.0 7316:1.0 7786:1.0 13879:1.0 13914:1.0 14062:1.0 14385:1.0 15931:1.0 15980:1.0 18012:1.0 
8.0 0.0 571:1.0 6226:1.0 7906:1.0 8103:1.0 9928:1.0 16581:1.0 17939:1.0 
3.4628754945229625 0.0 571:3.0 575:1.0 4079:1.0 6943:1.0 12225:1.0 15306:1.0 18972:1.0 18974:1.0 19708:1.0 
4.722738137663655 5.712892736943318 572:2.0 575:1.0 2841:1.0 3074:1.0 6283:2.0 10138:1.0 10397:1.0 11449:1.0 15588:1.0 18081:1.0 20059:1.0 20152:1.0 
7.447569190852156 8.0 571:1.0 4463:1.0 4490:1.0 7316:1.0 7587:1.0 19137:1.0 
4.5623383600268035 2.0010804048210042 825:1.0 2044:1.0 3029:1.0 3112:1.0 3631:1.0 5411:1.0 7933:1.0 7949:1.0 9947:1.0 10516:2.0 13028:1.0 17120:1.0 18163:1.0 19229:1.0 19463:1.0 
6.893470078208467 1.8723038520023876 573:1.0 3992:1.0 7266:1.0 10590:1.0 12752:1.0 20141:1.0 
2.8355884656701735 2.446132469605707 570:1.0 571:1.0 3126:1.0 3733:1.0 4082:1.0 4128:1.0 5294:1.0 5731:1.0 5742:1.0 7316:1.0 7587:1.0 7752:2.0 8206:1.0 9896:1.0 10590:1.0 12811:1.0 15883:1.0 
1.6572504966340336 4.682359175463807 3097:1.0 3859:1.0 6505:1.0 12352:1.0 17932:1.0 18912:1.0 19235:1.0 20273:1.0 
0.0 1.7963170303506444 571:3.0 4463:1.0 5504:1.0 11396:1.0 11713:1.0 14119:1.0 15931:1.0 16449:1.0 18516:1.0 18764:1.0 
0.09655285882330641 0.0 571:1.0 573:1.0 1496:1.0 4245:1.0 7108:1.0 7598:1.0 7786:1.0 11569:1.0 12225:1.0 16496:1.0 19495:1.0 
0.0 1.5253218877725672 1236:1.0 2200:1.0 2318:1.0 3812:1.0 6283:1.0 8445:1.0 14125:1.0 16778:1.0 16780:1.0 19235:1.0 19712:1.0 
3.224098056866504 0.0 356:1.0 571:2.0 3967:1.0 6958:1.0 8913:1.0 10331:1.0 12374:1.0 13212:1.0 13956:1.0 17849:1.0 20244:1.0 
6.357963720606043 8.0 6819:1.0 6870:1.0 8103:1.0 8104:1.0 10590:1.0 13405:1.0 
0.0 3.529078074026272 571:2.0 575:1.0 5978:1.0 11518:1.0 12225:1.0 12539:1.0 14273:1.0 16883:1.0 19450:1.0 
4.180013912458452 1.6758759362170839 575:1.0 1660:1.0 3134:1.0 3296:1.0 5180:1.0 7218:1.0 8381:1.0 10281:1.0 12161:1.0 12270:1.0 12974:1.0 12979:1.0 14537:1.0 15926:1.0 
0.6178394287436834 0.7529719163782351 571:11.0 572:1.0 1597:1.0 2927:1.0 4463:1.0 5978:2.0 7266:1.0 10522:1.0 14488:1.0 17139:1.0 
8.0 1.6674001974119812 572:2.0 573:1.0 575:1.0 1484:1.0 10331:1.0 14278:1.0 16436:1.0 18101:1.0 18942:1.0 19038:1.0 19156:1.0 20168:1.0 
8.0 0.0 10181:1.0 10590:1.0 11862:1.0 12352:2.0 15856:1.0 17227:1.0 
0.0 1.5153684057654904 571:9.0 1667:1.0 1851:1.0 6283:1.0 6666:1.0 7275:1.0 8039:1.0 10181:1.0 12374:1.0 12979:1.0 16047:1.0 
0.0 6.1347801180710375 571:2.0 5961:1.0 11076:1.0 19791:1.0 19804:1.0 
8.0 8.0 3988:1.0 
8.0 8.0 575:1.0 10029:1.0 12335:1.0 14998:1.0 17361:1.0 
6.056173204732601 8.0 570:1.0 571:1.0 575:1.0 1043:1.0 1046:1.0 5721:1.0 12539:1.0 15271:1.0 16780:1.0 19454:1.0 
0.9243861378616117 0.0 4187:1.0 6155:1.0 6171:1.0 7786:1.0 9078:1.0 12225:1.0 14302:1.0 15245:1.0 18837:2.0 20157:1.0 
0.0 1.4435608425210125 4072:1.0 7384:1.0 12352:1.0 12539:1.0 14488:1.0 14508:1.0 15255:1.0 17789:1.0 19815:1.0 
0.0 1.1896428364094467 571:1.0 2174:1.0 3825:1.0 5908:1.0 8155:1.0 9134:1.0 9135:1.0 12539:1.0 15575:1.0 
0.3756886398683963 0.6639842018267716 571:1.0 1670:1.0 4463:2.0 7835:1.0 9149:1.0 12811:1.0 13654:1.0 15478:1.0 
0.0 0.49034054544013034 571:9.0 3859:1.0 6408:1.0 10230:1.0 12706:1.0 18828:2.0 
3.0865211908787034 0.0 571:2.0 575:1.0 1426:1.0 2567:1.0 3414:1.0 4417:1.0 4454:1.0 10405:1.0 12979:1.0 19416:1.0 
0.8678289710410831 0.0 116:1.0 356:1.0 571:2.0 572:1.0 1261:1.0 1597:1.0 5312:1.0 5978:1.0 7266:1.0 9812:1.0 12374:1.0 13976:1.0 17139:1.0 
0.0 2.052743366933487 571:7.0 9753:1.0 10590:1.0 
7.222935394909281 4.141514961559803 3510:1.0 5489:1.0 
0.03482439346851963 0.0 1422:1.0 1906:1.0 5552:1.0 6658:1.0 7954:1.0 10532:1.0 11784:1.0 12225:1.0 12270:1.0 12539:1.0 12811:1.0 13489:1.0 13576:1.0 13932:1.0 15245:1.0 17850:1.0 19418:1.0 19495:1.0 
2.018155102842458 0.7661945103004312 1823:1.0 2139:1.0 3142:1.0 5476:1.0 7690:1.0 9245:1.0 9951:1.0 16826:1.0 17251:1.0 17361:1.0 
0.07502190402302784 0.9490277959353387 571:4.0 1151:1.0 1599:1.0 5102:1.0 6858:1.0 7865:1.0 10571:1.0 11635:1.0 14207:1.0 
0.41332535579582547 4.827645321026126 571:1.0 2307:1.0 7266:1.0 7308:1.0 12735:1.0 13168:1.0 14495:1.0 15858:1.0 16343:1.0 18764:1.0 19418:1.0 20050:1.0 
7.971567531695229 0.0 895:1.0 4072:1.0 10810:1.0 12225:1.0 12352:1.0 12495:1.0 17019:1.0 17848:1.0 17850:1.0 
0.04490684334064097 1.8417306787607697 571:2.0 2092:1.0 2200:1.0 3666:1.0 5923:1.0 7056:1.0 8011:1.0 10405:1.0 12507:1.0 12773:1.0 14488:1.0 15047:1.0 18058:1.0 
2.933102619770368 0.0 4961:1.0 6699:1.0 7786:1.0 19073:1.0 19772:1.0 
0.0 0.16656769816158357 170:1.0 282:1.0 572:2.0 1727:1.0 2200:1.0 4274:1.0 6226:1.0 12716:1.0 16906:1.0 18028:1.0 19235:1.0 19851:1.0 20059:1.0 
0.065849113683007 1.1035274849523122 570:1.0 572:1.0 3535:1.0 3763:1.0 4463:1.0 8992:1.0 10590:1.0 10863:1.0 13782:1.0 13948:1.0 14152:1.0 15603:1.0 18012:1.0 18101:1.0 18828:1.0 
0.0 5.364308661400404 1417:1.0 2270:1.0 4463:1.0 12298:1.0 17060:1.0 19255:1.0 
2.423982741405206 3.1466493655366117 571:3.0 573:2.0 1043:1.0 3859:2.0 3988:1.0 4639:1.0 8206:1.0 9363:1.0 12225:1.0 18249:1.0 20256:1.0 
8.0 8.0 570:1.0 573:1.0 2284:1.0 6436:1.0 8206:1.0 10793:1.0 11384:1.0 14036:1.0 14734:1.0 15571:1.0 18130:1.0 
1.368930533412639 2.136760081584699 571:4.0 834:1.0 835:1.0 4241:1.0 14427:1.0 15018:1.0 
8.0 7.709377037507178 575:1.0 13998:1.0 18232:1.0 
6.946934566708924 0.0 575:1.0 1660:1.0 2730:1.0 3988:1.0 6560:1.0 6768:1.0 9890:1.0 12446:1.0 14779:1.0 14945:1.0 16436:1.0 
0.07141973497324225 0.15374782022527195 571:1.0 1013:1.0 5923:1.0 6240:1.0 7786:1.0 15464:1.0 18012:1.0 
0.2919396674964895 3.492461817675648 570:1.0 2256:1.0 2947:1.0 7690:1.0 10293:1.0 10332:1.0 19690:1.0 
3.0715100920135217 1.816006924647368 1823:1.0 1926:1.0 2200:1.0 2508:1.0 5125:1.0 6591:1.0 8299:1.0 8406:1.0 13200:1.0 14941:1.0 16808:1.0 
0.5467961211452719 1.237874473595584 571:8.0 1055:1.0 1075:1.0 4613:1.0 5809:1.0 7275:1.0 11862:1.0 12794:1.0 13511:1.0 13654:1.0 16436:1.0 16449:1.0 16794:1.0 17191:1.0 19713:1.0 19978:1.0 
7.585175760896005 0.0 742:1.0 7786:1.0 13159:1.0 20103:1.0 
0.0 2.862072726676479 150:1.0 570:1.0 571:2.0 574:1.0 6436:1.0 10522:1.0 11186:1.0 16449:1.0 17743:1.0 17906:1.0 19235:1.0 
0.582962828963598 3.191760649199239 570:1.0 571:1.0 572:1.0 4742:1.0 4826:1.0 5903:1.0 6022:1.0 6283:1.0 7316:1.0 7997:1.0 8928:1.0 10903:1.0 12225:1.0 13965:1.0 15741:1.0 15878:1.0 17923:1.0 18012:1.0 19675:1.0 
4.477891434625995 3.6598505071233958 571:3.0 4463:1.0 5903:1.0 9311:1.0 9902:1.0 10029:1.0 15404:1.0 18942:1.0 
0.0 1.2300998512126042 572:1.0 574:1.0 1552:1.0 2512:1.0 3560:1.0 6066:1.0 6502:1.0 10590:1.0 12352:1.0 15443:1.0 17777:1.0 18175:1.0 19994:1.0 
7.307717144148497 0.0 575:1.0 1667:1.0 3414:1.0 11678:1.0 12374:1.0 12979:1.0 13849:1.0 13972:1.0 14723:1.0 17373:1.0 19834:1.0 
6.553209103789454 0.0 356:1.0 575:1.0 1667:1.0 2865:1.0 3414:1.0 6958:1.0 12374:1.0 12811:1.0 12979:1.0 13965:1.0 
4.333499032393083 3.6366980017177304 571:3.0 573:1.0 742:1.0 2871:1.0 3880:1.0 4808:1.0 10230:1.0 15074:1.0 15614:1.0 20141:1.0 
3.3457525797631154 0.29976759836602046 571:2.0 572:1.0 574:1.0 575:1.0 3825:1.0 10590:1.0 10810:1.0 12352:1.0 13114:2.0 14798:1.0 17753:1.0 19013:1.0 19038:1.0 19289:1.0 
0.0 8.0 1727:1.0 10590:1.0 
8.0 1.3754872665518882 573:1.0 575:1.0 1667:1.0 11034:1.0 11153:1.0 12352:1.0 13658:1.0 14664:1.0 15883:1.0 18305:1.0 
8.0 8.0 575:1.0 1501:1.0 9701:1.0 15856:1.0 
0.0 1.9199190938034245 571:5.0 5978:1.0 7273:1.0 18058:1.0 
0.0 2.1643274772740186 3059:1.0 5331:1.0 6858:1.0 7476:1.0 9739:1.0 10029:1.0 12335:1.0 17340:1.0 
8.0 8.0 3716:1.0 6325:1.0 6768:1.0 17139:1.0 
0.0 1.0930590163512182 571:2.0 2174:1.0 5484:1.0 7906:1.0 9078:1.0 13212:1.0 
1.295114210064046 1.5707762490123212 571:5.0 1588:1.0 1744:2.0 3046:1.0 5515:1.0 5970:1.0 6387:1.0 11384:1.0 12141:1.0 12386:1.0 12711:1.0 13887:1.0 14016:1.0 14199:1.0 17361:1.0 19381:1.0 19791:1.0 
4.5980123600183 0.0 1726:1.0 1786:1.0 2136:1.0 2621:1.0 6749:1.0 7587:1.0 10006:1.0 10533:1.0 12225:1.0 19267:2.0 
6.1365829715149545 0.4072968945681044 571:1.0 2174:1.0 2182:1.0 4980:1.0 8103:1.0 
2.730312101380551 1.9010037628118248 643:1.0 4737:1.0 7081:1.0 9648:1.0 10173:1.0 10383:2.0 10691:1.0 11234:1.0 12826:1.0 14508:1.0 15567:1.0 
6.264218380809442 2.108285744667581 572:1.0 574:2.0 5479:1.0 7786:1.0 
1.2124200753907883 1.5224543950516396 2059:1.0 2179:1.0 5921:1.0 8103:1.0 9569:1.0 9730:1.0 10590:1.0 10863:1.0 13196:1.0 15931:1.0 19329:1.0 19556:1.0 
0.7407557741509484 1.4783098035767608 572:1.0 4072:1.0 10810:1.0 11034:1.0 11105:1.0 11153:1.0 12352:1.0 13830:1.0 15883:1.0 16361:1.0 17848:1.0 18081:1.0 19289:1.0 
0.9551096975105782 0.0 571:2.0 574:1.0 1515:1.0 5464:1.0 7192:1.0 7786:1.0 8011:1.0 12313:1.0 17653:2.0 17670:1.0 18012:1.0 
2.5305654583963224 0.0 572:2.0 1297:1.0 1564:1.0 2863:1.0 3699:1.0 3723:1.0 3930:1.0 4463:1.0 7476:2.0 10516:1.0 11384:1.0 14873:1.0 17522:1.0 
8.0 8.0 1770:1.0 6436:1.0 6719:1.0 12352:1.0 12495:1.0 15173:1.0 16302:1.0 
4.914216616264026 0.08489530838472224 571:1.0 5451:1.0 7268:1.0 10486:1.0 12225:1.0 12374:1.0 17316:1.0 
5.236286737055734 1.2588646647815964 356:1.0 571:2.0 5836:1.0 12374:1.0 12979:1.0 16446:1.0 17939:1.0 18081:1.0 20044:1.0 
2.3072503829850235 0.0 571:1.0 575:1.0 2464:1.0 4663:1.0 5993:1.0 7476:1.0 8032:1.0 10029:1.0 10532:1.0 11932:1.0 13520:1.0 14003:1.0 15914:1.0 18837:1.0 
3.602914589195146 3.8093664560135876 570:1.0 571:2.0 572:2.0 574:1.0 2610:1.0 11456:1.0 11713:1.0 17939:1.0 18837:1.0 19165:1.0 19235:1.0 
1.0318926679477947 3.781269911350531 571:2.0 755:1.0 4424:1.0 7384:1.0 7768:1.0 19722:1.0 
0.0 8.0 570:1.0 572:1.0 4455:1.0 8103:1.0 8301:1.0 8317:1.0 18012:1.0 19235:1.0 19409:1.0 19690:1.0 
0.0 0.5856286359846189 571:10.0 3319:1.0 4838:1.0 5703:1.0 8032:1.0 8904:1.0 10230:1.0 14889:1.0 
1.0912255683618612 1.932076292571117 6283:1.0 10058:1.0 10281:1.0 10863:1.0 16008:1.0 16227:1.0 
2.077492267822813 2.781766001119893 3302:1.0 4166:1.0 4490:1.0 6436:1.0 7176:1.0 8080:1.0 10590:1.0 17817:1.0 17939:1.0 18436:1.0 19901:1.0 
0.0 8.0 6872:1.0 7275:1.0 7671:1.0 8880:1.0 11315:1.0 14891:1.0 15858:1.0 18972:1.0 19213:1.0 
1.6463719035780269 0.8882488766489846 375:1.0 572:1.0 2307:1.0 4537:1.0 7786:1.0 10405:1.0 15295:1.0 16078:1.0 
8.0 5.538445027598857 3967:1.0 6632:1.0 7865:1.0 8505:1.0 11384:1.0 19666:1.0 
0.0 0.5808581419739008 1151:1.0 1727:1.0 2849:1.0 3349:1.0 3783:1.0 4713:1.0 6191:1.0 7275:1.0 7587:1.0 8299:1.0 10298:1.0 10590:1.0 13965:1.0 13973:1.0 17433:1.0 17434:1.0 
0.0 3.3770424988617194 103:1.0 571:1.0 1246:1.0 2307:1.0 7786:2.0 10650:1.0 15315:1.0 18972:1.0 19289:1.0 19713:1.0 
1.3218604169962977 2.217310981698675 571:1.0 5903:1.0 7786:1.0 10052:1.0 11713:1.0 17510:6.0 
0.0 8.0 570:1.0 571:2.0 834:1.0 15931:1.0 19235:1.0 19416:1.0 
4.7472814190006325 3.1768850921978355 1952:1.0 2744:1.0 7481:1.0 7913:1.0 9078:2.0 10298:1.0 12195:1.0 13575:1.0 15306:1.0 
0.2578752080833201 0.0 571:2.0 573:1.0 611:1.0 1075:1.0 1501:1.0 3029:1.0 6155:1.0 8104:1.0 9265:2.0 10058:1.0 12706:1.0 16527:1.0 19235:1.0 
1.4323875470796072 0.0 571:1.0 574:1.0 575:1.0 1075:1.0 3835:1.0 8685:1.0 9744:1.0 11384:1.0 13216:1.0 13442:1.0 18972:1.0 19956:1.0 
5.3618989884269075 0.0 3733:1.0 12298:1.0 12374:1.0 12811:1.0 13870:1.0 14568:1.0 14825:1.0 18081:1.0 
0.3054493948629256 1.6614084889133867 571:1.0 2553:1.0 3029:1.0 7476:1.0 7786:1.0 8185:1.0 8265:1.0 12141:1.0 13465:1.0 13701:1.0 14747:1.0 16446:1.0 17361:1.0 
0.41757155126801193 0.0 571:4.0 1539:1.0 1850:1.0 3014:1.0 3529:1.0 4245:1.0 4380:1.0 4833:1.0 12933:1.0 14141:1.0 16942:1.0 17433:1.0 18905:1.0 19543:1.0 20186:1.0 20189:1.0 
1.2899229962654701 0.0 994:1.0 9434:1.0 13385:1.0 17653:1.0 17947:1.0 
6.437554810540001 3.6558351844437764 4072:1.0 4490:1.0 6943:1.0 9078:1.0 13551:1.0 13965:1.0 15306:1.0 
0.0 1.3144491858361316 2889:1.0 4463:1.0 6173:1.0 7316:2.0 7865:1.0 8231:1.0 10040:1.0 11418:1.0 11518:1.0 11722:1.0 15603:1.0 
8.0 0.8883280526655799 575:1.0 3029:1.0 3298:1.0 3829:1.0 4026:1.0 7476:1.0 8011:1.0 12225:1.0 12709:1.0 13941:1.0 16436:1.0 16991:1.0 20059:1.0 
2.5518156689537657 0.0 571:1.0 574:1.0 575:1.0 2500:1.0 6085:1.0 6283:1.0 6719:1.0 7554:1.0 11003:1.0 11490:1.0 12580:1.0 13102:1.0 19316:1.0 19329:1.0 20281:1.0 
1.356494617395683 0.044690119069542046 575:1.0 960:1.0 3626:1.0 4659:1.0 8506:1.0 8975:1.0 9363:1.0 12298:1.0 12484:1.0 14931:1.0 16736:1.0 16816:1.0 18012:1.0 19722:1.0 
0.0 1.1655413995403952 571:1.0 12539:1.0 14093:1.0 14896:1.0 15515:1.0 
2.7472397293891238 5.542231686225486 571:1.0 8863:1.0 12495:1.0 13010:1.0 13965:1.0 16993:1.0 17121:1.0 19212:1.0 
0.0 8.0 6283:1.0 7786:1.0 12539:1.0 19690:1.0 
0.7655867825918663 4.6843356137561205 570:1.0 571:1.0 574:1.0 1265:1.0 1685:1.0 2307:1.0 4463:1.0 7266:1.0 7979:1.0 13216:1.0 17065:1.0 17191:1.0 17851:1.0 
1.5569426829890591 0.08562993537776101 2179:1.0 2307:1.0 7786:1.0 8628:1.0 15205:1.0 
8.0 6.2735877010772985 1585:1.0 4463:1.0 5269:1.0 10793:1.0 14435:1.0 15408:1.0 
0.4072609913022461 0.0 1667:1.0 2748:1.0 11202:1.0 12225:1.0 13371:1.0 15478:1.0 15791:1.0 
1.8121204154570216 2.4549971446927175 572:2.0 5138:1.0 7341:2.0 7734:1.0 11713:1.0 12811:1.0 12961:1.0 13584:1.0 14524:1.0 15897:1.0 
4.865567304515565 0.0 571:2.0 575:1.0 742:1.0 1329:1.0 3067:1.0 6601:1.0 7041:1.0 15856:1.0 16635:1.0 17653:1.0 19466:1.0 20059:1.0 
4.002675598946059 0.0 571:1.0 573:1.0 768:1.0 1839:1.0 4974:1.0 5064:1.0 7786:1.0 8265:1.0 11351:1.0 12539:1.0 13091:1.0 14124:1.0 15603:1.0 18189:1.0 19432:1.0 19495:1.0 
1.4597395711045378 0.0 571:6.0 10590:3.0 18837:1.0 
0.0 0.9295167195135136 5978:1.0 18075:1.0 19120:1.0 
3.2099265143325213 4.53269987524961 571:1.0 573:1.0 5365:2.0 7013:1.0 12111:1.0 19362:1.0 
2.3172819793757284 1.264293689855455 203:1.0 571:1.0 6852:1.0 7906:1.0 8036:1.0 8103:1.0 14462:2.0 16635:1.0 17653:1.0 17871:1.0 
0.0 1.9346781217219442 571:2.0 2630:1.0 4501:1.0 6287:1.0 6858:1.0 8252:1.0 10029:1.0 12335:1.0 17835:1.0 19143:1.0 
8.0 0.0 574:1.0 575:1.0 2174:1.0 2284:1.0 5905:1.0 13914:1.0 13917:1.0 19013:1.0 19038:1.0 
0.0 8.0 571:1.0 4142:1.0 4463:1.0 7786:1.0 7787:1.0 10029:1.0 10891:1.0 19815:1.0 
1.2355402870650911 4.798563985144445 571:1.0 2571:1.0 5153:1.0 5612:1.0 7604:1.0 7905:1.0 8107:1.0 11613:1.0 12666:1.0 16436:1.0 16986:1.0 19450:1.0 
1.937604880156945 0.0 571:3.0 1388:1.0 1585:1.0 3342:1.0 4058:1.0 5307:1.0 6049:1.0 8206:1.0 10058:1.0 10578:1.0 12225:1.0 12979:1.0 14888:1.0 15502:1.0 18075:1.0 
8.0 0.0 7316:1.0 7587:1.0 10532:1.0 11069:1.0 13904:1.0 19690:1.0 
2.028359970993466 2.033348646606195 571:4.0 5158:1.0 6366:1.0 6837:1.0 7176:1.0 7275:1.0 13906:1.0 14159:1.0 18075:1.0 18826:2.0 
1.2063399514579747 6.457416280400911 1744:1.0 10298:1.0 11469:1.0 19229:1.0 
1.107194708117257 0.0 571:4.0 572:2.0 575:1.0 2036:1.0 5177:1.0 17670:1.0 
0.12163106790427308 1.5784336341991672 571:1.0 1575:1.0 2174:1.0 4713:1.0 12533:1.0 12811:1.0 13846:1.0 14302:1.0 14484:1.0 14556:1.0 15043:1.0 15168:1.0 
0.0 0.42918547381227795 571:3.0 1549:1.0 4463:1.0 5923:1.0 7476:1.0 7865:1.0 8032:1.0 8265:1.0 8299:1.0 9078:1.0 9363:1.0 10040:1.0 11384:1.0 12225:1.0 12894:1.0 13849:1.0 18012:2.0 
0.00569425465463933 1.3560370758692186 571:3.0 1472:1.0 1608:1.0 4463:1.0 6819:1.0 8103:1.0 8301:1.0 11652:1.0 16744:1.0 17653:1.0 18516:1.0 20053:1.0 
1.942479684762412 1.993589919646388 571:3.0 837:1.0 3097:1.0 4146:1.0 4463:1.0 5219:1.0 6205:1.0 6305:1.0 8180:1.0 10397:1.0 11843:1.0 12539:1.0 16862:1.0 17932:1.0 18103:1.0 18242:1.0 19038:1.0 19235:1.0 
1.6303832167358971 2.459504773515647 571:17.0 5388:1.0 5390:1.0 6381:1.0 6387:1.0 10590:1.0 11014:1.0 17142:1.0 19919:1.0 
0.8843655635740849 0.0 571:2.0 2174:1.0 3733:1.0 4472:1.0 6080:1.0 8103:1.0 9703:1.0 10029:1.0 12335:1.0 14762:1.0 14808:1.0 15614:1.0 18075:1.0 18375:1.0 
0.0 6.689446041445668 570:1.0 574:1.0 834:1.0 3859:1.0 6837:1.0 7476:1.0 12979:1.0 14831:1.0 19235:1.0 
0.0 1.7199226288974325 571:1.0 1075:1.0 6325:1.0 7465:1.0 10029:1.0 11321:1.0 13028:1.0 13385:1.0 19416:1.0 
1.2186517584416285 7.286655168551222 571:3.0 1501:1.0 2036:1.0 4051:1.0 6845:1.0 8299:1.0 13028:1.0 17361:1.0 19289:1.0 
1.4214853893223718 0.0 660:1.0 7176:1.0 7786:1.0 7788:1.0 10243:1.0 18561:1.0 19834:1.0 
0.09320338573568342 8.0 2751:1.0 3794:1.0 4463:1.0 7266:1.0 12507:1.0 17337:1.0 
1.1128667277771953 0.11592368808387568 571:8.0 574:2.0 7587:1.0 7997:1.0 10545:2.0 10903:1.0 17757:1.0 18837:1.0 20053:1.0 
4.541239771981552 7.143945242566275 570:1.0 571:1.0 834:1.0 1325:1.0 6598:1.0 7658:1.0 12352:1.0 16826:1.0 18189:1.0 18318:1.0 
8.0 5.236476144776091 570:1.0 575:1.0 4026:1.0 6790:1.0 7587:1.0 8032:1.0 9812:2.0 10453:1.0 10919:1.0 16055:1.0 16427:1.0 16430:1.0 16780:1.0 16862:1.0 19495:1.0 19574:1.0 
3.427904033639384 2.2646721275682555 571:1.0 572:1.0 1570:1.0 4845:1.0 9078:1.0 10863:1.0 19229:1.0 20059:1.0 
7.125509704456054 0.0 742:1.0 3880:2.0 6436:1.0 10610:1.0 12225:1.0 12931:1.0 15614:1.0 
1.2677507105010537 1.7669274851360786 6658:1.0 10532:1.0 11356:1.0 11817:1.0 12225:1.0 13488:1.0 15396:1.0 16991:1.0 18549:1.0 19815:1.0 
2.144152103043976 0.0 571:3.0 3849:1.0 5978:1.0 6763:1.0 9078:1.0 12916:1.0 16436:1.0 18942:1.0 
2.3579685616217065 0.9706889392269568 2059:1.0 4845:1.0 7072:1.0 13776:1.0 13965:1.0 14159:1.0 15642:1.0 
3.9316450104816836 5.346348263517285 572:1.0 5183:1.0 5312:1.0 9871:1.0 10029:1.0 10863:1.0 11952:1.0 12335:1.0 13511:2.0 15306:1.0 16240:1.0 16868:1.0 17805:1.0 17879:1.0 17939:1.0 
1.9363549995396763 0.0 571:3.0 4039:1.0 4574:2.0 7316:1.0 10532:1.0 11569:2.0 12352:1.0 14040:1.0 15256:1.0 18715:1.0 19789:1.0 
0.0 0.46965239874871106 3236:1.0 4961:1.0 7316:1.0 16787:1.0 
0.0 0.09122133275513172 571:3.0 1744:2.0 3097:1.0 5923:1.0 10122:1.0 12716:1.0 14286:1.0 15603:1.0 17939:1.0 18075:1.0 19235:1.0 19440:1.0 
2.6273668878194263 2.7847966782750126 570:2.0 571:1.0 1358:1.0 1501:1.0 1889:1.0 7587:2.0 8430:1.0 10058:2.0 10578:1.0 10863:1.0 12706:1.0 12979:1.0 16091:1.0 16430:1.0 16787:1.0 17139:1.0 19815:1.0 
4.0178815261773115 4.0349023252238085 3126:1.0 7786:1.0 9203:1.0 
0.0 4.189844192698244 572:1.0 574:1.0 3097:1.0 4463:1.0 4490:1.0 6226:1.0 9345:1.0 9812:1.0 10058:1.0 10354:1.0 10578:1.0 11787:1.0 12979:1.0 15603:1.0 16862:1.0 17932:1.0 19235:1.0 
3.34948433991651 3.005294158160352 571:1.0 572:1.0 2653:1.0 11569:1.0 11750:1.0 12335:1.0 
0.0 0.8385935575105827 1823:1.0 3456:1.0 17102:1.0 18075:1.0 20010:1.0 
3.867204473070136 6.415596675474414 570:1.0 572:1.0 2349:1.0 6055:1.0 8111:1.0 9141:1.0 11635:1.0 13565:1.0 14624:1.0 14741:1.0 16256:1.0 17009:1.0 17366:1.0 18075:1.0 20059:1.0 
1.7666077967038858 0.8553001497623924 571:2.0 574:2.0 575:1.0 1079:1.0 4026:1.0 4501:1.0 7316:1.0 7905:3.0 10532:1.0 13212:1.0 14508:1.0 16047:1.0 
3.940610177757092 0.0 742:1.0 2621:1.0 9164:1.0 10590:1.0 11635:2.0 12225:1.0 
1.327094910130418 8.0 570:1.0 3468:1.0 14640:1.0 17057:1.0 18269:1.0 
1.290492114395782 1.2660135314908514 570:1.0 571:2.0 572:3.0 575:1.0 2036:1.0 5244:1.0 7299:1.0 8127:1.0 15104:1.0 15579:1.0 16907:2.0 16977:1.0 17848:1.0 18012:1.0 19036:1.0 19156:1.0 20059:1.0 
0.0 0.1035858812979024 572:1.0 1709:1.0 2079:1.0 2340:1.0 4817:1.0 6408:1.0 7865:1.0 8904:1.0 11035:1.0 11071:1.0 11384:1.0 13650:1.0 15424:1.0 15703:1.0 19235:1.0 19450:1.0 19815:1.0 
0.0 8.0 571:1.0 5978:1.0 7801:1.0 19815:1.0 
0.4661818953992098 4.289880151375733 571:1.0 834:1.0 14896:1.0 17790:1.0 18470:1.0 19997:1.0 
0.0 1.7922049115331409 571:1.0 572:1.0 4463:1.0 5125:1.0 6387:1.0 6436:1.0 9244:1.0 10608:1.0 15603:1.0 17939:1.0 
0.4306754598527301 0.0 571:2.0 8094:1.0 9078:1.0 12688:1.0 12811:1.0 19329:1.0 
2.337228557790752 8.0 570:1.0 571:1.0 1946:1.0 5125:2.0 8317:1.0 11713:1.0 16873:1.0 
0.7097116759737058 0.0 571:1.0 742:1.0 1043:1.0 3825:1.0 5978:1.0 11141:1.0 12225:1.0 13331:1.0 16302:1.0 16823:1.0 18058:1.0 
1.9875927938962767 3.4466565647059255 573:1.0 810:1.0 5464:1.0 8315:1.0 10145:1.0 11652:1.0 14256:1.0 15617:1.0 16581:1.0 17939:2.0 18405:1.0 19815:1.0 20142:1.0 
0.0 8.0 10590:1.0 16790:1.0 
